{"lstm.weight_ih_l0": [[0.06232474744319916, 0.07575394213199615, 0.07497429847717285, -0.06060122698545456, 0.1111125499010086, -0.04786789417266846, 0.14139632880687714, 0.11448546499013901, -0.006841736380010843, -0.004547640215605497, 0.1321062594652176, -0.06345151364803314, -0.04220293089747429, -0.056781936436891556], [0.10616069287061691, 0.07194752246141434, -0.03422887623310089, 0.013165357522666454, 0.1252128928899765, 0.10427358746528625, -0.04738753288984299, 0.11624671518802643, 0.10131393373012543, 0.026787515729665756, -0.03134620934724808, 0.02973940409719944, -0.026045478880405426, 0.14554280042648315], [0.08819690346717834, -0.0368797667324543, 0.1568095088005066, 0.16501666605472565, 0.04369684308767319, 0.060125935822725296, 0.07977462559938431, -0.07722652703523636, 0.06014074385166168, 0.1503904163837433, -0.07566986978054047, 0.12581653892993927, -0.052233874797821045, 0.12473990023136139], [-0.01631685346364975, 0.02411944977939129, 0.15420971810817719, 0.04908444732427597, -0.03134337067604065, -0.07357212156057358, -0.01780141517519951, 0.03170325234532356, -0.0859224796295166, 0.0005273492424748838, 0.07944247871637344, -0.026676420122385025, 0.11829173564910889, 0.09993172436952591], [-0.06170925125479698, -0.006340043153613806, -0.0025264567229896784, -0.028753438964486122, 0.064029760658741, 0.1170424222946167, -0.04982830584049225, -0.049503669142723083, -0.06070278584957123, -0.03348591551184654, -0.023376256227493286, 0.03647564724087715, 0.014297593384981155, 0.019226262345910072], [-0.009721806272864342, 0.041394710540771484, 0.08832951635122299, 0.027423156425356865, 0.1200561597943306, 0.03945860266685486, 0.027387091889977455, 0.1225191131234169, 0.025127651169896126, 0.08958250284194946, -0.057403795421123505, -0.0332893505692482, -0.06843782961368561, 0.08381331712007523], [-0.028553195297718048, -0.06488681584596634, 0.0014450864400714636, -0.08129998296499252, 0.03144527226686478, -0.062307797372341156, 0.0025083383079618216, 0.08521019667387009, 0.11150291562080383, 0.03214125335216522, 0.03115239553153515, 0.06780853122472763, -0.006862327456474304, 0.01623965986073017], [0.08382842689752579, 0.1233595535159111, 0.09134761244058609, 0.13226547837257385, -0.03537090867757797, -0.11077962815761566, -0.015518125146627426, 0.08303704112768173, -0.03123524971306324, 0.14072196185588837, -0.11279810965061188, -0.05115215852856636, 0.1275380551815033, -0.11724531650543213], [0.15037092566490173, 0.03781382739543915, -0.04343579709529877, -0.051597706973552704, -0.07229629158973694, 0.15085291862487793, 0.09547199308872223, 0.08372634649276733, 0.07389429956674576, 0.10870669782161713, 0.08527754992246628, 0.12539447844028473, -0.07998848706483841, 0.10210523009300232], [0.06625384837388992, 0.1298234462738037, 0.07451360672712326, 0.03933636471629143, -0.08270657062530518, 0.11899147927761078, -0.09020749479532242, 0.04267594590783119, -0.021298104897141457, 0.03468552604317665, -0.09366098046302795, 0.040232785046100616, 0.09421131759881973, -0.042915746569633484], [0.05562344938516617, 0.0033846921287477016, 0.1645812839269638, 0.049607083201408386, 0.07907653599977493, -0.07539750635623932, -0.06059831753373146, 0.1378452181816101, 0.03801489993929863, 0.03683336451649666, 0.13076122105121613, 0.055096253752708435, 0.09073935449123383, 0.12083090096712112], [-0.07757959514856339, 0.1118340864777565, 0.0026509433519095182, 0.1428144872188568, -0.050809964537620544, 0.010955377481877804, -0.03503745421767235, 0.1094173938035965, -0.035234857350587845, 0.0787770077586174, 0.019738178700208664, 0.06674748659133911, 0.048965390771627426, -0.0018200987251475453], [-0.01227479800581932, 0.16796396672725677, 0.026499483734369278, 0.04958346486091614, 0.11940078437328339, 0.05593029782176018, 0.0922352746129036, 0.019759194925427437, 0.056727033108472824, 0.015931975096464157, 0.059271324425935745, 0.025803852826356888, 0.08695735782384872, 0.052734144032001495], [0.04616880416870117, -0.012985535897314548, -0.01056623738259077, 0.016862858086824417, -0.03740052506327629, 0.1371653527021408, 0.1134432852268219, 0.01883699744939804, 0.01251621451228857, 0.09805562347173691, -0.07935464382171631, 0.053876154124736786, 0.05600379407405853, 0.09550055861473083], [-0.02370266430079937, 0.008244115859270096, 0.0047960481606423855, -0.07138824462890625, -0.05386841297149658, -0.022096242755651474, -0.03922808915376663, 0.039184290915727615, 0.00592585327103734, -0.07119633257389069, -0.057850275188684464, 0.11147896945476532, -0.09167051315307617, -0.04444235563278198], [0.044083692133426666, 0.16305743157863617, -0.05946371331810951, -0.0199018232524395, -0.09689129889011383, -0.07813286781311035, 0.11755098402500153, 0.048700764775276184, -0.12036257982254028, 0.15993687510490417, 0.028691954910755157, -0.0391341932117939, 0.027405017986893654, 0.02520088292658329], [-0.09632055461406708, -0.004692242480814457, 0.0029786729719489813, 0.0750405415892601, -0.11698534339666367, -0.06892628967761993, 0.15176531672477722, 0.08006209880113602, -0.0878378227353096, 0.15903759002685547, -0.1119387149810791, 0.15721707046031952, 0.03677573800086975, -0.021848177537322044], [-0.0661669448018074, -0.0005500754341483116, 0.046760402619838715, -0.07217371463775635, 0.06279927492141724, 0.06806517392396927, -0.04613329842686653, 0.08591829985380173, 0.06758610904216766, -0.020359614863991737, 0.018608620390295982, 0.09013144671916962, 0.14723293483257294, 0.07864756882190704], [0.10034404695034027, 0.06014258414506912, 0.057601772248744965, 0.022435445338487625, -0.03970465809106827, 0.03527393937110901, 0.09559895098209381, 0.07411887496709824, 0.13379545509815216, -0.034602586179971695, 0.04826393350958824, 0.07514646649360657, 0.14840738475322723, -0.04186904430389404], [-0.0953739807009697, 0.00392159353941679, -0.12908846139907837, 0.023092592135071754, -0.06587280333042145, -0.025401942431926727, 0.04059559479355812, 0.167727991938591, -0.2093571275472641, -0.10545538365840912, 0.06251631677150726, -0.08067862689495087, -0.028340531513094902, 0.18898434937000275], [-0.010619011707603931, 0.19262072443962097, 0.17093166708946228, -0.042466919869184494, 0.11316680163145065, 0.14265792071819305, -0.015588091686367989, 0.009920964948832989, 0.056152958422899246, 0.041905611753463745, -0.11745178699493408, 0.019452298060059547, 0.15437571704387665, -0.0992550477385521], [0.0008475195500068367, 0.08766353130340576, 0.16641177237033844, 0.026990216225385666, 0.028556479141116142, 0.12343090772628784, 0.1612817645072937, 0.09455295652151108, 0.10374843329191208, 0.051849715411663055, 0.15902480483055115, 0.07002370059490204, 0.033780306577682495, 0.022854719310998917], [0.07654683291912079, 0.07580313831567764, 0.03052094392478466, -0.08085504919290543, 0.09156139940023422, 0.04685266688466072, 0.1362200528383255, 0.07428042590618134, 0.13251493871212006, -0.0016391272656619549, 0.031748730689287186, -0.047560915350914, 0.15851165354251862, 0.14764392375946045], [0.26493680477142334, 0.09659355878829956, 0.2157314270734787, 0.07622618973255157, 0.1703135073184967, 0.05382923409342766, 0.04021548852324486, 0.21068565547466278, 0.13974358141422272, 0.07005471736192703, 0.09673390537500381, 0.036987073719501495, 0.13422225415706635, 0.17896392941474915], [-0.07423591613769531, 0.12984584271907806, 0.1468372941017151, -0.010673858225345612, 0.019520854577422142, -0.037514686584472656, 0.01665014587342739, 0.06512312591075897, 0.07748285681009293, 0.1174367368221283, -0.07350585609674454, 0.0726713240146637, 0.1358596235513687, 0.07452282309532166], [0.0006970464019104838, -0.0200527124106884, -0.05491885915398598, 0.11206307262182236, -0.0027540314476937056, -0.05698429420590401, 0.1122036725282669, 0.01703548990190029, -0.08092433959245682, 0.11671575903892517, -0.11913727968931198, 0.08928108215332031, 0.12125557661056519, 0.14728854596614838], [-0.014039576053619385, 0.017697757109999657, -0.030684389173984528, -0.01726587489247322, 0.10455147176980972, -0.027195142582058907, 0.07866264879703522, -0.006347865331918001, -0.08249783515930176, 0.02551918476819992, 0.03797193989157677, 0.09461478143930435, 0.008362634107470512, 0.06770237535238266], [-0.5733267068862915, 0.1675664335489273, -0.42723348736763, 0.11893109977245331, -0.08193053305149078, -0.06918459385633469, -0.23056116700172424, -0.3736155927181244, -0.27735960483551025, 0.12674246728420258, -0.19074305891990662, -0.23959548771381378, 0.03118220530450344, 0.04902435839176178], [-0.07352735102176666, 0.05881664901971817, 0.08921439945697784, 0.08089711517095566, -0.014447720721364021, -0.07710890471935272, 0.028893930837512016, 0.1342928409576416, -0.07177595794200897, -0.07908779382705688, -0.01712188869714737, 0.1359345018863678, -0.04280514642596245, 0.085948146879673], [0.05677830055356026, -0.042790018022060394, 0.020061861723661423, -0.033938925713300705, 0.1475742906332016, 0.1344565898180008, 0.05740537494421005, 0.05995509400963783, 0.024145232513546944, 0.13594520092010498, -0.04445623978972435, 0.0871354192495346, -0.004492504987865686, 0.011205709539353848], [-0.03830970078706741, 0.10271372646093369, 0.0632239431142807, 0.024572277441620827, 0.025037122890353203, 0.019869819283485413, 0.003032572800293565, 0.09431900084018707, -0.1054956465959549, -0.04680316522717476, -0.020920604467391968, 0.15047837793827057, 0.03173400089144707, -0.0798892006278038], [0.021574506536126137, -0.022753559052944183, 0.01490710861980915, 0.00766997504979372, 0.08094030618667603, 0.11211875826120377, 0.005145384464412928, 0.038138698786497116, 0.1637856662273407, 0.0778307318687439, -0.03221115097403526, 0.11543489992618561, 0.09484092891216278, -0.03317485377192497], [-0.04495003819465637, 0.009844674728810787, 0.04845087602734566, -0.02021835185587406, 0.16093699634075165, 0.1530628353357315, -0.007813342846930027, 0.020193735137581825, 0.1303309053182602, 0.03322984650731087, 0.0842936709523201, 0.1159321665763855, 0.05043192207813263, 0.08229435235261917], [-0.18586352467536926, 0.017976950854063034, 0.029695119708776474, 0.15554174780845642, -0.045826684683561325, 0.07129589468240738, 0.016491496935486794, 0.025107478722929955, -0.1846323311328888, -0.030732428655028343, 0.06462740898132324, 0.09753189980983734, 0.0045054759830236435, 0.005705177318304777], [-0.021297208964824677, 0.14641040563583374, 0.049817655235528946, 0.12339605391025543, -0.07517679780721664, 0.1323460340499878, 0.16114144027233124, 0.14220602810382843, 0.04938718304038048, -0.024489011615514755, 0.09822109341621399, 0.04958033561706543, -0.06461430341005325, 0.151199609041214], [-0.059795282781124115, 0.13772395253181458, -0.06206146627664566, 0.04526142776012421, 0.1452367901802063, 0.07102438062429428, 0.06422962993383408, -0.0025573945604264736, 0.06809883564710617, -0.049436304718256, -0.04777234047651291, 0.16249927878379822, 0.1421794295310974, 0.15026719868183136], [0.014283662661910057, -0.037334952503442764, -0.060959938913583755, 0.04888604208827019, 0.1422119289636612, 0.11248169094324112, 0.07175096124410629, 0.07598700374364853, 0.03986138105392456, -0.002126554027199745, 0.029752446338534355, -0.05237159505486488, 0.11233636736869812, 0.09692983329296112], [0.15588663518428802, 0.01007674541324377, 0.156525120139122, 0.05561027303338051, 0.09867455810308456, -0.0013619326055049896, 0.08932904154062271, 0.007033477537333965, 0.19351844489574432, 0.0009173349244520068, 0.14253555238246918, -0.1119932234287262, -0.042627930641174316, 0.11789369583129883], [-0.13714200258255005, 0.015591440722346306, -0.20779381692409515, -0.01952303759753704, -0.07227574288845062, -0.13150295615196228, -0.053948983550071716, -0.19234244525432587, -0.1796354353427887, -0.06299514323472977, -0.033238139003515244, 0.021246176213026047, -0.09582850337028503, 0.0581107921898365], [-0.05228258669376373, 0.1262793093919754, 0.06611218303442001, -0.02973286621272564, 0.12200796604156494, -0.0781673863530159, 0.048706378787755966, 0.13616663217544556, 0.10631207376718521, 0.1492907702922821, 0.01651829294860363, -0.07407186180353165, 0.059347327798604965, -0.027617866173386574], [0.005322889890521765, 0.00733537832275033, -0.04122548922896385, -0.10216416418552399, 0.07850916683673859, 0.0781477615237236, -0.0765167698264122, -0.15695300698280334, -0.13412398099899292, 0.11814780533313751, 0.013492560014128685, -0.00043409864883869886, -0.09551369398832321, 0.01118239015340805], [-0.06623106449842453, -0.08522163331508636, -0.09090108424425125, -0.027474112808704376, -0.05319800600409508, 0.006234955973923206, -0.08597145974636078, -0.09530610591173172, 0.008600416593253613, -0.07022500783205032, -0.09068651497364044, 0.028886493295431137, -0.0872267335653305, 0.1085478663444519], [-0.05919918417930603, 0.05665288120508194, -0.052252937108278275, 0.0757647231221199, 0.012080270797014236, -0.009994523599743843, -0.028031524270772934, -0.09676662087440491, -0.1088324785232544, 0.06278304010629654, 0.0011086376616731286, 0.02127959206700325, 0.0951310396194458, 0.1004018634557724], [-0.20206524431705475, 0.1507415622472763, -0.24000303447246552, -0.03151123598217964, -0.06970486789941788, -0.011263630352914333, -0.14484883844852448, -0.3698684573173523, -0.26630356907844543, 0.13325539231300354, -0.33117246627807617, -0.10596016049385071, 0.06944389641284943, 0.11852329969406128], [-0.301918089389801, 0.015467960387468338, -0.25919702649116516, 0.11739267408847809, 0.002476105000823736, 0.027082905173301697, -0.16932135820388794, -0.24796845018863678, -0.17674656212329865, 0.040322933346033096, -0.10918178409337997, -0.060845404863357544, 0.02195609360933304, 0.10448843240737915], [-0.05442555248737335, -0.0303813386708498, 0.15469083189964294, 0.15463197231292725, 0.10349006205797195, 0.0006261777016334236, 0.010517116636037827, -0.07110854238271713, -0.033510446548461914, 0.04757175222039223, 0.09372741729021072, -0.08946099132299423, 0.025272468104958534, 0.06510103493928909], [0.09346258640289307, 0.11901519447565079, -0.030260808765888214, 0.09172102808952332, 0.0828096941113472, 0.0704236626625061, 0.003085440257564187, -0.06632376462221146, 0.11729396879673004, -0.0051527549512684345, -0.05795058608055115, 0.0744960755109787, -0.054739583283662796, 0.0163340475410223], [0.08989851921796799, -0.0004973470931872725, 0.007078398019075394, 0.06964454799890518, -0.05300428718328476, 0.16339851915836334, -0.02509368397295475, 0.07011132687330246, 0.14800520241260529, 0.016993075609207153, -0.01917758397758007, 0.044742174446582794, -0.06833665817975998, 0.11743621528148651], [0.06663283705711365, 0.04925660789012909, 0.006373615935444832, -0.07547260820865631, 0.11579130589962006, 0.07010392844676971, -0.011304844170808792, 0.09336871653795242, 0.06830523163080215, 0.15835721790790558, -0.10993868112564087, 0.14675083756446838, 0.0946652740240097, 0.09381258487701416], [-0.058551762253046036, -0.05411636084318161, -0.07762005180120468, 0.10632753372192383, 0.04358569532632828, -0.020837143063545227, 0.13539539277553558, 0.03270300477743149, 0.07236961275339127, 0.060498908162117004, -0.01621539145708084, 0.043933626264333725, 0.1142706573009491, 0.061048723757267], [0.13975460827350616, 0.09204037487506866, 0.16722941398620605, 0.05640280246734619, 0.11502623558044434, -0.04158191382884979, 0.13588538765907288, -0.0269363634288311, -0.0015775607898831367, 0.06732533127069473, -0.06057203188538551, -0.05202481150627136, 0.06578315049409866, -0.0017741575138643384], [-0.2829674482345581, -0.06285234540700912, -0.2356904298067093, -0.013607027940452099, -0.11056363582611084, -0.02552381344139576, 9.36156720854342e-05, 0.042122989892959595, -0.0912499874830246, -0.03891073912382126, -0.21350884437561035, -0.1202656552195549, -0.1633477360010147, 0.12934088706970215], [-0.028542906045913696, -0.14758534729480743, -0.16529567539691925, 0.08902525156736374, -0.07742512226104736, 0.0596928633749485, -0.02903115190565586, 0.10859494656324387, 0.01865329034626484, -0.10442902147769928, -0.12907826900482178, 0.01564079523086548, 0.024142129346728325, 0.09603816270828247], [0.030597053468227386, 0.13823415338993073, 0.07132626324892044, -0.008880309760570526, 0.09463528543710709, -0.02686779387295246, 0.08097787201404572, 0.12933917343616486, -0.07499360293149948, 0.11872757971286774, -0.006868811324238777, 0.0964708924293518, -0.07180007547140121, 0.02734127640724182], [0.04704313725233078, 0.14210627973079681, 0.008229111321270466, -0.06977638602256775, -0.08965084701776505, -0.006126836873590946, -0.09717319905757904, -0.09115031361579895, -0.02228035405278206, 0.0783560499548912, 0.10320372134447098, -0.08852041512727737, 0.021385908126831055, -0.03333323821425438], [0.019564645364880562, -0.049106940627098083, -0.07890975475311279, -0.002935111755505204, -0.019440246745944023, 0.033806029707193375, 0.008645599707961082, -0.09001677483320236, -0.12749947607517242, 0.09235076606273651, 0.03868219628930092, 0.028710337355732918, -0.0035918261855840683, -0.05098852515220642], [0.08795244246721268, 0.12197563797235489, 0.0979686751961708, 0.0582544319331646, 0.0744887962937355, 0.011515598744153976, -0.008740579709410667, -0.07161159813404083, 0.01315278746187687, 0.13981856405735016, -0.10359424352645874, 0.024916402995586395, 0.051315028220415115, 0.143873393535614], [0.14994920790195465, 0.07015473395586014, 0.012103780172765255, 0.1729307621717453, 0.07149261981248856, 0.09640076756477356, 0.0820695012807846, 0.06584504246711731, -0.03116583824157715, -0.04051930829882622, 0.08922050148248672, 0.06941448152065277, -0.011893341317772865, 0.18207815289497375], [-0.01755429618060589, -0.051589030772447586, 0.021337805315852165, -0.0114804208278656, 0.12530332803726196, -0.04898616299033165, -0.017480308189988136, -0.06383462250232697, 0.04052083566784859, 0.06600453704595566, 0.004283855203539133, 0.11582469195127487, 0.10498759150505066, 0.14378324151039124], [-0.03988395258784294, 0.09858600050210953, -0.008123247884213924, 0.08924499154090881, -0.021593701094388962, 0.10803535580635071, -0.0013359729200601578, 0.04721558094024658, 0.12271995842456818, 0.06303109973669052, -0.014051257632672787, -0.06542303413152695, -0.00593672227114439, -0.056382786482572556], [0.020137622952461243, 0.1526428759098053, 0.09096702188253403, 0.07251674681901932, 0.16374871134757996, 0.020972777158021927, 0.10544678568840027, 0.05644186586141586, 0.09478067606687546, 0.08893266320228577, 0.12250286340713501, 0.06034298613667488, -0.05381878465414047, 0.0004989547305740416], [0.16215071082115173, 0.13629017770290375, 0.12608127295970917, -0.02419888973236084, 0.17824162542819977, 0.09423894435167313, -0.05591471120715141, 0.09680327028036118, 0.023712700232863426, 0.007292275317013264, 0.01376250572502613, 0.06148133426904678, 0.07358644902706146, 0.16680613160133362], [-0.06714724749326706, 0.07949992269277573, -0.019649680703878403, 0.14815035462379456, -0.025022361427545547, 0.12858085334300995, -0.07885336130857468, 0.16990917921066284, 0.13774117827415466, -0.06027352064847946, -0.07379832863807678, -0.0457763746380806, -0.010280581191182137, 0.04779474809765816], [0.11947061121463776, 0.047749705612659454, 0.09195226430892944, -0.025681011378765106, -0.0663047656416893, 0.12824246287345886, 0.13483105599880219, 0.04624602571129799, 0.14187465608119965, 0.0006608014227822423, -0.07327636331319809, -0.10742714256048203, 0.04756813496351242, 0.1489352434873581], [0.05816660821437836, 0.15914267301559448, 0.021195076406002045, 0.04203164577484131, 0.1170051246881485, 0.07882470637559891, 0.15809625387191772, 0.14106959104537964, -0.03573765978217125, -0.040310338139534, -0.07507537305355072, 0.13352879881858826, 0.037395745515823364, -0.04843398556113243], [-0.07486274838447571, 0.14817067980766296, -0.04957040399312973, 0.10345856845378876, 0.11594237387180328, 0.12385944277048111, 0.1351514458656311, 0.06141899526119232, -0.074455626308918, 0.11309298872947693, 0.12435959279537201, 0.01282383594661951, -0.0719250738620758, 0.07174241542816162], [-0.07224467396736145, 0.07099086791276932, -0.07066042721271515, 0.1598227471113205, 0.044095415621995926, -0.04176539182662964, -0.06783206760883331, 0.020424634218215942, 0.12241789698600769, 0.13097801804542542, 0.038321446627378464, -0.050811924040317535, 0.13356122374534607, 0.15409983694553375], [-0.026053931564092636, 0.052570004016160965, 0.021321475505828857, -0.03918355330824852, 0.1334972381591797, 0.09038843959569931, 0.1391865462064743, 0.03399833291769028, -0.048132315278053284, 0.09295292943716049, -0.03731141984462738, 0.06445953994989395, -0.06382745504379272, 0.07110777497291565], [0.15792420506477356, 0.11202341318130493, 0.14764849841594696, 0.019514543935656548, -0.07776185870170593, 0.04407105967402458, 0.03668992966413498, 0.07938287407159805, -0.008965810760855675, 0.18020208179950714, -0.06510821729898453, -0.056371577084064484, 0.12078304588794708, -0.06377851217985153], [0.06898334622383118, 0.11191647499799728, 0.12115450203418732, -0.042023297399282455, 0.11484349519014359, 0.12672783434391022, -0.04907604306936264, -0.04954873397946358, 0.1446678638458252, -0.055528368800878525, 0.05719050019979477, 0.14953672885894775, 0.16361448168754578, 0.08730112761259079], [-0.08400707691907883, 0.034188736230134964, 0.06845897436141968, 0.06475884467363358, -0.07422414422035217, 0.14995287358760834, 0.007053818088024855, 0.11551022529602051, 0.10775041580200195, 0.13477656245231628, -0.03419599309563637, 0.09461512416601181, -0.04143697768449783, 0.056208983063697815], [0.07390989363193512, -0.05535956844687462, -0.10597056150436401, -0.05729171261191368, 0.11507168412208557, 0.004391292575746775, -0.0931139811873436, 0.11069357395172119, -0.05894677713513374, -0.04501214623451233, 0.12554632127285004, -0.0321214497089386, -0.026622142642736435, 0.06787785142660141], [-0.010653889738023281, -0.018911797553300858, -0.08112096041440964, 0.005494709592312574, -0.05723605677485466, 0.02517756260931492, -0.015922578051686287, -0.012872427701950073, -0.04794256016612053, -0.04536450654268265, 0.10186228901147842, 0.10787707567214966, 0.12238986790180206, 0.14071400463581085], [0.0663374587893486, -0.040137410163879395, -0.06427612155675888, -0.07024471461772919, 0.06705447286367416, 0.02543475292623043, 0.03731511905789375, -0.015016167424619198, -0.021252702921628952, 0.14828667044639587, -0.021877754479646683, 0.052291400730609894, -0.023022431880235672, -0.002762377494946122], [0.017075596377253532, -0.014438854530453682, 0.1547289341688156, -0.06891635805368423, -0.016690149903297424, 0.02671598270535469, -0.07146089524030685, 0.06878288090229034, 0.13346567749977112, 0.14276540279388428, 0.049119919538497925, 0.10349123924970627, -0.033563416451215744, 0.09396027028560638], [0.09907931834459305, 0.01883658394217491, 0.17323753237724304, 0.08449792861938477, 0.0051973965018987656, -0.03952272608876228, 0.11588513106107712, 0.10048873722553253, -0.021220529451966286, 0.12337351590394974, -0.054696738719940186, 0.10141649842262268, -0.06317579746246338, 0.005695696920156479], [0.005763701628893614, 0.05912983790040016, -0.006147657986730337, 0.1533135622739792, 0.12214191257953644, 0.14776942133903503, -0.033725373446941376, 0.130557119846344, 0.12144086509943008, 0.032407328486442566, 0.05262955278158188, 0.1670783907175064, 0.1529974490404129, 0.026169920340180397], [0.001347529934719205, 0.14468914270401, 0.0032272725366055965, -0.027372928336262703, 0.13143689930438995, 0.14187321066856384, -0.051331549882888794, -0.07355272024869919, -0.01843944750726223, 0.1271379142999649, 0.06431066989898682, 0.12485677748918533, 0.10036575794219971, 0.06099550426006317], [-0.037625085562467575, -0.08016835898160934, 0.1014837846159935, -0.04639646038413048, -0.07384712249040604, -0.08465941250324249, 0.0470997653901577, 0.056022386997938156, 0.06320168823003769, -0.07714357227087021, -0.10256541520357132, 0.0021854485385119915, 0.05459321662783623, -0.05220593139529228], [-0.06516677141189575, 0.021971028298139572, 0.10258623212575912, 0.1366012841463089, 0.11053472757339478, -0.01568084955215454, -0.02897041104733944, 0.03397713974118233, 0.054260458797216415, -0.0014795014867559075, -0.007383064366877079, 0.05488398298621178, 0.030522363260388374, -0.08268990367650986], [0.07736249268054962, 0.011694668792188168, -0.036903124302625656, 0.04007970169186592, 0.07667798548936844, -0.0034275343641638756, 0.027240464463829994, -0.0025980365462601185, 0.056067246943712234, 0.1383330374956131, -0.019943252205848694, -0.012505416758358479, 0.02453034184873104, 0.11442350596189499], [-0.06891588121652603, 0.01334591768682003, 0.16190512478351593, 0.030830204486846924, 0.07474345713853836, 0.0911681279540062, -0.0658101737499237, -0.03712338209152222, -0.07981820404529572, 0.03872907906770706, 0.12298993766307831, 0.027173472568392754, 0.06760767102241516, 0.14860773086547852], [-0.05157158896327019, -0.06838878989219666, 0.15128856897354126, 0.16267986595630646, -0.015977732837200165, -0.07311662286520004, -0.04843306913971901, 0.06315270066261292, 0.11492470651865005, -0.030894242227077484, -0.012477447278797626, -0.0652192160487175, 0.14237117767333984, -0.0727962851524353], [-0.21703577041625977, -0.12842079997062683, -0.05950820446014404, 0.1407967209815979, 0.010763010010123253, -0.08932936936616898, -0.008770236745476723, -0.11296484619379044, -0.04835895821452141, -0.009343798272311687, 0.037766288965940475, -0.09463898837566376, 0.04873286187648773, 0.21142344176769257], [0.00041074276668950915, 0.1801866739988327, 0.05177415534853935, 0.0866476446390152, 0.1333722025156021, -0.03182276710867882, -0.04232379049062729, 0.11208990216255188, 0.06016376614570618, 0.1131787896156311, 0.05012483149766922, 0.022366313263773918, 0.0663512647151947, -0.09446703642606735], [0.07340223342180252, -0.07202088087797165, 0.1440843641757965, -0.05025683343410492, -0.03946184739470482, -0.028980039060115814, 0.1331205815076828, 0.16654491424560547, 0.15026725828647614, 0.1259819120168686, -0.04827788844704628, -0.0679914653301239, 0.04359070956707001, -0.013342732563614845], [-0.002370546106249094, 0.1660834699869156, 0.08266063779592514, -0.06913262605667114, 0.08993987739086151, 0.09020375460386276, 0.025615161284804344, 0.12154980003833771, 0.009007222950458527, -0.0043007074855268, -0.0515834204852581, 0.08906933665275574, -0.04276888817548752, 0.10565716028213501], [0.058072805404663086, 0.053340788930654526, 0.20205263793468475, 0.12323284894227982, 0.16146062314510345, 0.05700855329632759, 0.18026651442050934, 0.024523833766579628, 0.16893351078033447, 0.1039556935429573, 0.07149749249219894, 0.10775121301412582, 0.18026326596736908, 0.18579904735088348], [0.0027863194700330496, -0.012069293297827244, 0.04011441767215729, 0.13221609592437744, 0.014937762171030045, 0.08009041845798492, -0.024002494290471077, 0.08051587641239166, -0.06153761222958565, -0.04107324033975601, 0.07029563933610916, -0.015156932175159454, 0.14243976771831512, 0.08416257798671722], [-0.2954654097557068, 0.05431946739554405, -0.22149191796779633, -0.006363792810589075, -0.058170393109321594, -0.12977498769760132, 0.07195927947759628, -0.11573025584220886, -0.2661147117614746, -0.033214472234249115, -0.14957751333713531, -0.013647045008838177, -0.06254059821367264, 0.08200015872716904], [0.003334944834932685, 0.08808418363332748, 0.11661911755800247, -0.045571062713861465, -0.04593963176012039, -0.005731596145778894, 0.030815204605460167, 0.10451194643974304, 0.12776699662208557, -0.06697250157594681, 0.040075644850730896, 0.13854427635669708, 0.05376727133989334, 0.05065467953681946], [-0.13823848962783813, -0.004430064465850592, -0.1547470986843109, 0.23521530628204346, 0.1401347815990448, 0.08953848481178284, -0.007194458041340113, -0.12971104681491852, -0.08972134441137314, 0.21331529319286346, -0.2540961503982544, 0.04201246052980423, 0.03881515935063362, 0.44033414125442505], [-0.1755833923816681, 0.05673764646053314, -0.13129015266895294, -0.056318409740924835, 0.061240993440151215, 0.11831516027450562, 0.08008666336536407, -0.012638239189982414, -0.1518837958574295, 0.010289100930094719, 0.055063217878341675, 0.11314032226800919, 0.05902644246816635, -0.088445745408535], [-0.00492775859311223, 0.02271752431988716, -0.035139016807079315, 0.08965789526700974, -0.0581793338060379, 0.13012443482875824, -0.07792337983846664, 0.16338209807872772, 0.07863207906484604, 0.08090800791978836, 0.05952707305550575, -0.038099635392427444, -0.0021716575138270855, 0.07671879231929779], [-0.02900136448442936, 0.1379633992910385, 0.02505522035062313, -0.04788859188556671, -0.0009791958145797253, -0.02327842265367508, 0.0012160670012235641, 0.0408426858484745, -0.0462178960442543, 0.14569559693336487, 0.062115587294101715, -0.026289241388440132, 0.11841680109500885, 0.021693002432584763], [-0.0028909107204526663, 0.01047044713050127, 0.1520414650440216, 0.06719420850276947, 0.09244796633720398, -0.030620815232396126, 0.07333578169345856, -0.012796208262443542, 0.12067226320505142, -0.06643109023571014, -0.049646712839603424, -0.08322449028491974, 0.06754742562770844, 0.10679565370082855], [0.04316304996609688, 0.11976330727338791, 0.01348323468118906, 0.15364114940166473, -0.06041160970926285, 0.11461193114519119, 0.1003522202372551, 0.14508701860904694, 0.02725331485271454, 0.17067009210586548, 0.11516447365283966, -0.07998716831207275, -0.059360072016716, -0.025931118056178093], [-0.18447615206241608, -0.01373415905982256, 0.008379782550036907, 0.11926586925983429, 0.03631390631198883, 0.11594034731388092, 0.1042030081152916, 0.09677883982658386, -0.12748213112354279, -0.011800984852015972, 0.11311277002096176, -0.036086127161979675, 0.03631364181637764, 0.03437180444598198], [0.028441887348890305, 0.08499762415885925, -0.04168479144573212, 0.013435442931950092, 0.08531973510980606, 0.0003906232013832778, 0.1587323397397995, -0.028664307668805122, 0.10581351816654205, -0.02492409572005272, 0.08940520137548447, -0.06547524780035019, 0.056580089032649994, -0.06043379753828049], [-0.07365693151950836, -0.07163833826780319, 0.11660505831241608, -0.026828136295080185, 0.03380206599831581, 0.048266056925058365, 0.0076743485406041145, -0.005662229377776384, 0.06473423540592194, 0.17416584491729736, 0.062217894941568375, 0.0056132362224161625, 0.14158456027507782, -0.043605536222457886], [0.1108577698469162, 0.15714667737483978, -0.018378838896751404, 0.08646984398365021, 0.057320427149534225, 0.12437111139297485, 0.13528133928775787, -0.03967273607850075, -0.06327841430902481, 0.10705678164958954, -0.003473628545179963, 0.03918042778968811, 0.1114981397986412, -0.04961572587490082], [0.03402654081583023, -0.06609655916690826, 0.03530111536383629, -0.06752284616231918, 0.08623059093952179, 0.0632694661617279, -0.035044115036726, 0.16886849701404572, 0.02571840211749077, 0.036310650408267975, -0.07141514122486115, -0.04896922782063484, -0.061752092093229294, 0.05806061252951622], [-0.25808241963386536, 0.02624385990202427, -0.20064887404441833, -0.02882821299135685, -0.06828241795301437, -0.06851771473884583, -0.11641324311494827, -0.2516942024230957, -0.23787516355514526, 0.0913994312286377, -0.2064293771982193, 0.0029105544090270996, -0.030949292704463005, -0.05606476217508316], [0.16013768315315247, 0.009899001568555832, 0.08472311496734619, -0.02502058632671833, -0.05257761478424072, 0.11721596866846085, -0.04385872185230255, -0.06001639366149902, 0.06657007336616516, -0.025000549852848053, -0.033131424337625504, 0.0405627116560936, 0.11999230086803436, 0.15697398781776428], [0.09024373441934586, -0.018511388450860977, 0.12016942352056503, -0.0731944590806961, 0.04651675373315811, -0.06253141164779663, -0.036734018474817276, 0.11762458831071854, -0.09408847987651825, 0.07537268102169037, 0.032538656145334244, 0.004526278004050255, -0.058250050991773605, -0.0010294668609276414], [0.018120337277650833, 0.15260577201843262, 0.13757269084453583, 0.020262163132429123, 0.10691840201616287, 0.010729585774242878, 0.1263577789068222, 0.1669178307056427, 0.0522039569914341, -0.0704832375049591, 0.11859961599111557, 0.17298899590969086, 0.09425286948680878, -0.05740341171622276], [0.0697384923696518, 0.09043435007333755, -0.028362320736050606, -0.07704876363277435, -0.037236250936985016, 0.01835595816373825, 0.050966281443834305, 0.07136107981204987, -0.08345567435026169, 0.019467970356345177, 0.12466912716627121, -0.029615061357617378, 0.08288291841745377, 0.023158662021160126], [-0.10412934422492981, -0.008436418138444424, -0.02611180953681469, 0.09514312446117401, 0.027260268107056618, 0.040617916733026505, -0.0035568992607295513, -0.35131269693374634, -0.08110402524471283, -0.030845260247588158, -0.29783689975738525, -0.07432451844215393, 0.052969884127378464, -0.012467361986637115], [-0.2859186828136444, 0.03778237849473953, -0.3325776159763336, 0.18948963284492493, -0.10761198401451111, -0.1193719357252121, -0.15894681215286255, -0.12825030088424683, -0.3628424108028412, -0.0991811752319336, -0.1931290328502655, -0.04975474253296852, 0.0585600808262825, -0.015862081199884415], [0.1500055193901062, -0.06273350119590759, 0.09656378626823425, 0.07991579920053482, 0.15213535726070404, 0.04872900992631912, -0.002816637046635151, 0.15260855853557587, 0.045256298035383224, -0.04348374903202057, 0.04371354728937149, 0.03535972535610199, 0.11707647144794464, 0.09699612110853195], [-0.001124617294408381, 0.04770513251423836, 0.09399820864200592, -0.0025933515280485153, 0.10784992575645447, -0.054543111473321915, 0.13370370864868164, 0.056208640336990356, -0.05714257061481476, -0.015322077088057995, 0.13713108003139496, -0.07486765831708908, 0.08201349526643753, 0.13696756958961487], [0.12145788967609406, 0.1727197766304016, -0.06727764010429382, 0.04074069857597351, 0.00721232034265995, 0.00851482804864645, 0.08388186246156693, -0.06785675138235092, 0.08929074555635452, 0.02537805587053299, 0.09337465465068817, 0.0886317789554596, 0.05575840175151825, 0.017778998240828514], [-0.02200588397681713, 0.11407306790351868, 0.11860612779855728, 0.13551323115825653, -0.0052952696569263935, -0.014706989750266075, 0.021721793338656425, 0.05012686178088188, 0.09869552403688431, 0.07689168304204941, -0.07212869077920914, 0.16282865405082703, -0.0690344050526619, 0.017292285338044167], [-0.0723327249288559, 0.16140545904636383, 0.06767954677343369, 0.0870295986533165, 0.10622815042734146, -0.04716998711228371, 0.007241236511617899, -0.06449384242296219, 0.11491217464208603, 0.04294780641794205, -0.03250577673316002, 0.15076611936092377, 0.08355826139450073, -0.018712252378463745], [0.06947426497936249, -0.014653992839157581, 0.0020864917896687984, 0.13387112319469452, -0.007461701054126024, 0.09205150604248047, 0.15737618505954742, 0.056112051010131836, 0.0021131534595042467, -0.008637895807623863, -0.004694982897490263, 0.10035734623670578, 0.05649087578058243, 0.03856096789240837], [-0.29561325907707214, -0.004601673223078251, -0.2176450788974762, -0.05628911033272743, -0.059969644993543625, -0.018907444551587105, -0.03692525625228882, -0.024214453995227814, -0.15105034410953522, -0.03191399201750755, -0.15285754203796387, -0.08067196607589722, 0.019525811076164246, 0.03534822165966034], [0.03499305620789528, 0.0677545815706253, -0.07071223109960556, 0.0701642632484436, 0.10250220447778702, -0.04138386622071266, 0.10068541020154953, 0.08250400424003601, 0.046228356659412384, 0.12999838590621948, 0.049013033509254456, -0.0984080582857132, -0.11348502337932587, 0.1758069545030594], [-0.06682144105434418, 0.0834108293056488, 0.14253546297550201, -0.043540291488170624, 0.014733775518834591, 0.06922376900911331, -0.04539325460791588, 0.10179784148931503, -0.0724988505244255, 0.15755893290042877, 0.10365255177021027, -0.00015289714792743325, 0.00850555207580328, 0.07577046006917953], [-0.04812861606478691, 0.008197274059057236, -0.057684075087308884, 0.08806350827217102, 0.018261048942804337, -0.082437664270401, -0.0695863664150238, 0.14675161242485046, 0.07109896093606949, -0.018493494018912315, -0.005903586279600859, 0.08407729864120483, 0.031434718519449234, 0.13108839094638824], [0.10217658430337906, 0.1746050864458084, -0.012630149722099304, 0.1185520589351654, -0.04603344574570656, 0.072498619556427, 0.10139983147382736, 0.09101301431655884, 0.018214497715234756, 0.10686635971069336, 0.13823436200618744, 0.015396997332572937, -0.06245133653283119, 0.10901466757059097], [0.09025225788354874, 0.03446001559495926, -0.05960069224238396, -0.022250473499298096, 0.13606663048267365, 0.059933699667453766, 0.07861611992120743, 0.12981535494327545, -0.0779896005988121, 0.00033020967384800315, -0.011594529263675213, 0.1468948870897293, -0.06502339243888855, 0.016294343397021294], [0.15289811789989471, 0.056618280708789825, 0.057107195258140564, 0.06101110950112343, 0.08055207878351212, -0.03103206306695938, -0.05480789393186569, 0.1378362774848938, 0.029639316722750664, 0.05857114866375923, 0.021966831758618355, -0.04023563861846924, -0.012036819942295551, 0.13171391189098358], [-0.07346069067716599, 0.07427261024713516, 0.006094442214816809, 0.03000413067638874, 0.16921594738960266, 0.1415299028158188, 0.00932392105460167, -0.03921913355588913, -0.032656870782375336, -0.02814735472202301, 0.05889022722840309, 0.08298848569393158, 0.06542494148015976, 0.17590302228927612], [-0.074800506234169, 0.10584011673927307, 0.1438312828540802, 0.17108140885829926, -0.02411658689379692, 0.06761910021305084, 0.05041040480136871, -0.06507723033428192, -0.034913621842861176, -0.07552188634872437, 0.0732826367020607, 0.08481553196907043, -0.04807252436876297, -0.0340275876224041], [0.047878965735435486, -0.023082096129655838, 0.14253559708595276, 0.1555424928665161, -0.04357004538178444, 0.082212433218956, 0.026256894692778587, 0.09697125852108002, -0.06694792211055756, 0.0551578663289547, 0.12833815813064575, 0.05659220740199089, 0.0008166411425918341, 0.0067677684128284454], [0.1435125172138214, -0.03612357750535011, 0.03934743255376816, 0.08554789423942566, -0.03334420919418335, 0.11683202534914017, -0.07261580228805542, 0.1022082045674324, -0.07530829310417175, 0.16273605823516846, 0.11851425468921661, -0.018854565918445587, 0.11032910645008087, 0.16175977885723114], [0.14257901906967163, 0.08455567061901093, -0.07972218096256256, 0.08779735118150711, 0.019134078174829483, -0.03298511356115341, 0.17023493349552155, -0.03487027436494827, 0.07023002952337265, -0.07419653981924057, 0.14112532138824463, 0.11134311556816101, -0.034014903008937836, -0.0572814978659153], [0.08927040547132492, -0.05377268046140671, 0.02554146945476532, 0.1318361610174179, 0.0004395472351461649, 0.02178037166595459, 0.0032938027288764715, 0.16189804673194885, 0.025825833901762962, 0.014996074140071869, 0.05709462985396385, -0.05109882727265358, 0.0073709688149392605, -0.07812541723251343], [-0.033632270991802216, -0.0982852578163147, -0.05665094777941704, -0.036792464554309845, 0.06573251634836197, -0.004362435080111027, -0.0019314317032694817, -0.02300271764397621, -0.051853302866220474, -0.007434761617332697, 0.07239120453596115, -0.02780897170305252, -0.09447035938501358, 0.021973367780447006], [-0.014214732684195042, -0.13318538665771484, -0.018223367631435394, 0.021551182493567467, -0.048692476004362106, 0.03748582676053047, 0.03855295479297638, -0.07594450563192368, -0.041070789098739624, -0.1019858568906784, -0.06373357772827148, -0.03414535149931908, -0.1274026781320572, -0.06906288117170334], [0.06369694322347641, 0.011142730712890625, -0.13206364214420319, -0.1643647402524948, 0.05423984304070473, -0.07963080704212189, -0.0322178490459919, -0.1578347086906433, -0.07059299200773239, -0.14310884475708008, -0.10139206796884537, -0.1255326271057129, -0.0722125694155693, -0.15425506234169006], [0.027349460870027542, -0.16121242940425873, -0.1351521611213684, 0.028385397046804428, -0.1201651319861412, -0.0751437395811081, -0.08367163687944412, -0.04453497752547264, -0.001235593343153596, -0.06939380615949631, -0.056206442415714264, -0.08295435458421707, 0.07593752443790436, -0.15131650865077972], [-0.15910525619983673, 0.034912899136543274, -0.06862609088420868, -0.10871735960245132, -0.04327230155467987, 0.030223222449421883, -0.07575736194849014, 0.010892258957028389, -0.0908358097076416, 0.010688552632927895, 0.011277860030531883, -0.04786130040884018, -0.04849568381905556, -0.09712907671928406], [0.04591100662946701, 0.035410076379776, -0.021799933165311813, 0.03664510324597359, -0.0932379886507988, -0.10903366655111313, -0.11033081263303757, -0.07653806358575821, 0.09842010587453842, 0.005097981542348862, -0.03348881006240845, 0.03326418995857239, -0.060871001332998276, -0.10624555498361588], [0.05268726870417595, 0.09239660948514938, 0.13507433235645294, -0.001144028501585126, -0.08594951033592224, 0.14055320620536804, 0.08862005174160004, 0.0826125219464302, -0.05100323632359505, 0.11225143820047379, -0.01587746851146221, 0.1511838734149933, -0.04367858171463013, -0.018148329108953476], [0.10519140213727951, 0.04419805482029915, -0.0879368782043457, -0.06381473690271378, 0.10503963381052017, -0.0707273855805397, -0.08103378862142563, -0.09036888927221298, -0.061371780931949615, -0.1213349774479866, -0.08647697418928146, -0.11003726720809937, -0.1147039383649826, 0.07099221646785736], [-0.1391880214214325, -0.003772926516830921, -0.05425228551030159, -0.07154089957475662, 0.057829875499010086, 0.04257630556821823, -0.1369655430316925, -0.08520644903182983, -0.06431505084037781, 0.04730689525604248, -0.13127964735031128, -0.03565196320414543, -0.07347377389669418, -0.015092235058546066], [-0.0584997832775116, 0.06693670153617859, -0.07664630562067032, 0.0030890335328876972, -0.01908595860004425, -0.012010299600660801, -0.08037327229976654, 0.007193424738943577, -0.11886217445135117, -0.1432705521583557, 0.09450474381446838, -0.03421834111213684, -0.023357456550002098, -0.033519137650728226], [-0.006591451819986105, 0.05793018266558647, -0.1390189230442047, -0.06917920708656311, 0.08707518875598907, -0.11800527572631836, 0.0015952402027323842, 0.0068907104432582855, -0.08365670591592789, -0.0716046616435051, -0.07333781570196152, -0.12426787614822388, -0.057741232216358185, -0.03120112419128418], [-0.12840081751346588, -0.007462144363671541, -0.049655575305223465, 0.0620582215487957, -0.11325126141309738, -0.031910743564367294, -0.10883747041225433, 0.09475769102573395, -0.10577392578125, -0.07575089484453201, 0.06903965771198273, -0.08142556250095367, -0.12728111445903778, -0.02441064827144146], [-0.12264146655797958, -0.05262564495205879, 0.08138807862997055, 0.0014412071323022246, 0.05552753433585167, 0.06805481016635895, -0.1187548115849495, 0.06271206587553024, -0.13269871473312378, -0.06851685047149658, -0.07088563591241837, -0.14561130106449127, -0.07617321610450745, -0.12291327863931656], [0.0016139672370627522, -0.1681959182024002, -0.1441769301891327, -0.02590177394449711, 0.0516887865960598, -0.16461586952209473, -0.08699025958776474, -0.09128556400537491, -0.15141932666301727, -0.0006869083736091852, -0.09797004610300064, -0.16207124292850494, -0.08660738915205002, -0.12081847339868546], [-0.13488037884235382, -0.0002542862494010478, -0.09177644550800323, 0.09177685528993607, -0.050848182290792465, -0.04345972463488579, 0.04102297127246857, -0.09322001785039902, -0.00837872363626957, 0.06211138889193535, -0.08874812722206116, -0.06682662665843964, 0.025955425575375557, -0.08778714388608932], [0.11520463228225708, 0.1945638358592987, 0.17415758967399597, -0.03129927068948746, -0.06203543394804001, 0.06587795913219452, -0.06351473182439804, 0.08014627546072006, 0.0580255426466465, -0.014489940367639065, -0.058733291923999786, 0.07220228016376495, -0.03453102335333824, 0.012496979907155037], [-0.09610813856124878, 0.011633779853582382, -0.15686455368995667, -0.032878901809453964, -0.11078927665948868, 0.009014318697154522, -0.13071417808532715, 0.09060515463352203, -0.06715510785579681, -0.0952863097190857, -0.04924919828772545, -0.1414475440979004, -0.003782107261940837, -0.1681208610534668], [0.08095090836286545, -0.08935648947954178, -0.11139482259750366, -0.14715731143951416, 0.0009596465388312936, -0.14464527368545532, -0.12424219399690628, 0.00013441088958643377, -0.0800250768661499, -0.11799795925617218, -0.030000483617186546, 0.08833973854780197, -0.021208588033914566, -0.004839357919991016], [0.12690076231956482, 0.13425026834011078, -0.07758841663599014, 0.051696836948394775, -0.03160632774233818, 0.03171633929014206, 0.0186641663312912, 0.020635711029171944, -0.03935479000210762, 0.0078614242374897, 0.08696792274713516, 0.12996737658977509, -0.018719317391514778, -0.004306708928197622], [0.1054004579782486, 0.044576726853847504, -0.06776372343301773, -0.1270446628332138, -0.0511772520840168, 0.023317774757742882, -0.08136506378650665, -0.09490736573934555, -0.05027605965733528, -0.017610689625144005, 0.09198439866304398, 0.04797189682722092, -0.0338723286986351, -0.16614902019500732], [0.03468780964612961, -0.08576672524213791, -0.15688703954219818, -0.10786750167608261, 0.03030526265501976, 0.07133248448371887, -0.029129451140761375, 0.011419310234487057, 0.07297160476446152, -0.0011986775789409876, 0.15719355642795563, 0.055114977061748505, 0.04959956184029579, -0.13639476895332336], [0.1266544610261917, 0.04377330094575882, 0.07441788166761398, -0.0238115843385458, -0.007635734975337982, 0.054689403623342514, 0.03649413213133812, 0.06623253226280212, 0.13137729465961456, 0.12666204571723938, 0.09536086022853851, 0.01818462461233139, -0.08188799768686295, 0.14049237966537476], [0.006924093700945377, 0.12097805738449097, -0.010405735112726688, 0.09860192239284515, -0.00919983722269535, 0.05834588035941124, 0.03320665657520294, 0.005105689633637667, -0.09906978160142899, 0.10789857059717178, -0.009604248218238354, 0.1698656678199768, 0.09154669940471649, -0.003663521958515048], [-0.2451334446668625, 0.0018940240843221545, -0.12356583774089813, 0.15358081459999084, 0.05887000262737274, -0.0029959012754261494, 0.012879922986030579, -0.2433391958475113, -0.2916838526725769, 0.018368327990174294, -0.0230801273137331, 0.01757553406059742, -0.0549577921628952, 0.10692169517278671], [0.03753791004419327, 0.023579521104693413, -0.05653705820441246, 0.08268673717975616, 0.13955117762088776, 0.06488125026226044, 0.0455852709710598, 0.1557682305574417, -0.05725376307964325, -0.02078414522111416, -0.032576367259025574, 0.03652135282754898, 0.048986513167619705, -0.00149739149492234], [-0.00011798222840297967, -0.12183482944965363, 0.029869725927710533, -0.12965239584445953, 0.07420323044061661, 0.044357430189847946, 0.08246895670890808, -0.08335862308740616, 0.07254211604595184, -0.14949703216552734, 0.07645823061466217, -0.06247870996594429, 0.08678948134183884, -0.02961638942360878], [-0.04395991191267967, -0.10642627626657486, -0.15946850180625916, -0.09884477406740189, -0.12304612249135971, -0.16279146075248718, -0.04386337473988533, 0.025848688557744026, -0.04124659299850464, 0.020158685743808746, 0.11048849672079086, -0.06275560706853867, -0.11105778068304062, -0.1380269080400467], [0.07740853726863861, 0.017528720200061798, 0.14768195152282715, -0.013911477290093899, 0.14881092309951782, 0.0966554656624794, 0.14525893330574036, 0.20688068866729736, 0.1951984167098999, -0.13420520722866058, 0.13156284391880035, 0.09770216047763824, 0.03709198907017708, 0.06155896931886673], [-0.042690373957157135, -0.019999008625745773, -0.0525720939040184, 0.05637577921152115, -0.06673058122396469, -0.14363424479961395, 0.0056310067884624004, 0.07570889592170715, -0.1330300271511078, 0.025050949305295944, 0.030419904738664627, 0.02276860550045967, -0.1469675600528717, -0.07363153249025345], [0.12414667755365372, 0.10887199640274048, 0.1198047325015068, 0.1472286432981491, -0.010572584345936775, 0.10004482418298721, -0.009457356296479702, 0.07869661599397659, -0.07787826657295227, 0.11966469883918762, 0.14757207036018372, -0.02373618260025978, 0.09753453731536865, 0.13799816370010376], [0.027598753571510315, -0.08944699168205261, 0.024163225665688515, 0.10306666046380997, -0.08214309066534042, -0.05373222753405571, 0.020605122670531273, 0.03603088855743408, 0.03705877438187599, -0.10936597734689713, 0.06824854016304016, 0.04995661973953247, 0.016300328075885773, -0.10304437577724457], [0.1522108018398285, 0.06047528609633446, 0.0019166604615747929, 0.034462474286556244, 0.04578782618045807, 0.0400850847363472, -0.0692630261182785, 0.09997503459453583, -0.01546617690473795, 0.02551760897040367, 0.039070747792720795, 0.029314592480659485, 0.12357618659734726, 0.12926095724105835], [-0.16577023267745972, 0.04794856160879135, 0.05509496107697487, 0.034504882991313934, 0.05505950748920441, -0.133128821849823, -0.09394308179616928, 0.06011958792805672, -0.10586200654506683, -0.005112810060381889, -0.03977955877780914, 0.0006911310483701527, -0.10537448525428772, -0.0354364849627018], [-0.007298654410988092, 0.051519934087991714, -0.06889735162258148, 0.011080705560743809, 0.01935148611664772, 0.055767279118299484, -0.12458910793066025, -0.029078984633088112, -0.1105489432811737, -0.08130928874015808, -0.06437069922685623, -0.07662631571292877, 0.026808835566043854, -0.09120418131351471], [-0.014935826882719994, 0.16531968116760254, 0.10916293412446976, -0.035792358219623566, 0.14994120597839355, 0.15421916544437408, 0.0019081429345533252, 0.03629586473107338, 0.08569498360157013, 0.018849674612283707, 0.14988747239112854, 0.09429589658975601, -0.07634955644607544, 0.11009884625673294], [0.006738560739904642, 0.06778749823570251, -0.11918577551841736, -0.08732141554355621, 0.012768291868269444, -0.1443038135766983, -0.043297749012708664, 0.05005502700805664, -0.03723721206188202, -0.034859586507081985, 0.07597663998603821, -0.06132606416940689, -0.1433708369731903, -0.08901068568229675], [-0.0033621862530708313, -0.19138775765895844, -0.15806591510772705, -0.052423253655433655, 0.10605289041996002, -0.026798853650689125, 0.04880525544285774, 0.008338776417076588, -0.1536530703306198, 0.05888720229268074, -0.12512777745723724, -0.11591865867376328, -0.03955826908349991, -0.007698331028223038], [-0.04605498164892197, -0.06772587448358536, -0.09827470779418945, 0.05712152272462845, -0.07617522031068802, 0.04940364509820938, -0.06941218674182892, -0.026058431714773178, -0.16287578642368317, -0.1453539878129959, -0.19182874262332916, 0.09779882431030273, -0.10824766755104065, 0.012219112366437912], [-0.09003043174743652, -0.04752536863088608, -0.02533368580043316, -0.10470349341630936, 0.034916676580905914, 0.0153754111379385, -0.1353815793991089, -0.04827387258410454, -0.011677405796945095, 0.019379574805498123, 0.09044930338859558, -0.10952245444059372, -0.16586937010288239, -0.029316892847418785], [0.0210783202201128, -0.035733599215745926, 0.11376206576824188, 0.08200934529304504, 0.019539304077625275, 0.06488870829343796, 0.11534009128808975, -0.06814199686050415, -0.0855560228228569, 0.15394838154315948, 0.05568692833185196, 0.09194242209196091, -0.014033152721822262, 0.046707119792699814], [0.102227121591568, 0.10555977374315262, 0.1605987250804901, 0.14672419428825378, -0.0722784623503685, 0.05930480733513832, 0.1456625908613205, 0.03342882916331291, -0.08274755626916885, -0.08091042935848236, -0.10928352922201157, -0.011761806905269623, 0.08813399821519852, -0.007517804857343435], [0.10171182453632355, -0.05989283323287964, 0.1396731436252594, 0.06186031922698021, 0.07198897749185562, 0.1398647278547287, -0.0465557724237442, -0.04522542282938957, 0.12183664739131927, 0.03835035115480423, -0.003375140018761158, 0.046154629439115524, 0.13035054504871368, 0.0725192204117775], [0.01381639577448368, 0.11803155392408371, 0.17102450132369995, 0.0042051635682582855, 0.011083276011049747, 0.01425352692604065, 0.007721257396042347, -0.00519614527001977, -0.0576535165309906, 0.1443115621805191, -0.10282966494560242, 0.11772062629461288, 0.1128029003739357, -0.06736327707767487], [-0.26896196603775024, -0.04073088988661766, -0.023305142298340797, 0.17931383848190308, -0.09801803529262543, -0.00907873921096325, -0.006348740309476852, -0.1395845264196396, -0.23601491749286652, -0.004417983815073967, -0.11631137877702713, 0.07274513691663742, -0.09756361693143845, 0.17971676588058472], [-0.11440674960613251, 0.09122214466333389, 0.04479047656059265, 0.046337708830833435, 0.10087409615516663, 0.029211590066552162, -0.10076836496591568, 0.0724472776055336, -0.13642773032188416, 0.004745173268020153, -0.08503177762031555, 0.016503171995282173, 0.09767760336399078, 0.06371037662029266], [0.04603234678506851, 0.008054068312048912, -0.12615491449832916, -0.11160671710968018, -0.13936033844947815, -0.007116797845810652, -0.10990382730960846, -0.1273868978023529, 0.00529527897015214, -0.008170444518327713, -0.13405030965805054, 0.051671843975782394, -0.09816309809684753, -0.107723668217659], [0.12654337286949158, 0.0947444885969162, -0.08136241137981415, -0.05099227651953697, 0.04638102278113365, 0.0004535576736088842, 0.052080027759075165, 0.12359315156936646, 0.05703287199139595, -0.05950262024998665, -0.032832708209753036, -0.06234718859195709, 0.04446642845869064, 0.13536909222602844], [-0.004824292846024036, 0.005421610549092293, 0.06321319937705994, 0.05626330524682999, -0.0006093854317441583, 0.16133280098438263, -0.0822877287864685, -0.048823535442352295, 0.03759615868330002, 0.08797067403793335, -0.06903212517499924, 0.03965185955166817, 0.11926857382059097, 0.16567648947238922], [0.003973214887082577, -0.18093730509281158, -0.17341426014900208, -0.05076625943183899, 0.0869825929403305, -0.048819225281476974, -0.023583684116601944, -0.05951232090592384, -0.007758373860269785, -0.026428351178765297, 0.10014042258262634, -0.1122172623872757, -0.14792035520076752, 0.02286848984658718], [-0.03307328745722771, 0.018281789496541023, -0.0012162206694483757, -0.07288762927055359, -0.004466899670660496, -0.0647110864520073, -0.14258050918579102, -0.14118294417858124, -0.06017119437456131, -0.11212161183357239, 0.00634496845304966, -0.03882483020424843, -0.06930378079414368, -0.09046107530593872], [-0.019662145525217056, -0.04389050975441933, 0.09212861210107803, 0.10235495120286942, 0.11083734035491943, 0.1547691524028778, 0.10520464181900024, -0.03244205191731453, 0.048364441841840744, -0.003177265403792262, 0.06518612802028656, 0.15666010975837708, -0.08714275807142258, 0.09535354375839233], [-0.12085109204053879, -0.031198566779494286, -0.13483677804470062, -0.09302819520235062, 0.07454726845026016, 0.04368677735328674, -0.027280032634735107, -0.13538141548633575, -0.004812562372535467, 0.0680222436785698, -0.0777251273393631, 0.065919890999794, 0.060762226581573486, 0.05820560082793236], [-0.09626923501491547, -0.058496177196502686, 0.009238949045538902, 0.11891919374465942, 0.03334195539355278, -0.015828143805265427, 0.08426959812641144, 0.09506862610578537, 0.1064949706196785, 0.045132044702768326, 0.044110409915447235, -0.06868170946836472, 0.02734748274087906, 0.08281220495700836], [0.053932398557662964, 0.07089225202798843, 0.07535949349403381, 0.10568983852863312, 0.018940379843115807, -0.016045110300183296, 0.13187825679779053, 0.024809442460536957, 0.01340064499527216, 0.17210005223751068, -0.11973199248313904, -0.03125355392694473, 0.17054103314876556, 0.09562940895557404], [-0.1335805356502533, 0.032779816538095474, -0.13025853037834167, -0.12210004776716232, -0.0480198934674263, -0.005224816966801882, -0.0008657271391712129, -0.12687887251377106, -0.011845702305436134, -0.019247068092226982, 0.03917119652032852, -0.05328422412276268, -0.023068618029356003, -0.029105648398399353], [-0.11027222871780396, -0.030162852257490158, 0.078205905854702, 0.04740667715668678, 0.034496232867240906, 0.10310851782560349, -0.008408771827816963, -0.10038787126541138, -0.024395575746893883, 0.02106267586350441, 0.025018075481057167, 0.11642056703567505, -0.0280096884816885, 0.09410912543535233], [-0.12393787503242493, 0.01944814622402191, -0.1617143601179123, -0.15985076129436493, -0.12790532410144806, -0.008662310428917408, -0.08136972039937973, 0.06058342382311821, -0.15844137966632843, 0.055037323385477066, 0.08157274127006531, -0.08102425932884216, 0.07169698923826218, 0.029009904712438583], [-0.15009568631649017, 0.0315055288374424, -0.09883076697587967, 0.033686984330415726, -0.08362704515457153, -0.11600098013877869, -0.09236172586679459, -0.07296650856733322, -0.10629697889089584, -0.0777578204870224, -0.08183813095092773, 0.031014459207654, 0.10742119699716568, -0.07431763410568237], [0.08159353584051132, 0.15769007802009583, 0.08403408527374268, -0.019538352265954018, 0.11827285587787628, 0.09936422109603882, 0.10517621785402298, 0.016236169263720512, 0.11199400573968887, 0.055470746010541916, 0.04276222363114357, -0.01976795308291912, 0.09553245455026627, -0.058296624571084976], [-0.03216050565242767, 0.051436714828014374, 0.01464367937296629, 0.10246235877275467, 0.031014714390039444, 0.06908269971609116, 0.06456077098846436, 0.003038248745724559, 0.030624935403466225, -0.06490622460842133, -0.10411133617162704, 0.10203219950199127, -0.04660962149500847, 0.15053655207157135], [0.14463621377944946, 0.10881438851356506, 0.14089885354042053, -0.0760032907128334, 0.0557442232966423, -0.0017859796062111855, 0.016284983605146408, 0.16084179282188416, 0.031987398862838745, 0.06597031652927399, 0.10910525918006897, -0.08994890004396439, 0.027911869809031487, 0.1526740938425064], [0.15049409866333008, -0.05891922861337662, 0.06373171508312225, 0.00016297526599373668, 0.14781653881072998, -0.0787842720746994, 0.037125471979379654, 0.15875926613807678, 0.18097858130931854, 0.00252014072611928, 0.09805435687303543, 0.07794026285409927, 0.07867509126663208, -0.012156340293586254], [-0.006082590203732252, -0.026525642722845078, -0.04995737597346306, 0.027512723580002785, 0.08109799772500992, -0.04885858669877052, -0.06138110160827637, -0.15704432129859924, -0.07290234416723251, 0.030624916777014732, -0.011532525531947613, -0.14841751754283905, -0.061669930815696716, 0.04469727724790573], [0.10458779335021973, 0.09115242958068848, 0.09747473895549774, 0.12727543711662292, -0.06301391869783401, 0.14663855731487274, 0.10007607191801071, 0.037444837391376495, 0.017741160467267036, 0.014894532039761543, -0.017082616686820984, -0.09722281247377396, -0.004265786614269018, -0.07897966355085373], [0.07365766167640686, 0.10910139232873917, 0.03329368308186531, 0.035829514265060425, 0.0300089530646801, 0.04716772213578224, -0.04101485759019852, 0.07642166316509247, -0.0636998638510704, 0.08909329026937485, -0.11073897033929825, 0.059243883937597275, -0.01808195561170578, 0.057571977376937866], [0.04495829716324806, 0.004623527638614178, 0.03472466766834259, 0.10047600418329239, 0.12089671194553375, 0.05848046764731407, 0.014608481898903847, 0.06659289449453354, -0.1263604313135147, 0.11707243323326111, -0.08997682482004166, 0.03678059205412865, -0.019894247874617577, 0.12470267713069916], [0.05649368837475777, 0.08655618131160736, 0.09037100523710251, 0.08895169943571091, -0.0881354808807373, 0.025245901197195053, -0.03637206181883812, -0.06762903183698654, 0.10034783184528351, 0.07233541458845139, 0.10823383182287216, 0.05037323385477066, -0.02308940514922142, -0.031857434660196304], [-0.17155148088932037, 0.042656514793634415, -0.10695324093103409, -0.05876583978533745, 0.09494912624359131, 0.13298915326595306, -0.11475107073783875, 0.052558112889528275, -0.039195675402879715, 0.1149778664112091, 0.01419021561741829, 0.13722120225429535, -0.0015596826560795307, -0.05611348897218704], [0.02560187131166458, -0.09303459525108337, -0.11739040166139603, 0.041402339935302734, 0.10193916410207748, 0.03627900779247284, -0.07230143249034882, 0.07714034616947174, 0.04488112032413483, -0.004194287583231926, -0.05223991349339485, -0.014234919100999832, -0.002155720256268978, 0.06484168022871017], [-0.1552743911743164, -0.06495189666748047, 0.058253198862075806, 0.11948566883802414, -0.02646786905825138, 0.1403396725654602, -0.05559513345360756, -0.0813378393650055, 0.058175355195999146, -0.02646535634994507, 0.10653392970561981, 0.15257805585861206, -0.06271643191576004, 0.13707181811332703], [-0.16174955666065216, -0.08599308878183365, -0.10693245381116867, -0.06090570241212845, -0.11484608799219131, -0.048606351017951965, -0.10811350494623184, -0.03727997466921806, -0.13289374113082886, 0.06359395384788513, -0.049793291836977005, -0.008303506299853325, -0.0722581148147583, -0.05954360589385033], [-0.33502426743507385, 0.04973135143518448, -0.12969405949115753, 0.1962846964597702, -0.023276159539818764, -0.011093419045209885, -0.10396576672792435, -0.12872406840324402, -0.2169063240289688, -0.06310368329286575, -0.24842682480812073, 0.05570271611213684, -0.12779293954372406, 0.03565090149641037], [-0.2767921984195709, 0.0244069155305624, -0.3189062178134918, 0.06558801233768463, 0.0028836808633059263, 0.0007931579602882266, 0.019970644265413284, -0.051713041961193085, -0.2604987919330597, -0.0021050453651696444, -0.20805242657661438, 0.040581587702035904, -0.15586170554161072, 0.14456404745578766], [-0.3331371247768402, -0.06677719205617905, -0.21492958068847656, 0.19370152056217194, -0.037993721663951874, 0.05904829874634743, -0.1280301958322525, -0.0833856612443924, -0.12754270434379578, 0.011438814923167229, -0.051591020077466965, 0.020245589315891266, -0.16449713706970215, 0.059266187250614166], [0.04111553728580475, 0.1282670497894287, 0.01678979955613613, 0.12212320417165756, 0.08730949461460114, -0.07077563554048538, 0.11542782187461853, -0.00851934589445591, -0.07162096351385117, -0.03439599275588989, -0.0967288464307785, 0.07004152238368988, -0.11226806044578552, 0.09247943013906479], [-0.1073620617389679, 0.09812070429325104, -0.03281402215361595, 0.17647676169872284, -0.03830539062619209, 0.012762998230755329, -0.04328308254480362, -0.07512141019105911, -0.17177627980709076, -0.022789981216192245, -0.013224480673670769, -0.011659816838800907, -0.06945166736841202, -0.065297432243824], [-0.06371279060840607, 0.008490418083965778, -0.06280459463596344, 0.1551809161901474, 0.06368653476238251, 0.1181565523147583, -0.08717654645442963, 0.06478560715913773, -0.0788533166050911, -0.08155173063278198, -0.05500920116901398, 0.03508054092526436, 0.1203991025686264, -0.0768316388130188], [-0.10922137647867203, 0.005919518414884806, -0.11872005462646484, -0.011299633421003819, 0.06790880113840103, 0.044120486825704575, -0.07232560962438583, -0.02348690666258335, -0.15855024755001068, 0.13914722204208374, 0.09826458990573883, 0.054960962384939194, 0.03268880024552345, 0.10620138049125671], [-0.23775357007980347, -0.13279281556606293, -0.2734508812427521, 0.17066550254821777, 0.0011071948101744056, -0.1087968721985817, -0.12918215990066528, -0.14045913517475128, -0.25228366255760193, -0.05422026291489601, -0.23221592605113983, 0.009027520194649696, -0.15155769884586334, 0.11620892584323883], [-0.17409932613372803, -0.09304884821176529, 0.08513004332780838, 0.14914953708648682, 0.09845081716775894, 0.008248670026659966, 0.04646921530365944, -0.0879070907831192, 0.027020445093512535, -0.03817727044224739, 0.0363384373486042, 0.09229645133018494, -0.03476100042462349, -0.0027060206048190594], [0.007678093854337931, 0.056348998099565506, 0.10039356350898743, 0.012016281485557556, 0.1330147236585617, 0.10106161236763, -0.09219219535589218, 0.136325404047966, 0.04352523013949394, -0.0769939124584198, 0.007897420786321163, 0.043957989662885666, -0.08757658302783966, -0.03319114074110985], [0.01821724884212017, -0.07670047879219055, -0.04162993282079697, 0.06237518787384033, 0.10074307024478912, 0.005921941250562668, -0.02875235490500927, 0.07139097899198532, -0.05723850056529045, -0.024828646332025528, 0.02274283953011036, 0.12946322560310364, 0.002301860600709915, 0.0674649029970169], [-0.0878206193447113, 0.0906006246805191, -0.06870923936367035, 0.05179864168167114, -0.06425567716360092, 0.13229084014892578, -0.024316417053341866, -0.10115726292133331, 0.04054998233914375, 0.021903902292251587, -0.058784350752830505, -0.0029761067125946283, 0.008960036560893059, -0.028467612341046333], [-0.37212133407592773, -0.04293723776936531, -0.13936801254749298, 0.11744476854801178, 0.10247291624546051, -0.12403439730405807, 0.0239802747964859, 0.041398074477910995, -0.16162998974323273, 0.0024850238114595413, -0.30906975269317627, 0.055518072098493576, -0.10741647332906723, 0.19007261097431183], [-0.132072314620018, -0.05762651562690735, 0.00549263646826148, 0.07033584266901016, 0.11044226586818695, 0.0379597544670105, 0.017289265990257263, 0.01909502223134041, -0.20350994169712067, 0.07286476343870163, -0.05867047235369682, 0.014236414805054665, 0.03451159968972206, 0.061129387468099594], [0.04973325505852699, 0.13401412963867188, -0.013397467322647572, 0.0077909003011882305, 0.03871731087565422, 0.03817187249660492, -0.007239918224513531, 0.15597772598266602, 0.014663196168839931, -0.07838354259729385, 0.02121865376830101, 0.12377923727035522, 0.05831172689795494, -0.006811255123466253], [-0.18824023008346558, -0.04952877387404442, -0.16804109513759613, -0.051848459988832474, -0.09673452377319336, -0.10850957036018372, -0.02064472995698452, -0.08855491876602173, -0.04737885296344757, -0.10108636319637299, 0.005813281517475843, 0.014173747971653938, -0.03438371419906616, 0.12306886166334152], [0.16102629899978638, 0.209335595369339, 0.11413764208555222, 0.03291899710893631, 0.17058800160884857, 0.17708811163902283, -0.013499299064278603, -0.029491683468222618, 0.16787655651569366, 0.114505834877491, -0.007184154354035854, 0.14511501789093018, 0.10090811550617218, 0.26384833455085754], [-0.20971013605594635, 0.01629086583852768, -0.020476417616009712, 0.044072989374399185, -0.06393563002347946, 0.05916423350572586, -0.11065314710140228, -0.017781512811779976, 0.04205641150474548, -0.00018209397967439145, -0.008816043846309185, 0.06229672208428383, 0.06200677901506424, 0.037252552807331085], [-0.3360557556152344, -0.1145271360874176, -0.1972094625234604, -0.016136163845658302, -0.0915946364402771, -0.03740086033940315, 0.09381801635026932, 0.015988394618034363, -0.16819067299365997, -0.11817433685064316, -0.038897160440683365, -0.09454181790351868, 0.001396064180880785, -0.007250752300024033], [-0.01844041422009468, -0.018891364336013794, -0.11880790442228317, 0.06880764663219452, -0.052549708634614944, 0.05180814117193222, 0.03499463200569153, 0.0866728350520134, -0.16302548348903656, -0.0017386962426826358, -0.12934473156929016, 0.11321119964122772, 0.1039334312081337, 0.024828016757965088], [-0.5056125521659851, 0.0008252967963926494, -0.4849850833415985, 0.12692803144454956, 0.031662363559007645, 0.1552206426858902, 0.07076523452997208, -0.28282615542411804, -0.43660956621170044, 0.14980536699295044, -0.16053782403469086, -0.10988403111696243, -0.005324342753738165, 0.2111479789018631], [-0.20083554089069366, 0.03334112465381622, -0.08349363505840302, 0.08981657028198242, -0.058273617178201675, -0.05597185716032982, 0.06358914822340012, 0.03658035770058632, -0.13388113677501678, -0.11219272017478943, -0.0836661159992218, 0.07299724966287613, 0.04887336492538452, 0.1292865127325058], [-0.01509601715952158, 0.07455456256866455, -0.10205535590648651, 0.15153703093528748, -0.004563496448099613, -0.0013415025314316154, 0.02263932302594185, -0.07550739496946335, 0.005460003390908241, 0.07370202243328094, -0.14895717799663544, 0.0040713828057050705, -0.08381056040525436, 0.1750405877828598], [-0.10379525274038315, -0.00024456612300127745, -0.2669273614883423, 0.0951361432671547, 0.03353125974535942, -0.10536608099937439, -0.028324216604232788, -0.054676443338394165, -0.17280057072639465, -0.12686042487621307, -0.15921930968761444, 0.026410359889268875, 0.03818972781300545, 0.033992424607276917], [0.07622792571783066, -0.06878575682640076, 0.04939660057425499, -0.04501276835799217, -0.06482861191034317, 0.03479688614606857, 0.08907635509967804, 0.11178527027368546, 0.051135189831256866, -0.04828895628452301, 0.010196462273597717, -0.04738043248653412, 0.0919097438454628, 0.1869226098060608], [-0.1872251033782959, -0.032995231449604034, -0.07212527841329575, -0.07291529327630997, -0.07788710296154022, 0.11129195988178253, 0.12861362099647522, 0.006015164311975241, 0.034071262925863266, 0.09666575491428375, 0.03286099061369896, 0.07079041004180908, 0.041041214019060135, 0.12521962821483612], [-0.35836881399154663, -0.029722411185503006, -0.10919615626335144, -0.021706461906433105, -0.054223038256168365, 0.001159879844635725, 0.07638252526521683, -0.03784198313951492, -0.3730461299419403, -0.02239951677620411, -0.09210730344057083, -0.013803297653794289, -0.0621543824672699, 0.08595830202102661], [-0.044296976178884506, -0.06255246698856354, 0.10234256833791733, 0.01493371557444334, -0.0662594586610794, 0.10580363869667053, 0.13057154417037964, 0.15732914209365845, 0.055484648793935776, -0.0792149156332016, 0.0019483072683215141, 0.054702553898096085, 0.06996902078390121, 0.013043150305747986], [0.02368232235312462, -0.10669580847024918, 0.05490363761782646, -0.05600788816809654, 0.05612088739871979, 0.07569039613008499, 0.06787567585706711, -0.05828221142292023, -0.11596570909023285, 0.00934674497693777, 0.09913113713264465, -0.04852570965886116, 0.03794166073203087, -0.05295192077755928], [-0.05891750007867813, 0.13240498304367065, 0.07012318819761276, -0.04139898717403412, -0.02182239480316639, 0.07771413028240204, 0.11045254021883011, -0.06354586780071259, 0.011896568350493908, 0.14154908061027527, -0.05393913388252258, 0.18156707286834717, -0.012477624230086803, 0.1423005610704422], [-0.16049470007419586, -0.008417466655373573, 0.03506501764059067, -0.055170122534036636, -0.043454624712467194, -0.08092550188302994, 0.06448423117399216, -0.015678714960813522, -0.16744212806224823, -0.06261032819747925, -0.06910460442304611, 0.0121961934491992, 0.05458972230553627, 0.13322830200195312], [-0.15845465660095215, -0.002322965767234564, -0.2545663118362427, 0.1189994364976883, -0.056919168680906296, -0.12736725807189941, -0.11764191091060638, -0.13140647113323212, -0.16282129287719727, -0.049891166388988495, -0.22900544106960297, -0.08933977782726288, -0.14148463308811188, -0.045647528022527695], [-0.062594935297966, 0.08795822411775589, -0.009970703162252903, 0.11970190703868866, 0.0857735201716423, 0.00347541319206357, 0.014042331837117672, 0.09714256972074509, -0.017139507457613945, 0.1465689241886139, -0.018914125859737396, -0.07361654192209244, 0.01797432452440262, 0.14687535166740417], [-0.11210351437330246, -0.13042135536670685, -0.29360464215278625, 0.16276273131370544, -0.0448651984333992, 0.06632569432258606, -0.06643147766590118, -0.07746992260217667, -0.22490239143371582, 0.049373187124729156, -0.10237108170986176, 0.01785089075565338, -0.058102741837501526, 0.1204434409737587], [-0.19477353990077972, 0.07421398907899857, -0.08546026051044464, -0.018252437934279442, 0.12272809445858002, -0.07418516278266907, -0.10006891936063766, 0.0383559986948967, -0.022748129442334175, 0.047867801040410995, -0.019105128943920135, 0.04239605739712715, 0.09577365964651108, 0.14877869188785553], [-0.114716537296772, -0.12576167285442352, -0.07922187447547913, -0.02251374162733555, 0.010913795791566372, 0.06433799117803574, -0.11688726395368576, -0.11596106737852097, -0.2955864369869232, 0.08039636164903641, -0.2303449958562851, 0.059744320809841156, -0.12561413645744324, -0.015801243484020233], [-0.16012687981128693, -0.020158138126134872, -0.23226304352283478, 0.2362842857837677, 0.10748400539159775, 0.011771736666560173, -0.16872812807559967, -0.4118083119392395, -0.2644352316856384, 0.1913374364376068, -0.29928314685821533, -0.014960169792175293, 0.1182970181107521, 0.1295691728591919], [-0.3632867932319641, -0.04504803195595741, -0.0679551362991333, 0.130619615316391, 0.06752541661262512, 0.10807866603136063, -0.08573342114686966, -0.07946710288524628, -0.1395035982131958, 0.10676126182079315, -0.18972517549991608, 0.06572913378477097, 0.006485429126769304, 0.1502000391483307], [0.002110730856657028, -0.0900178998708725, -0.05166778340935707, 0.14611248672008514, -0.043727003037929535, 0.028808249160647392, 0.001511809416115284, -0.028428785502910614, -0.05484285205602646, -0.025401469320058823, -0.08063798397779465, 0.1264079213142395, 0.021930409595370293, 0.16693130135536194], [-0.097054123878479, 0.05916605517268181, -0.11494307965040207, 0.14679522812366486, 0.08457478880882263, -0.09970026463270187, -0.10028809309005737, -0.020007168874144554, -0.0961264818906784, -0.0775725394487381, 0.03929932788014412, 0.14475730061531067, -0.027888840064406395, 0.035879578441381454], [0.08452336490154266, 0.08855542540550232, 0.023638885468244553, 0.11372997611761093, -0.039392635226249695, -0.03661232069134712, -0.07687103003263474, -0.0039073750376701355, -0.052465904504060745, -0.08274425566196442, -0.08744782209396362, -0.09484702348709106, 0.047568660229444504, -0.0108853280544281], [-0.1189655140042305, 0.07312151044607162, 0.019913434982299805, 0.13852472603321075, 0.12192859500646591, 0.11966441571712494, -0.07418559491634369, -0.01514139212667942, -0.1395605206489563, -0.08660062402486801, -0.04399293661117554, -0.019906481727957726, 0.11461659520864487, 0.13778075575828552], [-0.14487065374851227, 0.033437736332416534, -0.03919123858213425, 0.08655061572790146, -0.043561406433582306, 0.038752101361751556, 0.05859552323818207, 0.040981002151966095, -0.05178416520357132, 0.03315010666847229, 0.02269377000629902, -0.022301102057099342, 0.02473200485110283, 0.10458498448133469], [0.06172667071223259, -0.08007396012544632, -0.13621078431606293, 0.021105801686644554, -0.07029303908348083, -0.08325342833995819, 0.11695308983325958, -0.02138049341738224, -0.15160033106803894, 0.07473808526992798, -0.052875716239213943, -0.0922190472483635, 0.08274755626916885, 0.09865528345108032], [-0.4915180504322052, 0.013663405552506447, -0.4365330934524536, 0.14417721331119537, 0.012141207233071327, -0.11702337116003036, 0.052335336804389954, -0.15115879476070404, -0.4051813781261444, 0.10021059215068817, -0.26326945424079895, 0.005606287159025669, -0.024182291701436043, 0.21499547362327576], [-0.24992020428180695, 0.03292994201183319, -0.3048563301563263, 0.23510988056659698, -0.11125387996435165, -0.0956384614109993, -0.10389383882284164, 0.011341016739606857, -0.24818842113018036, -0.07632739841938019, -0.29995548725128174, -0.06590037792921066, -0.05948685109615326, 0.0657096579670906], [-0.09417334944009781, -0.055405035614967346, 0.05023506283760071, -0.004685260355472565, -0.09900975227355957, -0.05079059302806854, -0.07410964369773865, 0.1174592599272728, -0.035751331597566605, 0.13421975076198578, 0.04029081389307976, 0.010979564860463142, -0.04703765735030174, -0.01933327130973339], [-0.30602478981018066, -0.006667987909168005, -0.07323450595140457, 0.035336658358573914, 0.023008277639746666, 0.07367944717407227, 0.030629457905888557, 0.08346949517726898, -0.2623087465763092, -0.07492239028215408, -0.12844741344451904, -0.026784777641296387, -0.13369902968406677, 0.07113338261842728], [-0.31894996762275696, -0.0555085688829422, -0.07201430946588516, -0.019864777103066444, -0.027555767446756363, 0.10043416172266006, 0.05393971875309944, -0.02505691722035408, -0.293387770652771, -0.09569486230611801, -0.07212991267442703, -0.08512525260448456, 0.028334956616163254, 0.08399365842342377], [-0.1132623478770256, -0.0144599424675107, 0.06274854391813278, -0.003448332892730832, -0.015915319323539734, 0.06914155185222626, 0.006867420859634876, 0.0038303404580801725, -0.10992731153964996, 0.015015056356787682, 0.005216297227889299, 0.07450468093156815, -0.12018155306577682, 0.16281510889530182], [-0.026482416316866875, 0.04057446867227554, -0.12294474989175797, -0.022364724427461624, -0.02031060867011547, 0.03768308460712433, -0.05779212340712547, 0.1302819550037384, -0.08907315880060196, -0.04949863255023956, -0.1532401442527771, 0.11072047799825668, -0.0871051549911499, 0.10253994911909103], [0.08500440418720245, 0.01027357205748558, -0.008486777544021606, 0.08573635667562485, 0.03619052842259407, -0.009934146888554096, -0.06279109418392181, 0.1295739710330963, -0.026357920840382576, 0.14524248242378235, -0.11177326738834381, 0.04318760707974434, 0.01932132989168167, -0.016196098178625107], [-0.10791175812482834, -0.06820890307426453, 0.03293823078274727, -0.03724176809191704, -0.06130068749189377, -0.04264670982956886, -0.04334334284067154, 0.00877036526799202, 0.06614352762699127, 0.07437627017498016, -0.035408105701208115, 0.06330844014883041, 0.07693149149417877, 0.10995908826589584], [-0.0014395073521882296, 0.0004921952495351434, 0.08142534643411636, 0.12825095653533936, 0.11993207037448883, -0.09649466723203659, 0.08124498277902603, -0.004070004913955927, 0.04816458001732826, 0.11561761051416397, -0.05784890800714493, 0.0483347624540329, 0.09099414199590683, -0.03403704985976219], [-0.17396390438079834, 0.06889911741018295, 0.05210180580615997, 0.04981296882033348, 0.0709269717335701, -0.06867338716983795, 0.13559964299201965, 0.007407890632748604, -0.11449844390153885, -0.01074818056076765, 0.006252723280340433, -0.13796256482601166, 0.08442669361829758, 0.2209279090166092], [-0.10209129005670547, 0.10640235245227814, -0.0838954821228981, 0.022201934829354286, -0.04423094540834427, -0.059686608612537384, 0.08598559349775314, -0.06687013059854507, -0.03772609680891037, -0.06445061415433884, -0.18942126631736755, 0.14539051055908203, 0.06082243472337723, 0.09818216413259506], [-0.0599358007311821, 0.07657796144485474, -0.18391229212284088, -0.056535981595516205, -0.08685392886400223, -0.022964492440223694, -0.07250918447971344, 0.09762902557849884, -0.041883185505867004, 0.13773296773433685, -0.0933624804019928, 0.14304548501968384, 0.11510159820318222, 0.11435946077108383]], "lstm.weight_hh_l0": [[-0.03914253041148186, -0.09967585653066635, -0.08626857399940491, 0.08023300766944885, -0.13658079504966736, -0.14278696477413177, 0.041573844850063324, -0.0738847404718399, 0.02211390621960163, -0.0006028859643265605, -0.08459096401929855, -0.04922446236014366, -0.02278844453394413, -0.10265886783599854, -0.10751684010028839, 0.01428854838013649, -0.15163029730319977, -0.052018795162439346, -0.004597825929522514, -0.06105460599064827, -0.1274438500404358, 0.027583176270127296, 0.025452066212892532, 0.05083692818880081, 0.12037906050682068, -0.0900285467505455, -0.0953747034072876, 0.058396779000759125, -0.10359662771224976, -0.07363399118185043, -0.08459512889385223, 0.12470997124910355, -0.07388428598642349, -0.018967194482684135, 0.16168473660945892, -0.04078059643507004, -0.1500905603170395, -0.16358473896980286, 0.10717775672674179, 0.11684521287679672, 0.07554809004068375, 0.07478903979063034, 0.047643132507801056, -0.12569326162338257, -0.06345976144075394, -0.02917800098657608, 0.14423735439777374, 0.13712668418884277, -0.042473893612623215, -0.04607400670647621, 0.11337465792894363, 0.08054828643798828, -0.06300023198127747, 0.013862485997378826, -0.12637460231781006, 0.012743448838591576, -0.012127530761063099, -0.11875537037849426, 0.13077881932258606, 0.1337873786687851, 0.021487416699528694, 0.14924703538417816, 0.012715959921479225, -0.041167084127664566], [0.051257941871881485, -0.12548676133155823, -0.12970297038555145, 0.01345862913876772, -0.1447959542274475, 0.03612063452601433, 0.12260730564594269, 0.0695795938372612, 0.0398789718747139, -0.09105130285024643, -0.055846236646175385, -0.026688652113080025, -0.12042400985956192, -0.0381171815097332, -0.01062467135488987, 0.05400197207927704, -0.036797069013118744, -0.12053714692592621, 0.15536266565322876, -0.13897746801376343, 0.021092403680086136, 0.012142347171902657, -0.011192579753696918, 0.03920387104153633, -0.0792040079832077, -0.12920984625816345, -0.12833918631076813, -0.03810686618089676, 0.07168982923030853, 0.08499912917613983, -0.14589165151119232, -0.08329817652702332, -0.010998238809406757, -0.09334444999694824, 0.04734257236123085, 0.04366439953446388, 0.07592213153839111, 0.05219268426299095, -0.04083491489291191, 0.15385277569293976, -0.07277118414640427, 0.1609068363904953, 0.11514248698949814, -0.11902502924203873, -0.0780201330780983, -0.07737922668457031, 0.051673345267772675, -0.07498505711555481, -0.1011003702878952, -0.12437276542186737, 0.10573776811361313, 0.02143227867782116, -0.0732417032122612, 0.08032794296741486, -0.03495548665523529, -0.07397271692752838, -0.013720916584134102, -0.012929441407322884, 0.011785889975726604, 0.10816850513219833, -0.051132120192050934, -0.06880706548690796, -0.059035904705524445, -0.014666697941720486], [-0.16164031624794006, 0.031968120485544205, 0.07357010990381241, 0.06225169077515602, -0.11896823346614838, -0.0881337895989418, 0.0866054892539978, 0.015358359552919865, 0.06512600928544998, -0.010172626003623009, -0.14705489575862885, -0.11476130783557892, -0.11626451462507248, 0.07586973160505295, 0.007450921460986137, 0.06128772348165512, -0.04795333370566368, 0.0022001767065376043, 0.1250980943441391, 0.0797632485628128, 0.047808241099119186, 0.07630278915166855, 0.16386577486991882, 0.1539611667394638, 0.05250954627990723, -0.07093819975852966, 0.04977615922689438, -0.1165895015001297, -0.06174514815211296, -0.06819387525320053, 0.014493596740067005, 0.1191357895731926, 0.03852846100926399, -0.10680108517408371, 0.01473996788263321, 0.07001589238643646, -0.10085730254650116, -0.07833056151866913, 0.006228493992239237, 0.12801724672317505, 0.024176277220249176, 0.06990811228752136, 0.02287278324365616, 0.11188498139381409, 0.08647018671035767, -0.1595809906721115, 0.1267804503440857, -0.05619895085692406, 0.055655937641859055, -0.11752143502235413, 0.13443538546562195, -0.004785411991178989, 0.1410866230726242, 0.1343199908733368, -0.001553404494188726, 0.12639664113521576, 0.060805950313806534, -0.006813491228967905, 0.16948503255844116, 0.029177451506257057, 0.02770124562084675, 0.08521831035614014, -0.01758672669529915, -0.07717153429985046], [-0.16674230992794037, -0.1400783509016037, -0.05522396042943001, -0.16736993193626404, -0.17617419362068176, 0.04230218753218651, 0.01159824337810278, -0.14972272515296936, -0.17851576209068298, -0.17129328846931458, -0.06977970153093338, -0.05340246483683586, -0.04633380472660065, -0.046820834279060364, -0.1305428147315979, 0.021383030340075493, -0.11333370208740234, -0.1736903041601181, 0.047571465373039246, -0.12299752980470657, 0.06688380986452103, 0.07787221670150757, 0.15422920882701874, -0.06314614415168762, 0.10425925254821777, -0.15579260885715485, -0.09839112311601639, 0.058221202343702316, -0.05230802670121193, 0.03888530656695366, -0.03674478828907013, 0.053040761500597, -0.05682077631354332, 0.035705454647541046, -0.022849291563034058, -0.05260990932583809, -0.0455976277589798, -0.07914944738149643, -0.1709219217300415, -0.062047068029642105, 0.16430401802062988, -0.009839286096394062, -0.06043903902173042, 0.1722029447555542, 0.1307603120803833, -0.12259118258953094, 0.03833222761750221, 0.05214853957295418, -0.17718616127967834, -0.09230595827102661, 0.14766381680965424, -0.05809934437274933, 0.05593302845954895, 0.15959204733371735, -0.09288932383060455, -0.02718937397003174, -0.00481366878375411, -0.09577897191047668, 0.08402913808822632, -0.010660558007657528, -0.002199763199314475, 0.10667666047811508, -0.11220699548721313, 0.16128407418727875], [-0.12929736077785492, -0.08550311625003815, -0.1164541244506836, -0.07035963982343674, -0.12288649380207062, 0.05675883591175079, 0.08239759504795074, -0.1783086210489273, 0.039096321910619736, -0.03952598199248314, -0.03666102886199951, 0.0093233035877347, -0.14499084651470184, -0.1368681937456131, -0.06361750513315201, 0.04249690845608711, -0.09061335027217865, 0.006032660137861967, 0.09001677483320236, -0.1452944576740265, -0.07946284860372543, 0.10646934807300568, -0.0020581213757395744, 0.04754266515374184, 0.07884680479764938, 0.006686774548143148, -0.033690810203552246, -0.019629910588264465, -0.08819513767957687, 0.06789950281381607, -0.1211811825633049, 0.04807071387767792, -0.16080427169799805, -0.039818175137043, -0.052804622799158096, -0.05149267613887787, -0.09899201989173889, 0.0618882030248642, 0.04611700028181076, 0.11376230418682098, -0.021612701937556267, 0.05686254799365997, 0.037018630653619766, 0.1908128708600998, 0.05648450553417206, -0.1612621545791626, 0.05609924718737602, 0.12887945771217346, -0.07867777347564697, 0.040328387171030045, 0.1004212498664856, -0.017108887434005737, 0.0371411070227623, 0.12510153651237488, 0.014937653206288815, 0.16721829771995544, -0.15385910868644714, -0.043811675161123276, 0.05100840702652931, -0.014183077961206436, 0.11218568682670593, -0.07535623759031296, -0.06992001831531525, 0.021312059834599495], [-0.16025970876216888, -0.1111522987484932, -0.08959979563951492, -0.023833753541111946, -0.0868767723441124, 0.06182962283492088, -0.07270454615354538, -0.07155141979455948, -0.011722143739461899, 0.05442463234066963, 0.06515394896268845, -0.16719044744968414, -0.05775750055909157, -0.018873825669288635, 0.02485387586057186, -0.055165890604257584, 0.01783166266977787, -0.17151950299739838, 0.09865250438451767, 0.03693932667374611, -0.17131517827510834, -0.04529009014368057, 0.08507874608039856, 0.08396211266517639, 0.08890186995267868, 0.07310016453266144, 0.0035368960816413164, -0.05470943823456764, -0.03639611974358559, -0.02226364240050316, 0.04329261928796768, -0.04479334130883217, 0.0033505347091704607, -0.07379619777202606, 0.007021734956651926, -0.04198141023516655, -0.15812648832798004, 0.04183146730065346, -0.04738546162843704, 0.13685178756713867, 0.07985951751470566, 0.17016805708408356, -0.04870743677020073, 0.07090975344181061, 0.0907793715596199, -0.09684788435697556, -0.019106870517134666, 0.11063672602176666, -0.10175211727619171, -0.1482185274362564, -0.012253770604729652, 0.04652753472328186, 0.03407692536711693, -0.06596473604440689, 0.03878099098801613, -0.042702194303274155, -0.11768365651369095, -0.026056883856654167, 0.16982971131801605, 0.12271282821893692, 0.1331508308649063, 0.09959738701581955, -0.06685769557952881, 0.07396163791418076], [-0.04230480268597603, -0.13904136419296265, -0.15426327288150787, -0.10810159891843796, -0.07152321189641953, -0.05404191091656685, -0.05162244662642479, -0.07710056751966476, -0.0011788151459768414, -0.16273656487464905, -0.09232190996408463, 0.016253270208835602, -0.15183912217617035, -0.04560970142483711, -0.05100565031170845, 0.01268000341951847, -0.050629425793886185, -0.07581968605518341, 0.1395634114742279, -0.00558700505644083, 0.06614965200424194, -0.0029550560284405947, 0.04974514618515968, 0.044868361204862595, -0.011751990765333176, 0.011103677563369274, 0.02581782639026642, 0.08093418926000595, -0.041724082082509995, 0.12662410736083984, -0.17023591697216034, 0.10471037775278091, -0.08288776129484177, -0.01601450704038143, -0.037624284625053406, -0.050696346908807755, -0.14180174469947815, -0.1392841339111328, 0.0020047517027705908, -0.04081632196903229, 0.15155792236328125, 0.13654707372188568, 0.14016562700271606, 0.04840279370546341, -0.04992256313562393, -0.14210966229438782, 0.04924200102686882, 0.08855333179235458, -0.0940549299120903, 0.04411750286817551, 0.12689323723316193, -0.08494836837053299, -0.09125220775604248, 0.14812903106212616, -0.18068574368953705, 0.005624024663120508, -0.06997007131576538, 0.05974366143345833, 0.0839252918958664, 0.0650106817483902, 0.12782712280750275, 0.09442083537578583, 0.007157756946980953, -0.009831155650317669], [0.0699167400598526, 0.01655477285385132, 0.06419943273067474, 0.0009492848184891045, -0.0023954054340720177, -0.07212895900011063, 0.06209006905555725, -0.025964783504605293, -0.03774008899927139, -0.0031649430748075247, -0.033279042690992355, 0.008076215162873268, -0.018662530928850174, -0.05986829474568367, 0.00417867349460721, 0.167023167014122, -0.12482626736164093, 0.06263992935419083, 0.07843437790870667, -0.058132708072662354, 0.04384436830878258, 0.10265091806650162, 0.10033605992794037, 0.1266968697309494, 0.16151247918605804, -0.16149334609508514, 0.05687602609395981, 0.00039487177855335176, -0.16989190876483917, 0.05146366357803345, -0.12841373682022095, 0.1611821949481964, -0.0823289155960083, -0.09769842773675919, 0.06484869122505188, 0.06203259527683258, 0.06001352146267891, -0.04885469004511833, -0.09200349450111389, 0.10146743059158325, 0.12258459627628326, -0.0016211046604439616, 0.08120577782392502, 0.16782397031784058, 0.08818601816892624, 0.028500596061348915, 0.0730079784989357, 0.009718273766338825, -0.0412391759455204, 0.05679365247488022, 0.11067616939544678, 0.01935221627354622, 0.008229227736592293, 0.09253282099962234, -0.009067520499229431, 0.18086448311805725, -0.10285430401563644, -0.1361323744058609, 0.02258186601102352, 0.15387333929538727, -0.03190573677420616, -0.04442014545202255, -0.17055968940258026, 0.06572843343019485], [-0.06037707254290581, -0.06556001305580139, -0.022517438977956772, -0.10319358110427856, 0.013506700284779072, 0.031059233471751213, -0.0157856997102499, 0.054457616060972214, -0.18048883974552155, 0.03545624762773514, -0.03716432675719261, -0.12207477539777756, -0.027502642944455147, -0.1394886076450348, 0.0263177789747715, 0.13755786418914795, -0.13823512196540833, 0.014494475908577442, 0.02002239227294922, 0.0865773856639862, 0.07884053140878677, 0.07060952484607697, 0.05455651506781578, 0.2599847912788391, -0.00513713201507926, -0.04078447073698044, 0.03423023223876953, -0.0018397645326331258, -0.0833631083369255, 0.13502256572246552, -0.13146862387657166, -0.06339580565690994, 0.03614218533039093, 0.002782671945169568, 0.03589417040348053, 0.022666266188025475, -0.07251295447349548, -0.10945501178503036, 0.035124894231557846, -0.017627451568841934, -0.006622342858463526, -0.03860512748360634, -0.051029022783041, 0.061602022498846054, 0.002840150613337755, -0.0010454975999891758, -0.04831372946500778, 0.0350065752863884, 0.0025404293555766344, 0.05787255987524986, 0.1104370728135109, -0.15828198194503784, -0.058892738074064255, 0.1718740016222, -0.03781180456280708, -0.008224084973335266, -0.09099064022302628, 0.07123801112174988, -0.017153948545455933, 0.0947185605764389, 0.15481655299663544, -0.006762541364878416, 0.03637181594967842, -0.02684601955115795], [-0.07281129062175751, -0.159489706158638, -0.11152094602584839, -0.019051548093557358, 0.057051289826631546, -0.13582389056682587, 0.18344958126544952, -0.087154820561409, 0.01973542384803295, 0.0004293054807931185, -0.02632446400821209, 0.056994009763002396, -0.02937886118888855, -0.12184329330921173, -0.03523200377821922, -0.030162546783685684, -0.007340726908296347, 0.06703753024339676, 0.07948082685470581, 0.03355288878083229, -0.16996730864048004, -0.07587864995002747, 0.08749557286500931, 0.13697315752506256, -0.05487154796719551, -0.053238362073898315, -0.11007093638181686, 0.013932790607213974, -0.06791367381811142, 0.14160996675491333, -0.08586864173412323, 0.046307921409606934, 0.027649590745568275, 0.017122682183980942, 0.13681741058826447, -0.1685526967048645, -0.16708984971046448, -0.15698552131652832, -0.0006502695614472032, 0.15812112390995026, 0.06437493860721588, 0.1565512716770172, 0.17563749849796295, -0.03650644049048424, 0.04894533380866051, -0.13952718675136566, 0.1644013524055481, -0.059768885374069214, -0.12533429265022278, 0.05896114185452461, 0.09992267936468124, -0.14439192414283752, 0.07481609284877777, -0.013882032595574856, -0.13122612237930298, 0.14889995753765106, -0.055674318224191666, -0.06960443407297134, 0.020593738183379173, 0.05558221414685249, -0.07214238494634628, 0.1336229145526886, -0.02291148155927658, 0.03760463371872902], [0.06829126924276352, 0.05042210966348648, -0.1647806316614151, -0.12043602019548416, -0.16351494193077087, 0.07033094018697739, 0.15940873324871063, 0.00027284177485853434, 0.08858578652143478, -0.0709051638841629, -0.15315979719161987, 0.025745753198862076, -0.01384284533560276, 0.04437769576907158, 0.02805398404598236, -0.043106719851493835, -0.014277637004852295, -0.13234254717826843, 0.15786482393741608, 0.0411231704056263, -0.0912187322974205, 0.09388191998004913, 0.03948959335684776, 0.10744822025299072, -0.0216542799025774, -0.13977794349193573, -0.11871518939733505, -0.04413876682519913, 0.04661712050437927, 0.15503111481666565, -0.03635512292385101, -0.0696297213435173, 0.07327422499656677, -0.15803556144237518, 0.1232108399271965, 0.02499847486615181, 0.07115007936954498, -0.008014339953660965, 0.03942713141441345, 0.14171846210956573, -0.0712546855211258, 0.08049125224351883, -0.03249451518058777, 0.056168437004089355, -0.03549348562955856, -0.09328687936067581, 0.0792636126279831, 0.14617908000946045, -0.14398422837257385, -0.12718620896339417, -0.014872342348098755, 0.040772851556539536, 0.10936861485242844, 0.048460446298122406, -0.0176742821931839, 0.03735290467739105, -0.16186365485191345, -0.01828697882592678, -0.02132551558315754, -0.07067642360925674, 0.07393313944339752, -0.012425624765455723, 0.03144250065088272, -0.04911814630031586], [-0.1780690997838974, -0.1262342780828476, -0.1752583235502243, -0.1511596292257309, -0.11399243026971817, -0.14934532344341278, 0.0491701103746891, -0.10369636118412018, -0.14326883852481842, 0.04466264694929123, -0.15859104692935944, 0.008575406856834888, 0.038110606372356415, -0.15072128176689148, -0.09322410076856613, 0.03398141637444496, 0.004650438670068979, -0.1612367331981659, 0.1275697946548462, -0.032765332609415054, -0.0072592259384691715, 0.13459011912345886, 0.12677380442619324, -0.01889932155609131, 0.16480636596679688, -0.08192893862724304, -0.15752212703227997, -0.10911127179861069, -0.17257507145404816, -0.012148605659604073, 0.0011831532465294003, 0.0497678779065609, -0.03290741890668869, -0.13541363179683685, 0.10517077893018723, -0.17451374232769012, 0.011156952008605003, -0.011173226870596409, -0.06407680362462997, 0.12381045520305634, 0.03365938365459442, 0.1303435117006302, 0.14956574141979218, -0.034959472715854645, 0.18573839962482452, -0.05983917415142059, 0.06969621777534485, 0.11094874888658524, 0.06347936391830444, -0.003889796556904912, 0.11949797719717026, -0.0005215280107222497, -0.045489050447940826, 0.03386056423187256, -0.18810737133026123, 0.05259973928332329, -0.11856299638748169, 0.03868359699845314, -0.0058467695489525795, -0.03254655748605728, 0.09351148456335068, -0.005984203889966011, -0.18341130018234253, 0.04918390139937401], [-0.011977565474808216, -0.035050541162490845, 0.004690031986683607, -0.163354754447937, -0.0998309999704361, -0.1424303948879242, 0.16984699666500092, 0.00038707544445060194, 0.07508882880210876, -0.04627920314669609, 0.04162958264350891, -0.18020503222942352, -0.035324882715940475, -0.1797771006822586, -0.12423322349786758, 0.07039433717727661, -0.1008959487080574, 0.06311006098985672, -0.04766000062227249, -0.11933770030736923, -0.11470752209424973, -0.022811654955148697, 0.1309613734483719, 0.012727650813758373, 0.15184570848941803, -0.05663292109966278, -0.03804640471935272, -0.09292297065258026, -0.054005034267902374, -0.052036236971616745, -0.13436010479927063, 0.00804146844893694, -0.11145781725645065, -0.10482519865036011, -0.06645070761442184, -0.16896583139896393, 0.04277639463543892, 0.07060438394546509, 0.03040061704814434, 0.0526135191321373, 0.12205149978399277, 0.1713009923696518, 0.016195617616176605, 0.0718267560005188, 0.11889482289552689, -0.1596924364566803, 0.05086465924978256, -0.027137132361531258, -0.0803719162940979, 0.01300141867250204, 0.12273231893777847, -0.06582632660865784, 0.11534162610769272, 0.03602566942572594, -0.11185716092586517, 0.02792496047914028, -0.07843239605426788, -0.08220845460891724, -0.031000882387161255, 0.11909317970275879, 0.13510729372501373, -0.03527696430683136, -0.08191490918397903, -0.04623636603355408], [0.040507834404706955, 0.017758691683411598, -0.050399526953697205, 0.0377262718975544, -0.07882605493068695, -0.162632018327713, 0.049537766724824905, -0.10999974608421326, -0.06009944900870323, -0.13554923236370087, -0.07847099751234055, 0.059332747012376785, -0.027203988283872604, -0.058045271784067154, 0.019452551379799843, 0.178899884223938, -0.024579346179962158, -0.12123820185661316, 0.07917017489671707, 0.04049893468618393, 0.031863175332546234, 0.11523200571537018, -0.02082245424389839, -0.13267482817173004, 0.039974361658096313, -0.026116859167814255, -0.07280409336090088, -0.04105888679623604, -0.10239032655954361, -0.029636144638061523, 0.03035280853509903, 0.17022837698459625, -0.06506304442882538, -0.06616394966840744, 0.1103622317314148, 0.06348630040884018, -0.11860126256942749, -0.09420769661664963, 0.038966886699199677, 0.042646296322345734, 0.1016160398721695, 0.04555237293243408, 0.09678170084953308, -0.1279587596654892, 0.11508134007453918, -0.16727061569690704, 0.0498192124068737, 0.022998884320259094, 0.03024144470691681, -0.029898257926106453, 0.06536364555358887, -0.05996417626738548, 0.002017568564042449, 0.16348598897457123, -0.09573431313037872, 0.08632776886224747, 0.0004928834387101233, -0.1754293590784073, -0.020963001996278763, 0.15749895572662354, 0.1056150496006012, 0.1344113051891327, -0.1624329686164856, 0.13596896827220917], [-0.04496358707547188, -0.022740183398127556, -0.09936979413032532, -0.1302388459444046, 0.04343549162149429, -0.021503055468201637, 0.07016593962907791, -0.04331253468990326, -0.09682612121105194, -0.07611335068941116, -0.06395655125379562, -0.07832863926887512, 0.08361051976680756, -0.02756332792341709, -0.045014865696430206, 0.12967509031295776, -0.10810190439224243, -0.09618772566318512, -0.03486470878124237, -0.08319097012281418, -0.07429709285497665, 0.0037678370717912912, 0.08481797575950623, 0.13970771431922913, 0.07706090062856674, 0.020882753655314445, -0.10818655788898468, 0.0076370844617486, 0.052697475999593735, -0.036663156002759933, 0.0397820770740509, -0.00416942685842514, -0.13998544216156006, -0.015915803611278534, 0.11548995971679688, -0.1563737839460373, -0.0270571019500494, -0.12094748765230179, -0.04230501130223274, 0.012929791584610939, 0.0006351625779643655, -0.08038972318172455, 0.15291015803813934, 0.05961519479751587, 0.12560169398784637, -0.060319241136312485, 0.14904621243476868, 0.04956816881895065, -0.04036734253168106, -0.13983094692230225, 0.04398422688245773, -0.08819247037172318, 0.08643142133951187, 0.01688367687165737, 0.01757575199007988, 0.1562088280916214, -0.13174420595169067, -0.03112799860537052, 0.008312682621181011, -0.028907565400004387, 0.1248171254992485, -0.02422497048974037, -0.12022088468074799, 0.06693049520254135], [-0.015519321896135807, -0.03508033603429794, -0.16391894221305847, -0.06650785356760025, 0.032110609114170074, 0.023548996075987816, 0.05680515989661217, -0.13326694071292877, -0.05340799689292908, -0.02775951474905014, -0.043004460632801056, -0.18194420635700226, -0.16163869202136993, -0.085050567984581, 0.03626714274287224, 0.13165085017681122, -0.18039952218532562, -0.15102136135101318, 0.04195330664515495, -0.1361556053161621, -0.07687719166278839, 0.18612040579319, 0.06292500346899033, -0.00794786587357521, 0.04665827378630638, -0.08561154454946518, -0.04344676434993744, -0.06613662093877792, -0.19846266508102417, 0.10850585252046585, -0.15223734080791473, 0.054290514439344406, -0.09523448348045349, -0.0047634802758693695, -1.6018515452742577e-05, -0.056420594453811646, 0.02603350207209587, -0.009360020980238914, -0.03460337966680527, 0.12474280595779419, 0.015246732160449028, 0.04219153895974159, 0.01945336163043976, 0.14015652239322662, 0.0426463857293129, -0.06654006987810135, 0.16826914250850677, 0.06650501489639282, 0.047343701124191284, -0.1282457858324051, 0.12630382180213928, -0.07147827744483948, -0.029341531917452812, 0.1443106234073639, -0.031561609357595444, 0.09154623746871948, 