{"lstm.weight_ih_l0": [[0.13986852765083313, 0.0921618789434433, 0.12937745451927185, 0.11333625763654709, 0.06881847232580185, 0.09057243913412094, 0.015922538936138153, -0.008968961425125599, 0.0954713374376297, -0.0015131409745663404, 0.10443668067455292, 0.06758742034435272, 0.05567967891693115, 0.05596528202295303], [-0.592654824256897, 0.05371319502592087, -0.45788463950157166, 0.3917134702205658, 0.24797280132770538, -0.18494932353496552, -0.2363985925912857, -1.119441032409668, -0.6072466969490051, 0.041778527200222015, 0.7428820133209229, 0.1465028077363968, 0.11016549915075302, 0.17004120349884033], [-0.04035321995615959, 0.13582243025302887, 0.12704673409461975, -0.04918275028467178, 0.11597488075494766, -0.0338360033929348, 0.020558524876832962, 0.12426649779081345, -0.010488416068255901, 0.09695456176996231, 0.09018051624298096, -0.0013313473900780082, 0.039693787693977356, -0.03366813063621521], [-0.010515493340790272, 0.029695764183998108, 0.14545787870883942, 0.018152788281440735, -0.07613524049520493, -0.07409214973449707, 0.16628970205783844, 0.12701019644737244, -0.023932017385959625, 0.10041419416666031, -0.0278675127774477, 0.0932067260146141, 0.10729382187128067, 0.09104938805103302], [-0.5760782957077026, 0.09373024851083755, -0.29092761874198914, 0.2655823230743408, 0.27360740303993225, -0.006982248276472092, -0.2425665557384491, -0.7461218237876892, -0.5174838900566101, -0.038277506828308105, 0.4971350431442261, -0.01902102306485176, 0.07500582188367844, 0.002400277880951762], [0.08115841448307037, -0.06293944269418716, 0.07791261374950409, 0.0965065062046051, 0.0719052106142044, 0.11888865381479263, 0.015404324047267437, 0.13137012720108032, 0.07043527811765671, 0.12214572727680206, -0.09752632677555084, 0.10778698325157166, 0.05319490656256676, 0.16238979995250702], [0.0571393221616745, 0.09893778711557388, 0.020005207508802414, 0.16743387281894684, 0.0171101912856102, 0.15916357934474945, 0.1093529686331749, 0.03708965331315994, 0.1642777919769287, -0.037823375314474106, -0.04163305088877678, -0.0716775506734848, 0.14286497235298157, 0.10873284190893173], [0.019055074080824852, 0.10456837713718414, -0.08132225275039673, 0.10629107058048248, 0.09862769395112991, 0.11581055074930191, 0.1214652881026268, 0.06672477722167969, 0.028142523020505905, 0.1461995393037796, 0.21783974766731262, -0.010718980804085732, 0.1254885494709015, 0.012886625714600086], [-0.08629018813371658, -0.03176642581820488, 0.05732826516032219, -0.08895901590585709, -0.06032520905137062, -0.07116512954235077, 0.05805834010243416, -0.020832907408475876, 0.06953112035989761, 0.05535495653748512, -0.009014531970024109, -0.07479079812765121, 0.04844314977526665, -0.10110914707183838], [0.13256527483463287, 0.00565475644543767, 0.1428050398826599, 0.10270554572343826, -0.0011416802881285548, -0.014071268029510975, 0.07464884966611862, 0.13655607402324677, 0.060788169503211975, -0.028512949123978615, -0.24552226066589355, 0.0661778450012207, 0.11178553104400635, 0.05100147798657417], [-0.04443393275141716, 0.14534242451190948, 0.048419296741485596, 0.05830663815140724, 0.12503327429294586, 0.16294537484645844, -0.06545078009366989, -0.06378423422574997, 0.11635695397853851, 0.09252062439918518, 0.07731394469738007, 0.13840635120868683, -0.05905019864439964, -0.07661113142967224], [0.084649957716465, -0.020664112642407417, 0.1341741979122162, 0.10527724772691727, 0.0729663148522377, -0.11701563745737076, 0.06457658112049103, -0.08287034928798676, -0.11437929421663284, 0.09900517761707306, -0.02555474452674389, 0.07801999896764755, 0.08045940101146698, -0.016902079805731773], [-0.03363756090402603, -0.041338033974170685, 0.013190285302698612, -0.055038705468177795, 0.0865030288696289, -0.03699955344200134, -0.013688935898244381, -0.05037451907992363, 0.12162643671035767, -0.05313349515199661, -0.15611688792705536, 0.009692084975540638, 0.15878376364707947, 0.09285400062799454], [0.006764329969882965, 0.09075016528367996, 0.1656763106584549, -0.03040260821580887, 0.09674105793237686, 0.09022442996501923, 0.01845785789191723, 0.028567537665367126, 0.12609238922595978, 0.009924805723130703, -0.11433695256710052, 0.08086523413658142, 0.09054718166589737, 0.03719104081392288], [-0.014802742749452591, 0.0781414806842804, -0.06159839406609535, 0.12855763733386993, -0.021944217383861542, -0.03432923182845116, 0.012068290263414383, 0.06764104217290878, -0.006900499574840069, 0.09002188593149185, -0.04316231235861778, 0.056325607001781464, 0.10727763921022415, -0.04623730108141899], [0.15461547672748566, 0.07461972534656525, 0.08581895381212234, 0.09755188226699829, 0.023202067241072655, -0.0040666391141712666, 0.14858734607696533, 0.005460526328533888, -0.021473117172718048, 0.01577077805995941, -0.083785779774189, 0.1603327840566635, 0.15139402449131012, 0.15117502212524414], [0.01989097334444523, -0.021220985800027847, 0.0736570805311203, 0.11801566183567047, -0.01798076368868351, -0.00603420939296484, -0.024496035650372505, -0.07430480420589447, 0.11972751468420029, 0.049432121217250824, -0.08037761598825455, 0.030361739918589592, 0.03760141506791115, 0.04386964812874794], [0.23738250136375427, 0.345194935798645, 0.34300103783607483, 0.07866612076759338, 0.21920032799243927, 0.11217211186885834, 0.03326626121997833, -0.3027207851409912, 0.013752834871411324, 0.13668537139892578, 0.5388146042823792, 0.25763264298439026, 0.1787373423576355, 0.1533728688955307], [0.1499405801296234, -0.11106377094984055, 0.1311471313238144, -0.07635580748319626, 0.10217856615781784, -0.019638778641819954, -0.06203119829297066, -0.039556942880153656, -0.09684799611568451, 0.10012689232826233, -0.2502404451370239, 0.06812572479248047, 0.05129435285925865, 0.11170182377099991], [-0.06518478691577911, 0.09752049297094345, 0.13269582390785217, 0.011733285151422024, -0.0065321531146764755, 0.08563841134309769, 0.1022380068898201, -0.026655955240130424, 0.031007200479507446, 0.09031037986278534, 0.022486580535769463, 0.014397326856851578, 0.12815234065055847, 0.15035751461982727], [-0.04127753898501396, 0.15579214692115784, 0.06945152580738068, 0.16012094914913177, 0.15776297450065613, -0.05650022625923157, 0.04018847271800041, 0.15717118978500366, 0.1328853815793991, -0.020602257922291756, 0.10653097927570343, -0.018438119441270828, -0.026320550590753555, 0.1525571495294571], [0.02665344998240471, -0.0495038703083992, 0.07104091346263885, -0.019261600449681282, -0.026237955316901207, -0.06275638192892075, -0.00476088747382164, 0.08093569427728653, 0.14594770967960358, 0.1418801248073578, 0.02989058941602707, 0.16165126860141754, 0.05962846055626869, 0.05193973332643509], [0.15431834757328033, -0.026290101930499077, 0.0138669079169631, 0.020580241456627846, -0.045188598334789276, 0.10013405978679657, -0.028185445815324783, -0.044130563735961914, -0.08871634304523468, 0.014354588463902473, 0.06473640352487564, 0.06164170056581497, 0.1201409325003624, 0.13605116307735443], [0.11439615488052368, -0.0007236044621095061, 0.062064167112112045, 0.10016420483589172, 0.029256390407681465, -0.08955257385969162, 0.04613582044839859, 0.016971705481410027, 0.037745531648397446, 0.003223082283511758, 0.014739098958671093, 0.11272352188825607, 0.061018504202365875, 0.09211999177932739], [0.14105476438999176, 0.05109090358018875, -0.0022154038306325674, 0.09174694865942001, 0.027232320979237556, -0.03830301761627197, 0.07798010855913162, -0.11632458120584488, 0.14780473709106445, -0.03084713965654373, 0.26248133182525635, 0.05572589114308357, -0.07168073952198029, 0.08104626089334488], [0.008493890054523945, -0.03592338040471077, 0.10449515283107758, 0.1293392777442932, -0.016392624005675316, -0.013289127498865128, -0.05842050909996033, -0.018268059939146042, 0.032309580594301224, 0.14134499430656433, -0.16115880012512207, 0.023620637133717537, -0.04660109430551529, 0.08539380878210068], [0.026928160339593887, 0.12425728887319565, -0.025206781923770905, -0.06369523704051971, -0.009400841780006886, -0.04826013371348381, 0.10908561199903488, 0.13682754337787628, 0.009181436151266098, 0.01810852624475956, -0.019785994663834572, -0.023237206041812897, 0.018365658819675446, -0.012129465118050575], [0.010521747171878815, 0.12489013373851776, 0.16933833062648773, 0.08892893046140671, 0.09888157248497009, -0.06633928418159485, 0.08047936856746674, -0.036910999566316605, 0.10963848978281021, 0.0006151295965537429, 0.13963648676872253, 0.00886762049049139, 0.14957277476787567, 0.10494028031826019], [0.03520527109503746, 0.0462762750685215, -0.015402133576571941, 0.0782700777053833, 0.1293053925037384, 0.003979441709816456, 0.0029007771518081427, 0.04272524639964104, -0.05078055337071419, 0.16411398351192474, -0.17171770334243774, 0.005783303175121546, -0.04799085855484009, 0.08037268370389938], [0.0632723793387413, 0.12450356781482697, 0.1330331712961197, 0.044735386967659, 0.0816328302025795, -0.040921758860349655, 0.0441640205681324, 0.0699227824807167, 0.05802880972623825, 0.015296349301934242, 0.2501004934310913, -0.003919605631381273, -0.034162621945142746, 0.12626153230667114], [-0.06459234654903412, -0.00018850438937079161, 0.05976611748337746, 0.08130361139774323, 0.11768807470798492, 0.14975105226039886, 0.018868401646614075, -0.05362337455153465, -0.05657584220170975, -0.07790010422468185, 0.13540928065776825, -0.0341988280415535, 0.05989778786897659, 0.17571572959423065], [0.12575261294841766, 0.022562505677342415, 0.03339127451181412, -0.03526819869875908, 0.11845315992832184, -0.054385483264923096, 0.10785660892724991, 0.010616553016006947, -0.017491750419139862, -0.01855652779340744, -0.040853481739759445, -0.0873463898897171, 0.09006160497665405, 0.012518453411757946], [0.0908217579126358, 0.14709562063217163, -0.06780780106782913, 0.027474362403154373, 0.08565989881753922, 0.01736501231789589, 0.07549166679382324, 0.10298523306846619, 0.15007437765598297, 0.003653084859251976, 0.03209344297647476, 0.004919782746583223, 0.09307575225830078, 0.15906043350696564], [0.05356861278414726, -0.054467134177684784, 0.11577830463647842, -0.046471960842609406, 0.11919009685516357, 0.04406554996967316, 0.002805020660161972, 0.04178470000624657, 0.0740981251001358, 0.11244027316570282, 0.02156430296599865, 0.054423488676548004, 0.09720756113529205, -0.07668660581111908], [-0.07779620587825775, 0.13310520350933075, 0.0026366908568888903, 0.08715878427028656, 0.12960395216941833, 0.15427249670028687, -0.05781799927353859, 0.1699882447719574, 0.12449145317077637, -0.05906267836689949, -0.04324708133935928, 0.1337725818157196, 0.018655486404895782, 0.021957052871584892], [-0.024181170389056206, -0.047091733664274216, 0.1512005627155304, 0.1088634580373764, 0.0781441256403923, 0.05988098680973053, 0.06353369355201721, 0.020639223977923393, 0.14139419794082642, 0.1417640745639801, -0.013937036506831646, 0.02233525738120079, -0.015102600678801537, -0.05346958711743355], [0.0706990584731102, 0.09673536568880081, 0.04135971516370773, -0.014268399216234684, 0.056950878351926804, 0.11407458037137985, 0.011946743354201317, 0.12645387649536133, 0.13758371770381927, 0.1431961953639984, -0.15896251797676086, 0.03188701719045639, 0.12955935299396515, -0.0022525684908032417], [-0.008372357115149498, 0.16913871467113495, 0.1468469500541687, -0.04400581866502762, 0.041040319949388504, -0.0276179239153862, -0.06822063028812408, -0.09690795093774796, -0.008632966317236423, -0.00013087420666124672, 0.04248885065317154, -0.05922729894518852, 0.10724443942308426, -0.058525290340185165], [0.0823805034160614, -0.07433851808309555, 0.13992542028427124, 0.09633321315050125, 0.16492058336734772, 0.08318327367305756, 0.15613096952438354, 0.1518680304288864, 0.13828624784946442, 0.14430029690265656, 0.06440037488937378, 0.11628592014312744, 0.13308826088905334, 0.10336194187402725], [0.08480928838253021, 0.10267194360494614, 0.13973620533943176, -0.06995056569576263, 0.15290801227092743, -0.021472426131367683, 0.02043616957962513, 0.040504179894924164, 0.11116385459899902, 0.037781186401844025, 0.34563857316970825, 0.03763413056731224, -0.01728897914290428, -0.08218132704496384], [-0.0535266175866127, 0.022133134305477142, -0.06323949992656708, -0.05792251229286194, 0.07898452132940292, 0.03384913131594658, 0.05566302314400673, 0.14290563762187958, 0.03865031898021698, -0.06459374725818634, -0.1963307410478592, 0.06691954284906387, -0.012309575453400612, 0.10651712119579315], [-0.025756092742085457, 0.1185455247759819, -0.08076483756303787, 0.16755028069019318, -0.061640817672014236, 0.10864244401454926, 0.08836749196052551, 0.06470085680484772, -0.03788025304675102, -0.03345011919736862, -0.10015100985765457, 0.0017601229483261704, -0.07744890451431274, -0.04785734415054321], [0.09873013943433762, 0.053756292909383774, 0.0034897755831480026, 0.08144177496433258, 0.12325673550367355, 0.04850614815950394, 0.16132676601409912, 0.07244851440191269, 0.037331271916627884, 0.031916312873363495, -0.1664043664932251, 0.13679111003875732, 0.12028361111879349, -0.04952382296323776], [-0.030351782217621803, -0.059246696531772614, 0.13010548055171967, 0.007976118475198746, -0.03793803229928017, 0.14462237060070038, 0.02874281257390976, 0.019663821905851364, -0.06416121870279312, 0.1178712546825409, 0.010129957459867, 0.03979794681072235, -0.03871478885412216, 0.013497925363481045], [0.13755182921886444, 0.08155493438243866, -0.06830324232578278, 0.008581333793699741, 0.06009049341082573, 0.1330500990152359, 0.02075904794037342, -0.02163052186369896, 0.13233582675457, -0.046920597553253174, 0.02813594788312912, -0.07865576446056366, 0.12404409050941467, 0.10637106001377106], [0.0029486941639333963, 0.021924279630184174, 0.05425610393285751, 0.14309006929397583, 0.10727915167808533, 0.03447100147604942, -0.0242005567997694, 0.011554262600839138, 0.03767990320920944, -0.04443086311221123, -0.19842715561389923, 0.14266331493854523, 0.032991692423820496, 0.1470945179462433], [-0.026626989245414734, 0.14978960156440735, 0.14795365929603577, -0.08344737440347672, 0.06701215356588364, 0.04708729311823845, -0.08947907388210297, -0.0019256266532465816, 0.08437606692314148, -0.015345959924161434, -0.005530902650207281, -0.03790124133229256, 0.10411509871482849, 0.11762845516204834], [0.10290258377790451, -0.034104593098163605, 0.07116629928350449, 0.09868254512548447, 0.10215609520673752, -0.0320093147456646, -0.05049819126725197, -0.04436170682311058, 0.005932272877544165, -0.013131961226463318, 0.13370537757873535, -0.10179223120212555, -0.0007618250674568117, -0.09918916970491409], [0.1234210953116417, 0.06505095958709717, 0.12294960767030716, -0.002492346800863743, -0.08367429673671722, 0.006481737829744816, -0.0022941443603485823, 0.11628971993923187, 0.09646449238061905, -0.03147196024656296, -0.03353330120444298, 0.03848908096551895, 0.13379986584186554, 0.11395870894193649], [-0.014859544113278389, 0.03404036536812782, -0.08022970706224442, 0.0711236447095871, -0.029535116627812386, -0.05408753827214241, 0.01306983269751072, -0.016516176983714104, 0.05706991255283356, 0.09349064528942108, -0.2901623249053955, 0.010819611139595509, 0.08817924559116364, -0.005223116837441921], [-0.032305583357810974, 0.09988506138324738, -0.07845056056976318, -0.03765616938471794, 0.07207229733467102, 0.00233094091527164, 0.09024784713983536, -0.021854419261217117, 0.15924540162086487, 0.06876470148563385, 0.08110444247722626, -0.050845976918935776, -0.061893753707408905, -0.05325675383210182], [-0.06527694314718246, -0.051923345774412155, 0.1510324478149414, 0.07806776463985443, -0.07800571620464325, 0.010040906257927418, -0.027362225577235222, 0.002721539232879877, 0.05050959065556526, -0.05708802491426468, -0.09855081140995026, 0.10927233844995499, 0.07061426341533661, 0.08138810098171234], [-0.06853237003087997, 0.1457914561033249, 0.07379156351089478, -0.0435672365128994, 0.002299959771335125, -0.049775101244449615, 0.09619369357824326, -0.04069056361913681, -0.015356756746768951, -0.08605927973985672, 0.25504621863365173, -0.08999232947826385, 0.1393822580575943, 0.06509727239608765], [0.04429163411259651, 0.10165241360664368, 0.02903609909117222, -0.044990409165620804, -0.03649524226784706, -0.06977032870054245, 0.07069704681634903, -0.08143328875303268, 0.04995989426970482, 0.06552023440599442, 0.26299628615379333, 0.036162368953228, 0.15050707757472992, -0.018395958468317986], [0.10462792217731476, -0.05424967780709267, 0.12458714097738266, 0.06931078433990479, -0.014599346555769444, -0.04073518142104149, -0.0051784333772957325, 0.06456024944782257, 0.1008390560746193, -0.07100078463554382, -0.14017322659492493, 0.12007604539394379, 0.05203904211521149, -0.04367276653647423], [0.08549707382917404, -0.018712999299168587, 0.1199859231710434, -0.02873656526207924, 0.03982996568083763, -0.004980350378900766, 0.0790000930428505, 0.043607983738183975, 0.1114945113658905, 0.0827082097530365, 0.07317809760570526, 0.008004670031368732, -0.04589163511991501, -0.006453150417655706], [0.12920768558979034, 0.16613446176052094, 0.015425180085003376, -0.04813582822680473, 0.08305582404136658, -0.0005689258105121553, 0.007868807762861252, -0.0402233824133873, 0.13382165133953094, 0.028391927480697632, -0.10445725917816162, 0.1280176192522049, -0.024777276441454887, -0.025914054363965988], [0.008996252901852131, 0.11168389022350311, -0.02198283188045025, 0.04245429113507271, 0.12172107398509979, 0.08194541931152344, -0.004489195067435503, 0.00014775857562199235, -0.006790883373469114, -0.08283499628305435, -0.0816955715417862, 0.027123039588332176, 0.14590202271938324, -0.005851943977177143], [0.16424667835235596, -0.020915808156132698, 0.010986905544996262, -0.02756086364388466, 0.02413921430706978, 0.08150596916675568, 0.03949315845966339, 0.16768065094947815, 0.13361391425132751, 0.054545070976018906, 0.006464389152824879, -0.0028450647369027138, -0.04680420085787773, -0.03366147726774216], [0.05490076169371605, 0.16962948441505432, 0.17466318607330322, -0.021572764962911606, 0.01785167120397091, -0.07314176112413406, 0.08660228550434113, -0.39690908789634705, -0.06979237496852875, 0.07742593437433243, 0.4031299948692322, 0.05803303048014641, -0.010071600787341595, 0.006273855920881033], [-0.02542550303041935, -0.12205376476049423, -0.05531464144587517, 0.1739102303981781, 0.00045291183050721884, 0.07633063942193985, -0.019611813127994537, -0.015635959804058075, 0.11827917397022247, 0.024027979001402855, -0.24922193586826324, 0.06231606751680374, 0.13923034071922302, -0.07693986594676971], [0.13110272586345673, 0.12319688498973846, 0.008433451876044273, -0.04650946706533432, 0.01873933896422386, -0.061711136251688004, -0.011833107098937035, 0.10238825529813766, 0.13711068034172058, -0.05569982901215553, -0.09073463082313538, 0.06365573406219482, -0.02592436596751213, 0.08627108484506607], [0.06800912320613861, 0.11124560981988907, 0.1339726597070694, 0.1479400247335434, 0.1151750236749649, 0.007430726662278175, -0.009946080856025219, 0.10404018312692642, -0.05065597966313362, 0.09070038795471191, -0.057164400815963745, 0.03057103417813778, -0.09683442115783691, 0.10758084058761597], [0.03694393113255501, 0.12601521611213684, -0.07521514594554901, 0.047789011150598526, -0.05546651780605316, -0.00987543910741806, 0.042578499764204025, 0.016079867258667946, 0.12961983680725098, -0.015319486148655415, -0.07121439278125763, 0.05934369936585426, -0.05158237740397453, 0.08832317590713501], [-0.04165343940258026, -0.03313784301280975, 0.05352236330509186, 0.06806667894124985, -0.004421253688633442, 0.02681802771985531, 0.033590223640203476, 0.13103079795837402, -0.01883978769183159, -0.01590069942176342, -0.0010887744138017297, 0.12873204052448273, 0.056794196367263794, -0.015070565044879913], [-0.6144982576370239, 0.07913314551115036, -0.3301768898963928, 0.34895095229148865, 0.25978705286979675, -0.1910976618528366, -0.06788526475429535, -1.0428426265716553, -0.5749959945678711, 0.024201344698667526, 0.6300033926963806, 0.041055772453546524, 0.08844286948442459, 0.15316557884216309], [-0.0453336127102375, 0.032936468720436096, 0.07569266855716705, 0.008707193657755852, 0.029481012374162674, 0.014613880775868893, 0.16218213737010956, -0.06755242496728897, 0.049921538680791855, 0.06917856633663177, 0.13202489912509918, 0.07244594395160675, 0.1017688661813736, 0.05277860164642334], [-0.028148500248789787, 0.0619422011077404, 0.16873721778392792, 0.001845290418714285, -0.04303308576345444, -0.04159175604581833, 0.049191515892744064, -0.0500231496989727, 0.04291384294629097, 0.02574777603149414, 0.024437298998236656, 0.04607608541846275, 0.14093290269374847, 0.07427366077899933], [-0.6033535599708557, 0.041277192533016205, -0.3988967835903168, 0.19661182165145874, 0.1561848372220993, -0.19115781784057617, -0.0996885746717453, -1.008017659187317, -0.4616120159626007, -0.045008089393377304, 0.5578212141990662, 0.06470905989408493, 0.033886928111314774, 0.19875706732273102], [0.12164747714996338, 0.09542559832334518, 0.05214504152536392, -0.010634886100888252, 0.07835382223129272, 0.025334268808364868, 0.15301138162612915, 0.013534890487790108, -0.024550026282668114, 0.07731430232524872, 0.15084883570671082, -0.06284301728010178, 0.12168944627046585, 0.06593143939971924], [0.11103420704603195, 0.010407858528196812, 0.07311922311782837, 0.017745334655046463, 0.0928395688533783, -0.039338476955890656, -0.050353385508060455, 0.005384920164942741, -0.04596637561917305, 0.12619665265083313, 0.09208904206752777, -0.0741639956831932, 0.0202555563300848, 0.10361891984939575], [-0.006974741350859404, 0.06509023904800415, 0.12091884762048721, -0.05806325748562813, 0.05514504015445709, 0.06403233855962753, -0.042850445955991745, -0.052164193242788315, 0.05720338597893715, -0.03326265141367912, 0.16945907473564148, 0.09332703053951263, 0.12019950896501541, 0.01422480121254921], [0.09222354739904404, -0.04598620533943176, 0.128750279545784, -0.018917692825198174, 0.10734156519174576, -0.07573022693395615, -0.04951082542538643, 0.05206964910030365, -0.03833518922328949, 0.03236410394310951, -0.047083571553230286, 0.10124436765909195, 0.069328673183918, 0.13366347551345825], [-0.0791044756770134, -0.016386643052101135, 0.04294491186738014, 0.1133299320936203, -0.05122264847159386, 0.01793331280350685, -0.029384393244981766, 0.02347838319838047, 0.05934556573629379, -0.05701461061835289, 0.020285388454794884, -0.03879665955901146, 0.1444888859987259, 0.06437245011329651], [-0.03712063655257225, -0.019679654389619827, 0.09070507436990738, 0.006715406663715839, -0.07946072518825531, -0.05675001069903374, 0.0312367994338274, -0.018403805792331696, 0.08909285813570023, -0.0579998753964901, -0.02063724771142006, 0.12869304418563843, 0.1223771795630455, 0.023068489506840706], [0.0670563131570816, -0.10471976548433304, -0.02471819333732128, -0.05304371938109398, -0.088039830327034, 0.13263827562332153, 0.09692763537168503, -0.015486007556319237, 0.048556167632341385, -0.08473889529705048, 0.04731226712465286, 0.04780309274792671, 0.11005552858114243, -0.08734937757253647], [0.035941869020462036, 0.07429433614015579, 0.01363856066018343, 0.16550493240356445, 0.10148834437131882, 0.12371896952390671, 0.06485769897699356, 0.14072681963443756, 0.03426695242524147, 0.15603198111057281, 0.10195028781890869, 0.006295700091868639, -0.056067854166030884, 0.05718448758125305], [0.08972726762294769, 0.1669611632823944, 0.01631765626370907, -0.03138895332813263, 0.002529742429032922, -0.029201682657003403, -0.008342618122696877, -0.017747625708580017, 0.07607309520244598, 0.10690733790397644, 0.006794924382120371, -0.037432145327329636, -0.033768199384212494, 0.08624149113893509], [-0.021643541753292084, 0.10641342401504517, -0.06366885453462601, 0.10907178372144699, 0.08730407059192657, -0.06632895767688751, 0.04779798910021782, 0.09538546204566956, 0.06470178812742233, 0.031212598085403442, -0.04309779405593872, -0.0028855258133262396, 0.16297383606433868, 0.1050122082233429], [0.14783106744289398, -0.03371243551373482, -0.037381257861852646, 0.042546097189188004, -0.012366268783807755, 0.04433772712945938, 0.09589434415102005, -0.0015190972480922937, 0.13337646424770355, 0.07369843870401382, 0.07364783436059952, 0.015866080299019814, 0.0696324035525322, 0.011267662048339844], [0.104563407599926, 0.08957397937774658, 0.1283348798751831, -0.012009979225695133, -0.04571686312556267, 0.12405266612768173, -0.028349120169878006, -0.07771164923906326, 0.02709052339196205, -0.046948861330747604, 0.07572297006845474, -0.025239910930395126, 0.03015289641916752, 0.036160651594400406], [0.07816465944051743, 0.24474625289440155, 0.2136024385690689, 0.34713995456695557, 0.14297007024288177, 0.19599293172359467, 0.07201671600341797, 0.08908860385417938, 0.028130177408456802, 0.02835739217698574, 0.3643382787704468, 0.33577898144721985, 0.06835312396287918, 0.13513252139091492], [0.017960162833333015, 0.09768059849739075, 0.008701042272150517, -0.024652251973748207, 0.017441242933273315, -0.006847301032394171, -0.04984063282608986, 0.006077256053686142, 0.05136681720614433, -0.006792981643229723, 0.06329834461212158, 0.08791548758745193, 0.09314820915460587, 0.10466381907463074], [-0.029743673279881477, -0.03617148473858833, 0.10281265527009964, -0.022151870653033257, 0.15780997276306152, 0.15624001622200012, 0.16879373788833618, 0.01792180724442005, 0.10763825476169586, -0.0320596769452095, 0.048443980515003204, -0.04361950606107712, -0.010466095060110092, 0.0748189240694046], [0.09887400269508362, 0.11650250852108002, -0.0341036431491375, 0.009849229827523232, 0.04470875859260559, -0.03369869291782379, 0.11566809564828873, -0.053798917680978775, -0.013148900121450424, 0.08153800666332245, 0.07462995499372482, 0.1654963344335556, 0.033032070845365524, -0.04490013048052788], [-0.0770098939538002, -0.07438301295042038, 0.010329065844416618, 0.04408171400427818, 0.12191691994667053, 0.042863260954618454, 0.012096443213522434, -0.021650556474924088, -0.023725751787424088, -0.016542168334126472, 0.12146925181150436, 0.1483042985200882, -0.06334852427244186, -0.022009393200278282], [0.024578314274549484, 0.010383585467934608, 0.16187845170497894, 0.11769787222146988, 0.1594688892364502, -0.06573662161827087, 0.014026399701833725, 0.09515771269798279, -0.0706057995557785, 0.057047855108976364, 0.07010510563850403, 0.030195385217666626, 0.1503346562385559, 0.06226417049765587], [-0.061775848269462585, 0.12186706811189651, -0.06236669421195984, 0.12934452295303345, 0.09284808486700058, -0.04377731680870056, 0.03828137367963791, 0.0894375890493393, 0.005718270316720009, 0.06345323473215103, 0.11186476796865463, -0.030436726287007332, 0.10883843153715134, -0.004500716459006071], [-0.0452604666352272, -0.07141131907701492, 0.07984687387943268, 0.14700737595558167, 0.0868506208062172, 0.060554999858140945, 0.11012128740549088, -0.005157354287803173, 0.04889683425426483, -0.0379481241106987, -0.02207854762673378, 0.08949699252843857, -0.014283375814557076, -0.027560126036405563], [0.06634821742773056, -0.050798118114471436, -0.013473733328282833, -0.026742959395051003, 0.03406771272420883, 0.12454075366258621, 0.05016006529331207, 0.13262149691581726, 0.13254788517951965, 0.15401339530944824, 0.05680421367287636, 0.06372253596782684, -0.016940005123615265, 0.06432089954614639], [0.040039826184511185, 0.06953099370002747, 0.13655635714530945, -0.058615703135728836, -0.06695479154586792, -0.003058076137676835, -0.017926709726452827, 0.032470885664224625, -0.06658446043729782, -0.046886999160051346, -0.08442439138889313, 0.008068828843533993, -0.02233661524951458, 0.04516572505235672], [0.15664003789424896, 0.004116487223654985, 0.16419671475887299, 0.1255316287279129, 0.0797157734632492, 0.08429757505655289, 0.10614893585443497, 0.06453925371170044, -0.052964381873607635, 0.11577636003494263, 0.06664200127124786, -0.06561625748872757, 0.02345115877687931, 0.027500053867697716], [0.025366466492414474, -0.0746399313211441, -0.05809474736452103, -0.04376733675599098, -0.05750981345772743, 0.0133049376308918, -0.016778435558080673, 0.0017613782547414303, -0.06477924436330795, -0.0749923512339592, 0.08841380476951599, 0.08468008786439896, 0.09384320676326752, 0.2323988378047943], [-0.038453955203294754, 0.16883499920368195, -0.002754942746832967, -0.01551769394427538, -0.04371945932507515, 0.07729339599609375, -0.03608651086688042, -0.06286444514989853, 0.0663006454706192, 0.09528148919343948, -0.014516360126435757, 0.06018542870879173, 0.08178635686635971, -0.0012124789645895362], [0.1606941670179367, 0.06527084112167358, 0.1576186567544937, 0.061891820281744, 0.03820635750889778, 0.1336086541414261, 0.06375307589769363, -0.054261431097984314, 0.14713986217975616, 0.11794561892747879, 0.09151609241962433, 0.10222179442644119, 0.10685768723487854, 0.03586215525865555], [0.1007172092795372, 0.04634252190589905, 0.14184074103832245, 0.05509619414806366, 0.06987477838993073, 0.07165484130382538, -0.0247125755995512, 0.06709873676300049, 0.023567333817481995, 0.11944596469402313, -0.09672319889068604, 0.14514079689979553, -0.0658559575676918, 0.1602698713541031], [0.06605842709541321, -0.04518511891365051, -0.07220497727394104, -0.03262434899806976, -0.012533709406852722, 0.0340677946805954, 0.011955269612371922, 0.028176357969641685, 0.12606091797351837, -0.002782199764624238, 0.09935256838798523, -0.06817664206027985, 0.15365156531333923, 0.07351928949356079], [-0.06395132839679718, 0.10425091534852982, 0.08114778250455856, -0.08072460442781448, 0.03256431594491005, 0.025651203468441963, 0.012050974182784557, 0.04697259142994881, -0.014600945636630058, 0.06023743003606796, 0.09297774732112885, -0.05643538758158684, 0.018947238102555275, 0.00988328829407692], [-0.021404242143034935, 0.0976048931479454, 0.017824867740273476, 0.07104029506444931, -0.07266552746295929, 0.11241401731967926, 0.08709868043661118, 0.08928075432777405, 0.15572582185268402, -0.007570758927613497, -0.08733575791120529, -0.0016196193173527718, 0.008956962265074253, 0.11932576447725296], [0.003339417278766632, 0.1508609652519226, 0.07857123017311096, -0.018685299903154373, -0.04637250304222107, 0.02362527884542942, 0.005623250268399715, 0.10728030651807785, 0.08391329646110535, 0.06559116393327713, -0.01486121490597725, 0.09614977985620499, 0.015234967693686485, 0.10698216408491135], [0.08812467008829117, 0.1372976452112198, -0.0128595270216465, -0.0650530532002449, 0.112555593252182, 0.12313766032457352, 0.020445555448532104, 0.11054953187704086, 0.026958467438817024, -0.007848374545574188, 0.07071725279092789, -0.057769425213336945, 0.12606990337371826, 0.07270912826061249], [0.05823720619082451, -0.004681878723204136, -0.03205272555351257, 0.027462026104331017, -0.0018236825708299875, 0.016877995803952217, 0.09438427537679672, -0.024552563205361366, -0.09298370778560638, 0.04519645497202873, 0.12010937184095383, -0.033428240567445755, 0.04821829870343208, -0.10952343791723251], [-0.050490494817495346, 0.06247922033071518, 0.12188100814819336, 0.07546982169151306, -0.06576073914766312, 0.10440190136432648, 0.16796435415744781, -0.054428886622190475, -0.018024997785687447, 0.006012153346091509, 0.027713920921087265, 0.16873210668563843, 0.11203804612159729, -0.00014570147322956473], [0.0639025941491127, 0.1469520926475525, 0.04089432209730148, 0.04548528417944908, 0.04653364419937134, -0.03195624798536301, 0.09743034094572067, 0.07432284206151962, -0.07441563159227371, 0.02309981919825077, 0.0024393373169004917, -0.023589083924889565, 0.0628931000828743, -0.125336155295372], [-0.020446520298719406, 0.12227784842252731, -0.0006351020419970155, 0.049037594348192215, 0.03803311660885811, 0.09603570401668549, 0.15890580415725708, 0.04077747464179993, 0.05429677292704582, 0.12456967681646347, 0.0049330247566103935, 0.18500395119190216, 0.15481984615325928, 0.10092940181493759], [0.08322524279356003, -0.05519084632396698, -0.0829886794090271, 0.12946370244026184, 0.15886323153972626, -0.031174365431070328, 0.12179270386695862, 0.11126581579446793, -0.06466162204742432, -0.0580972321331501, 0.08955155313014984, 0.08774640411138535, 0.07177915424108505, 0.07143435627222061], [0.15188716351985931, -0.06849779933691025, 0.1402476578950882, 0.17026133835315704, 0.03387865424156189, -0.02176894061267376, 0.07980441302061081, 0.15765321254730225, 0.13359296321868896, 0.021235177293419838, 0.04723821580410004, 0.09014686197042465, 0.027084099128842354, 0.11997540295124054], [0.050713811069726944, 0.041190408170223236, 0.1310216188430786, 0.0324653722345829, -0.002767597557976842, 0.12128502875566483, 0.04541301354765892, 0.014219938777387142, -0.05952076241374016, -0.014655953273177147, 0.019473979249596596, 0.020617466419935226, 0.048708703368902206, 0.05333203449845314], [0.14207401871681213, -0.0005663001793436706, -0.05404045432806015, 0.0836469978094101, -0.033225417137145996, 0.08000317960977554, 0.07136957347393036, 0.05706410109996796, -0.004298883490264416, 0.052920080721378326, 0.0412287712097168, 0.05742001533508301, 0.06368798017501831, -0.051018211990594864], [0.06958382576704025, -0.0635826587677002, 0.07156006991863251, 0.0022123311646282673, 0.040473345667123795, -0.051538653671741486, 0.13727736473083496, 0.16615860164165497, 0.1531831920146942, -0.01614326424896717, -0.025332966819405556, 0.05513696372509003, 0.039756063371896744, 0.11002597957849503], [-0.07937800139188766, -0.010986092500388622, 0.14430594444274902, 0.02482101507484913, 0.00874198880046606, -0.062405943870544434, 0.12675096094608307, 0.08683370053768158, 0.04421580955386162, -0.06541403383016586, 0.10273303091526031, 0.04858017340302467, 0.12265685945749283, 0.022603711113333702], [0.15130938589572906, 0.013287922367453575, -0.039149921387434006, 0.010770248249173164, -0.006878159008920193, -0.08600018918514252, -0.034143202006816864, 0.07211900502443314, 0.1348501741886139, -0.07076046615839005, 0.12246724218130112, -0.05942007526755333, 0.015853045508265495, 0.0030909059569239616], [0.03846306353807449, 0.16357259452342987, -0.05570263788104057, -0.05834023654460907, -0.0350324921309948, 0.04646481201052666, 0.12568235397338867, 0.06313133984804153, 0.05442393943667412, 0.11233556270599365, -0.07501969486474991, 0.04618711397051811, -0.0026073302142322063, 0.07086657732725143], [-0.010286720469594002, -0.0249186921864748, 0.1402359902858734, -0.021451041102409363, -0.02626396343111992, 0.014654424041509628, -0.012564152479171753, 0.13704603910446167, 0.060070186853408813, 0.08280985057353973, 0.004540060646831989, 0.0957646295428276, 0.14051584899425507, -0.009196440689265728], [-0.06484560668468475, 0.025940878316760063, -0.05106882005929947, 0.08030916750431061, 0.0055009606294333935, 0.014275692403316498, 0.11029774695634842, -0.018501365557312965, 0.060202475637197495, 0.005464877933263779, 0.01531628705561161, -0.038521215319633484, 0.11498618125915527, -0.05994749814271927], [-0.007766383234411478, -0.06029987707734108, -0.06367483735084534, -0.012380951084196568, 0.022349506616592407, 0.12081453949213028, 0.011638598516583443, 0.048123568296432495, 0.024230754002928734, -0.08272317051887512, 0.12367887049913406, -0.05956505239009857, 0.07098302245140076, -0.02880270592868328], [0.12649115920066833, -0.06757546216249466, 0.013344491831958294, 0.06375821679830551, -0.03259924054145813, 0.03510623797774315, 0.04438331350684166, -0.062041640281677246, 0.05615713819861412, -0.05585160478949547, 0.1825665682554245, 0.009013906121253967, -0.05337957665324211, -0.04030853137373924], [0.10269218683242798, -0.02375355362892151, 0.09747869521379471, -0.05504216253757477, 0.0040462687611579895, 0.13662207126617432, 0.027488645166158676, -0.18422146141529083, 0.07634756714105606, 0.05114958435297012, 0.20218999683856964, 0.10231963545084, 0.0903380960226059, -0.05985279753804207], [0.11204420030117035, 0.08207216113805771, 0.09351091831922531, 0.10814844816923141, 0.07951448857784271, 0.06185583770275116, 0.11868487298488617, 0.153023362159729, -0.07775547355413437, -0.06332474201917648, 0.04936729371547699, 0.04478001222014427, 0.05108993127942085, 0.11873473972082138], [0.004518676549196243, -0.036718014627695084, 0.1321915239095688, 0.11398126929998398, 0.05458434671163559, -0.04621443152427673, 0.05268358811736107, 0.05546344071626663, 0.14004328846931458, -0.06875506043434143, 0.13339558243751526, -0.09538597613573074, 0.11701691150665283, -0.05644400790333748], [0.062165241688489914, -0.07621519267559052, -0.03813362494111061, -0.017068373039364815, 0.006616347935050726, -0.005798927042633295, -0.022714190185070038, -0.043561726808547974, 0.09506399929523468, 0.09964309632778168, 0.011661769822239876, -0.027242159470915794, 0.020501546561717987, 0.05247984826564789], [-0.053812552243471146, 0.014677388593554497, -0.049263712018728256, 0.13299380242824554, 0.043291911482810974, -0.06222737208008766, -0.08382993936538696, 0.14253520965576172, 0.06882642954587936, -0.058142151683568954, -0.016744427382946014, -0.003154740436002612, 0.04893933981657028, 0.05047779902815819], [0.10117781907320023, 0.13261832296848297, 0.15450112521648407, 0.1700858771800995, 0.14452385902404785, 0.10474824160337448, 0.08443381637334824, -0.008594915270805359, 0.06820084154605865, 0.07007583975791931, -0.015437006950378418, -0.06830404698848724, -0.06563064455986023, 0.054984454065561295], [0.05300398916006088, 0.05800187215209007, 0.08144959807395935, -0.10450540482997894, 0.11033053696155548, -0.11861595511436462, -0.03278006985783577, -0.1867559254169464, -0.11643651127815247, 0.04581841826438904, 0.1541946679353714, -0.01117172371596098, 0.048574212938547134, -0.08912345767021179], [0.09677168726921082, -0.014662127010524273, 0.05264126881957054, -0.018074601888656616, 0.07830356061458588, -0.028208374977111816, 0.12862816452980042, 0.026584940031170845, -0.08681818097829819, -0.002208548365160823, -0.14146484434604645, 0.15772326290607452, 0.06603419035673141, 0.050674326717853546], [0.05768537521362305, -0.053357671946287155, 0.08462361991405487, 0.14424534142017365, 0.15275231003761292, -0.03208582103252411, 0.14010444283485413, 0.16187219321727753, -0.08525432646274567, 0.04511898756027222, 0.07331158220767975, 0.02914150431752205, -0.025692632421851158, 0.017450494691729546], [0.08617905527353287, 0.020290346816182137, 0.04754878208041191, 0.1521672159433365, -0.012591898441314697, 0.05205768719315529, -0.004462617449462414, 0.020681366324424744, 0.15018509328365326, 0.018611248582601547, 0.07772274315357208, -0.0564119890332222, 0.14180825650691986, 0.1712457835674286], [0.038047388195991516, 0.09023647010326385, -0.05325968563556671, 0.047771114856004715, -0.08999046683311462, -0.059965651482343674, 0.05327442288398743, 0.012558337301015854, 0.10809051990509033, 0.05854608491063118, 0.12368728965520859, -0.04171665385365486, 0.019784072414040565, -0.06706119328737259], [-0.14679329097270966, -0.1353023648262024, -0.05541006848216057, -0.057756345719099045, 0.01570969633758068, -0.1257036328315735, -0.020368825644254684, 0.0044155423529446125, -0.10041237622499466, -0.07500018179416656, 0.10604991018772125, -0.025707172229886055, -0.1454220414161682, -0.017688902094960213], [0.12203728407621384, 0.3111065924167633, 0.07679858058691025, -0.02174772508442402, 0.08801048994064331, 0.03632863238453865, 0.24746137857437134, -0.2417619526386261, 0.059056490659713745, 0.19032731652259827, 0.4698382318019867, 0.06792375445365906, 0.2067912369966507, 0.3273184597492218], [-0.11478818207979202, -0.08843006938695908, -0.11005308479070663, -0.011490195989608765, -0.08666697889566422, -0.05332567170262337, -0.09553739428520203, -0.005170720163732767, 0.01894538663327694, -0.05835527181625366, 0.00011111600178992376, 0.026897557079792023, 0.02930627018213272, -0.017399879172444344], [-0.1037757396697998, -0.16561245918273926, -0.03556004539132118, -0.03769952431321144, -0.05953728035092354, -0.029710164293646812, 0.04288996756076813, 0.07139648497104645, 0.04318978264927864, -0.009528863243758678, -0.13273409008979797, -0.018528565764427185, -0.019320601597428322, -0.06222944334149361], [-0.011850734241306782, 0.16251201927661896, 0.2782927453517914, -0.06918304413557053, 0.07032915204763412, 0.047999948263168335, 0.0060071684420108795, -0.21650330722332, 0.10972999036312103, -0.04460415989160538, 0.5386202335357666, 0.05683278292417526, 0.21441444754600525, 0.09603899717330933], [0.1184399351477623, 0.09691520780324936, 0.0960666611790657, 0.04935279116034508, 0.14508818089962006, 0.15013428032398224, 0.08309859037399292, 0.10130608081817627, 0.12344169616699219, 0.012349103577435017, 0.03205173462629318, 0.16660866141319275, 0.09005819261074066, -0.07718408852815628], [-0.1613873541355133, 0.061146240681409836, 0.08178139477968216, -0.09611744433641434, -0.08820363879203796, -0.03230659291148186, -0.04146043211221695, -0.04221634939312935, -0.05801840126514435, 0.00021907052723690867, 0.1205829456448555, -0.10628664493560791, -0.08337625116109848, -0.14469191431999207], [-0.030857060104608536, -0.014897775836288929, 0.025673093274235725, -0.004017743282020092, -0.002022603526711464, -0.059800129383802414, 0.055421870201826096, 0.018826423212885857, -0.04088933393359184, -0.08138716220855713, -0.1365852653980255, -0.14191366732120514, 0.015472200699150562, -0.17843124270439148], [-0.08951356261968613, 0.04102587327361107, 0.09745027124881744, -0.06825114041566849, -0.07098554074764252, -0.024501921609044075, -0.13413192331790924, -0.11215951293706894, 0.06400467455387115, 0.0679517611861229, -0.007950941100716591, -0.061173923313617706, -0.045081060379743576, -0.035700514912605286], [0.012706388719379902, -0.015773840248584747, 0.036035943776369095, -0.08955185860395432, 0.018113212659955025, -0.11675320565700531, -0.07199349999427795, -0.14037194848060608, -0.030841678380966187, -0.027151355519890785, 0.04091425612568855, -0.15206561982631683, -0.1421937197446823, -0.13115626573562622], [0.049602024257183075, 0.06260019540786743, 0.026586707681417465, 0.08684998005628586, -0.0478346161544323, 0.11829029768705368, 0.12283458560705185, 0.16980460286140442, -0.012577051296830177, 0.1154978796839714, -0.006628456525504589, -0.006365473382174969, 0.01019276212900877, 0.05842961370944977], [-0.06791605800390244, -0.08294741809368134, -0.007028098218142986, -0.1111110970377922, 0.06039883941411972, 0.004724767059087753, -0.09446264803409576, 0.05703239142894745, -0.07469724863767624, 0.06816016137599945, 0.1330810785293579, -0.07489665597677231, 0.03566983342170715, -0.08300550282001495], [-0.12883181869983673, -0.056166693568229675, -0.05490274727344513, -0.06326904147863388, -0.09299086034297943, -0.03370322659611702, -0.01000513881444931, -0.16626949608325958, -0.012660817243158817, -0.166045144200325, -0.05882282927632332, -0.1429138481616974, 0.01477267500013113, -0.0851312130689621], [-0.0569913387298584, -0.12135085463523865, -0.021856965497136116, 0.03740115836262703, -0.009362541139125824, 0.06918690353631973, 0.060821209102869034, -0.08057278394699097, 0.017092827707529068, -0.16515296697616577, 0.04876210540533066, -0.12042075395584106, -0.1627286672592163, 0.0015255314065143466], [0.11240204423666, 0.06705330312252045, -0.05961606279015541, -0.06688264012336731, -0.06195245310664177, -0.01593145728111267, 0.07221405953168869, 0.10573451220989227, 0.004520310554653406, 0.07614549249410629, -0.028201883658766747, -0.06122511997818947, 0.15698455274105072, 0.1521805077791214], [-0.08376181125640869, -0.14561182260513306, -0.12009909003973007, -0.11865966767072678, 0.062073491513729095, 0.0004308067145757377, -0.07087406516075134, -0.12814830243587494, 0.08153606951236725, -0.12771113216876984, -0.06419086456298828, -0.06321710348129272, -0.06248568370938301, -0.01869606040418148], [0.03690988942980766, -0.1372806578874588, -0.028113383799791336, 0.054493293166160583, -0.018359092995524406, -0.01964072324335575, 0.011035771109163761, 0.01001875288784504, -0.027783988043665886, -0.05135959014296532, -0.13295204937458038, -0.016312018036842346, -0.1005018949508667, 0.022041862830519676], [0.03212182968854904, 0.29551419615745544, 0.07184045016765594, -0.1563878357410431, -0.09079644829034805, -0.1658853441476822, 0.08599899709224701, -0.35600191354751587, -0.07012786716222763, 0.023310046643018723, 0.4349178969860077, -0.2440142035484314, 0.15701524913311005, 0.20130617916584015], [-0.09371914714574814, -0.08118975162506104, -0.043729767203330994, -0.07315919548273087, -0.10418450832366943, -0.12589477002620697, -0.13127601146697998, -0.08136343210935593, 0.07495693862438202, -0.14658616483211517, 0.15102753043174744, -0.10255777090787888, 0.0806279182434082, -0.06865457445383072], [-0.16097335517406464, -0.061129067093133926, -0.06588622182607651, -0.10575880110263824, -0.0675978884100914, -0.04192998260259628, -0.03570244833827019, -0.10857008397579193, -0.0937914252281189, -0.1344279646873474, -0.10631270706653595, -0.07039377838373184, -0.09471002221107483, -0.11392057687044144], [-0.13070997595787048, -0.05404159426689148, 0.035594820976257324, -0.06239037960767746, -0.17283453047275543, -0.1725635677576065, -0.14466466009616852, 0.046368084847927094, 0.05780420079827309, -0.0845273807644844, -0.15199659764766693, 0.002980403834953904, -0.11739957332611084, 0.03147946298122406], [0.013735270127654076, 0.15172763168811798, -0.057939574122428894, 0.021731548011302948, -0.03175439313054085, 0.05813366547226906, 0.051157210022211075, 0.14199067652225494, 0.04615425318479538, 0.016432270407676697, -0.14537174999713898, -0.050850123167037964, 0.15130433440208435, 0.03721168637275696], [0.11850643903017044, 0.08141814917325974, -0.03750170022249222, -0.04362315684556961, 0.035376567393541336, 0.11555923521518707, 0.08823262155056, 0.08432993292808533, 0.1107400506734848, -0.04511260986328125, -0.05782100930809975, 0.0669533833861351, 0.05634006857872009, -0.08438681811094284], [-0.08440934866666794, -0.12661704421043396, 0.06642560660839081, -0.09610466659069061, 0.09487815201282501, -0.054492924362421036, -0.09494125097990036, -0.06518159806728363, 0.060025691986083984, -0.009329820983111858, 0.06467515230178833, -0.09965413063764572, 0.06160493940114975, -0.11023029685020447], [0.14409001171588898, 0.03154439851641655, 0.017986735329031944, -0.06679383665323257, 0.042083609849214554, 0.008533090353012085, 0.0853804498910904, 0.033518049865961075, 0.0037885059136897326, -0.02104446291923523, 0.17811600863933563, 0.03127269446849823, 0.10227549821138382, 0.029817068949341774], [-0.10852349549531937, 0.04582661762833595, -0.14302736520767212, -0.04047432914376259, -0.012108422815799713, -0.06632939726114273, -0.1077684611082077, -0.12128572911024094, -0.0028918508905917406, 0.04795287922024727, 0.1315632313489914, -0.014533094130456448, -0.14268054068088531, -0.06817977130413055], [0.10027112811803818, -0.005847293417900801, 0.097701795399189, 0.154445618391037, -0.020909249782562256, 0.08380240947008133, 0.0987626239657402, 0.061063334345817566, 0.14587728679180145, 0.024257520213723183, -0.10901588201522827, -0.03728117421269417, 0.10273712128400803, -0.037581730633974075], [-0.03763611242175102, -0.14977307617664337, 0.003722877474501729, -0.09431744366884232, -0.15038670599460602, -0.15564624965190887, -0.12968336045742035, -0.07372337579727173, -0.0928836241364479, -0.06000559777021408, -0.037212926894426346, 0.06716019660234451, 0.010507147759199142, -0.05915359780192375], [-0.07326067984104156, -0.04581213742494583, 0.10805288702249527, 0.10873893648386002, 0.05077188089489937, 0.10635872930288315, 0.061790831387043, 0.0727919191122055, 0.045294880867004395, 0.003318673698231578, -0.11932247132062912, 0.038788262754678726, -0.024577349424362183, -0.05845681205391884], [-0.025692133232951164, 0.0588679201900959, 0.10809457302093506, -0.013289818540215492, 0.06843104213476181, 0.14487271010875702, 0.03592493012547493, -0.03542507812380791, -0.06927213072776794, 0.12866519391536713, 0.02396131120622158, -0.05701763182878494, 0.10805381834506989, 0.01579018495976925], [0.06429200619459152, 0.005088946782052517, -0.08102833479642868, -0.14726205170154572, -0.15710528194904327, -0.051368292421102524, -0.07698018103837967, 0.05391105264425278, 0.05541013926267624, -0.0875164344906807, -0.08863942325115204, 0.05752872675657272, -0.06959892809391022, -0.10139161348342896], [-0.01181661244481802, 0.1133723184466362, 0.027973607182502747, 0.055935051292181015, 0.05005143582820892, 0.144434854388237, 0.026196051388978958, -0.015701761469244957, 0.062303576618433, 0.14464052021503448, -0.12575261294841766, -0.03603097423911095, 0.12139005959033966, -0.03508041426539421], [-0.0005515189841389656, -0.13308456540107727, -0.039500024169683456, 0.01226140558719635, 0.01691856049001217, 0.07400143891572952, -0.08868664503097534, 0.01326069701462984, -0.13019989430904388, -0.1445768177509308, -0.019532056525349617, -0.10416196286678314, -0.04863694682717323, 0.05059194937348366], [-0.10530880838632584, -0.0239694956690073, 0.05223945155739784, 0.02229933813214302, 0.03402202948927879, -0.07686832547187805, -0.08473145961761475, -0.11488927155733109, -0.08996152132749557, -0.045322176069021225, -0.09016670286655426, 0.016505248844623566, 0.0047500296495854855, -0.14352299273014069], [-0.08312004804611206, 0.10915784537792206, 0.12069729715585709, 0.15241827070713043, 0.11736070364713669, 0.07557342201471329, -0.01589638739824295, 0.04465942084789276, -0.015005442313849926, 0.007902763783931732, -0.09454309195280075, -0.0035700243897736073, 0.07916533946990967, 0.037850819528102875], [0.06609836220741272, -0.06056451052427292, 0.08055677264928818, -0.13850274682044983, -0.11533831059932709, -0.11301456391811371, -0.10720639675855637, -0.16167087852954865, 0.011863749474287033, -0.13113747537136078, 0.08954960107803345, -0.17021434009075165, 0.03792223706841469, 0.08040750026702881], [-0.03565576672554016, 0.11571162939071655, 0.11348122358322144, 0.056887708604335785, -0.02969619259238243, 0.06799641996622086, 0.06689201295375824, 0.026091311126947403, 0.08999115973711014, -0.06702195107936859, -0.08723095059394836, 0.10074175894260406, -0.006215440109372139, -0.06722802668809891], [0.000144541947520338, -0.040422819554805756, -0.15524893999099731, -0.06846250593662262, -0.1134389266371727, 0.05348014086484909, -0.03411516174674034, 0.09555455297231674, -0.018127018585801125, -0.02168198861181736, -0.2696545124053955, 0.04701928794384003, 0.04870108515024185, -0.0033185379579663277], [0.005927769932895899, -0.011419110931456089, 0.15399785339832306, 0.11255988478660583, 0.005162443034350872, 0.15216301381587982, 0.023659508675336838, -0.008591488935053349, 0.1343143880367279, 0.040252912789583206, -0.07245796173810959, 0.09559831023216248, -0.03197263553738594, 0.11068593710660934], [-0.002973397495225072, -0.12797196209430695, -0.15506650507450104, 0.043738868087530136, 0.0031069654505699873, 0.0365847647190094, -0.01644047163426876, -0.07133606821298599, 0.005933566950261593, 0.013130866922438145, -0.24482901394367218, 0.019968848675489426, 0.024617934599518776, -0.043831124901771545], [-0.04989642649888992, 0.006844023242592812, -0.027523253113031387, 0.11224908381700516, 0.17227792739868164, 0.036921363323926926, 0.06737183034420013, 0.042505502700805664, 0.06699825078248978, 0.07262229919433594, -0.09481607377529144, 0.04143945500254631, 0.07761897146701813, -0.006506371311843395], [-0.052835069596767426, 0.08857639133930206, -0.03640363737940788, 0.017077269032597542, 0.0012232842855155468, -0.022895870730280876, -0.09410180151462555, 0.04183311387896538, 0.010345126502215862, 0.034826647490262985, 0.25889480113983154, -0.05837860330939293, -0.07841049879789352, -0.13542120158672333], [-0.08427552133798599, 0.04372156411409378, 0.05129494518041611, 0.006426096428185701, 0.05072285607457161, 0.015552048571407795, -0.07882446050643921, -0.02449612319469452, -0.06963673233985901, -0.10069872438907623, 0.08534444123506546, 0.015941625460982323, -0.0022717833053320646, -0.025109678506851196], [0.07649648934602737, 0.07402660697698593, 0.017303071916103363, -0.05950840935111046, 0.0442766435444355, -0.12488231062889099, -0.0527033768594265, -0.1931385099887848, -0.045221492648124695, 0.014300933107733727, 0.2381613403558731, 0.05931415781378746, 0.09617213904857635, -0.14750517904758453], [0.13475866615772247, -0.05611483380198479, -0.0038190630730241537, 0.1373007595539093, -0.07281486690044403, 0.15189404785633087, 0.08211730420589447, 0.11222338676452637, 0.08195172995328903, 0.013965651392936707, 0.05047851800918579, 0.1496869921684265, 0.031200610101222992, 0.003591180080547929], [-0.07264600694179535, -0.1299314796924591, -0.09085730463266373, -0.023455973714590073, -0.06109902262687683, 0.0031181431841105223, -0.09026025235652924, -0.12464368343353271, -0.12920653820037842, 0.010539279319345951, 0.03923211619257927, -0.013900247402489185, 0.07700520008802414, -0.01907375454902649], [-0.058425430208444595, 0.0019419770687818527, 0.03267959877848625, -0.040438465774059296, -0.019059451296925545, -0.13446088135242462, -0.0330565944314003, -0.07149501889944077, 0.04301891848444939, -0.16413898766040802, 0.12257412821054459, -0.07689626514911652, 0.034053392708301544, -0.1420765519142151], [-0.15892599523067474, -0.12121342122554779, -0.07109586149454117, 0.0505884625017643, 0.005058189854025841, -0.0800907239317894, 0.08061244338750839, 0.11710450053215027, -0.04521262273192406, 0.0906120017170906, -0.20616988837718964, -0.0846686139702797, 0.0030332482419908047, -0.053798314183950424], [-0.07455301284790039, 0.11396471410989761, -0.023781301453709602, -0.031475815922021866, 0.012506779283285141, 0.05593763664364815, 0.11824753880500793, 0.03255123272538185, 0.14960193634033203, 0.15802280604839325, -0.1131635457277298, 0.062449634075164795, 0.14766637980937958, 0.03773592412471771], [-0.07581359893083572, 0.044858116656541824, 0.000811769743449986, 0.010285545140504837, 0.07265570759773254, 0.1259562075138092, 0.09414969384670258, 0.17269083857536316, 0.11518806964159012, 0.07000954449176788, -0.11633399873971939, 0.18017680943012238, 0.009233961813151836, -0.031826891005039215], [0.02580808289349079, -0.004785668570548296, 0.14748218655586243, 0.10118743032217026, 0.10506351292133331, 0.1236477941274643, 0.13235199451446533, 0.08937549591064453, 0.10545429587364197, -0.04370216280221939, 0.0003707119612954557, 0.02754191681742668, 0.10567070543766022, -0.0008621902670711279], [0.0759340301156044, -0.04416029155254364, -0.1415424644947052, 0.041273053735494614, -0.14505308866500854, -0.1502765566110611, -0.1340629607439041, -0.15680231153964996, -0.1407744437456131, -0.0875101238489151, 0.00595672894269228, -0.017887229099869728, -0.12569989264011383, -0.13386742770671844], [0.11466966569423676, 0.15632012486457825, 0.04653732478618622, 0.12616290152072906, 0.11251839995384216, -0.0016374591505154967, 0.08500941842794418, -0.09758438915014267, -0.06773309409618378, 0.02119242399930954, 0.22987397015094757, 0.14127324521541595, 0.027520641684532166, -0.0014915051870048046], [0.08193080127239227, 0.1487845927476883, 0.25628581643104553, -0.08101942390203476, 0.09837492555379868, -0.07331062853336334, -0.005380766000598669, -0.02040223963558674, 0.11278342455625534, -0.05905914679169655, 0.2069733738899231, -0.1998780220746994, 0.17545826733112335, 0.12378404289484024], [-0.027830665931105614, -0.04261914640665054, -0.036816757172346115, -0.0377509742975235, -0.13949398696422577, -0.04343172535300255, -0.1373593956232071, -0.17364224791526794, 0.05711884796619415, -0.019154546782374382, -0.006223562639206648, -0.04751107469201088, 0.08340228348970413, -0.06961491703987122], [0.01819363795220852, -0.07529230415821075, -0.00025505712255835533, -0.15727026760578156, 0.05500245466828346, 0.036458298563957214, -0.12412358820438385, 0.10195701569318771, 0.050878752022981644, -0.10704468935728073, -0.198794424533844, -0.015656428411602974, 0.0408046655356884, -0.059694841504096985], [-0.03329010307788849, -0.11883188784122467, -0.13151924312114716, 0.024763483554124832, -0.15828165411949158, -0.12271379679441452, -0.060592591762542725, 0.01275737676769495, -0.028870027512311935, 0.06075418367981911, -0.06217704340815544, -0.13067950308322906, -0.12897709012031555, -0.11876868456602097], [0.024237869307398796, -0.10883258283138275, -0.029028214514255524, -0.10188322514295578, -0.11037461459636688, -0.09355581551790237, 0.008300675079226494, -0.12747643887996674, 0.05371995270252228, 0.055986251682043076, -0.0535263791680336, -0.02052662894129753, -0.12645010650157928, -0.10842137038707733], [-0.05200871452689171, 0.08221261948347092, -0.08259101957082748, 0.12217490375041962, 0.10358046740293503, 0.10950028896331787, -0.07926792651414871, 0.023817921057343483, 0.09138963371515274, -0.013757269829511642, -0.1049298569560051, 0.14011140167713165, 0.0014903651317581534, -0.02929002046585083], [-0.06715810298919678, -0.07407411187887192, -0.07772444188594818, -0.006829843390733004, -0.09718873351812363, 0.021026423200964928, -0.05920380353927612, 0.026126984506845474, -0.052396636456251144, -0.06197506561875343, -0.3694227337837219, -0.058922480791807175, -0.0281099583953619, -0.08159754425287247], [0.0815853551030159, 0.001556367496959865, 0.1247468814253807, 0.01915859989821911, 0.1497979760169983, 0.04362859949469566, -0.03080100007355213, 0.11999822407960892, -0.05764792114496231, 0.12208295613527298, -0.30602961778640747, 0.11454888433218002, 0.09231309592723846, -0.03736606612801552], [-0.10014977306127548, -0.09554462134838104, -0.14282238483428955, -0.046738993376493454, -0.0757460817694664, -0.05093029513955116, 0.08346568048000336, -0.10574357956647873, -0.15062107145786285, -0.15453237295150757, 0.16337735950946808, -0.1582869291305542, 0.08782326430082321, 0.08073493838310242], [-0.002393256640061736, -0.10305352509021759, -0.06560365855693817, -0.060264185070991516, 0.058630235493183136, 0.02135763131082058, 0.01860623061656952, -0.09248974174261093, 0.08759643137454987, 0.03853609785437584, -0.022713810205459595, -0.004537058528512716, -0.09377965331077576, -0.11945494264364243], [-0.038545820862054825, -0.01967400126159191, 0.11105215549468994, -0.046471498906612396, 0.0302658062428236, -0.021774431690573692, 0.14747567474842072, 0.06101912260055542, -0.006038670893758535, -0.04814817011356354, 0.02032715454697609, -0.05616995319724083, 0.07764972001314163, 0.13603340089321136], [-0.09108909219503403, -0.0168008953332901, -0.039184246212244034, -0.04600871726870537, 0.1354888379573822, -0.0561818890273571, -0.04906195402145386, -0.07429088652133942, 0.10227074474096298, 0.11394426226615906, -0.001409935299307108, -0.01356186531484127, 0.0882897675037384, 0.16963855922222137], [-0.17887070775032043, 0.19182196259498596, -0.1541118025779724, 0.2558857798576355, 0.18384182453155518, -0.05157220736145973, 0.12082157284021378, -0.5050939917564392, -0.21745602786540985, -0.03099280595779419, 0.42967554926872253, 0.09339307993650436, 0.16130521893501282, 0.26747092604637146], [-0.023328570649027824, -0.059412866830825806, 0.11010897904634476, -0.0654878243803978, 0.0863274335861206, -0.09734532982110977, 0.013680725358426571, -0.09074121713638306, 0.1082070842385292, -0.0005982781876809895, 0.05085038021206856, 0.03897003456950188, 0.15684393048286438, 0.06888534873723984], [-0.073106549680233, -0.030819788575172424, 0.0078524649143219, 0.1398210972547531, 0.1603584885597229, 0.03617892786860466, -0.08896838128566742, 0.06909473985433578, -0.08954519033432007, 0.07315298914909363, -0.0048716869205236435, 0.10266386717557907, 0.09478947520256042, 0.07339753955602646], [-0.6623130440711975, -0.02658018469810486, -0.20625387132167816, 0.3107410669326782, 0.39354974031448364, -0.21576836705207825, -0.08406656980514526, -0.9544246792793274, -0.5134644508361816, -0.08197085559368134, 0.5191117525100708, 0.0544593520462513, 0.1375894546508789, 0.1396375596523285], [0.11202509701251984, -0.02278432808816433, -0.032498642802238464, 0.033246446400880814, 0.07775820046663284, 0.15447747707366943, -0.02045060694217682, 0.06320755928754807, -0.04523823782801628, -0.056631844490766525, 0.1480647623538971, 0.17489074170589447, 0.16553981602191925, 0.1852424442768097], [0.12220637500286102, -0.0006446139304898679, 0.11623712629079819, 0.05993438512086868, 0.10781046748161316, -0.0192963145673275, -0.005824375431984663, 0.12381700426340103, 0.1417836844921112, 0.06661128252744675, -0.032179106026887894, 0.051961500197649, 0.14487500488758087, 0.03948981687426567], [-0.26686301827430725, -0.03866817057132721, -0.09426748007535934, 0.1435650885105133, 0.03556952625513077, 0.04563760757446289, -0.17177096009254456, -0.2124314308166504, 0.0247042253613472, 0.07826254516839981, 0.1405547708272934, -0.09223431348800659, -0.023550741374492645, 0.16968564689159393], [-0.4397313594818115, 0.04076911136507988, -0.3417835235595703, 0.11246476322412491, 0.20527097582817078, -0.057834457606077194, -0.23602589964866638, -0.6507334113121033, -0.3816913068294525, 0.05687471851706505, 0.33425506949424744, 0.03277676925063133, 0.019836613908410072, 0.16112151741981506], [0.05701841041445732, -0.06452326476573944, -0.03534257039427757, 0.14264613389968872, -0.009506375528872013, 0.005870289634913206, 0.1668243259191513, -0.04708220809698105, 0.1257912516593933, -0.053721651434898376, -0.042291123420000076, 0.12547944486141205, 0.10911668837070465, 0.08688969165086746], [-0.00129062554333359, 0.034092098474502563, -0.059080351144075394, 0.037700437009334564, -0.016964105889201164, 0.10065252333879471, -0.010040401481091976, -0.0615038238465786, 0.08725547045469284, 0.02447238191962242, 0.0012722807005047798, 0.11656111478805542, 0.013244792819023132, 0.19878223538398743], [-0.41140687465667725, -0.003914428409188986, -0.23127073049545288, 0.08708011358976364, 0.03641582280397415, -0.1758214831352234, -0.020893771201372147, -0.4207024574279785, -0.09730307757854462, 0.07065410912036896, 0.24423716962337494, -0.07300292700529099, 0.13046710193157196, 0.3558890223503113], [0.13436324894428253, 0.16276130080223083, 0.11581328511238098, 0.09132567793130875, -0.04121566563844681, -0.004739729687571526, 0.11448229849338531, 0.15528105199337006, -0.02360273152589798, -0.00023234428954310715, 0.011873831041157246, 0.047902848571538925, 0.11445983499288559, 0.032355695962905884], [-0.056146856397390366, 0.060581907629966736, -0.005953818093985319, -0.06605719774961472, -0.03899253532290459, 0.053971510380506516, 0.10542105883359909, 0.11117854714393616, 0.14923898875713348, 0.0888989120721817, 0.07409049570560455, 0.17607486248016357, 0.17155921459197998, 0.03225024417042732], [0.06012651324272156, -0.019965356215834618, -0.04653756320476532, 0.13004963099956512, -0.06227008253335953, 0.1302931010723114, -0.04191083088517189, 0.06882669031620026, 0.10023432224988937, 0.14476357400417328, -0.04400942102074623, 0.06305715441703796, 0.11445610970258713, 0.20419074594974518], [0.024893198162317276, 0.10184545069932938, 0.040229134261608124, 0.1288580745458603, -0.013319523073732853, -0.010339531116187572, 0.03337422013282776, 0.01858031563460827, -0.014241361059248447, -0.006951941642910242, 0.0886070728302002, 0.16176794469356537, 0.07089061290025711, 0.07433099299669266], [-0.2591269314289093, -0.11253982037305832, 0.022107500582933426, 0.15278899669647217, 0.07147952914237976, -0.022539013996720314, -0.18084819614887238, -0.5284643769264221, -0.2513984143733978, 0.09600118547677994, 0.14775507152080536, 0.0637696161866188, 0.051877398043870926, 0.26830461621284485], [-0.728253185749054, -0.03994773328304291, -0.4964146912097931, 0.37648528814315796, 0.18351313471794128, -0.14479805529117584, -0.09997718781232834, -0.8929866552352905, -0.6482271552085876, 0.05597890540957451, 0.4764704704284668, 0.13486574590206146, 0.16154691576957703, 0.2545139789581299], [-0.025741422548890114, 0.02342933975160122, -0.035277605056762695, 0.16704730689525604, 0.056796662509441376, 0.007183604408055544, 0.03159996122121811, -0.12603867053985596, -0.08130554109811783, -0.005831311456859112, 0.059747036546468735, 0.10068674385547638, -0.011282674968242645, 0.1486128568649292], [0.07018046081066132, 0.13405592739582062, 0.043026573956012726, 0.005685888230800629, 0.010076495818793774, 0.13941103219985962, 0.1564079225063324, -0.10537729412317276, 0.011430017650127411, 0.16987644135951996, 0.04655279219150543, 0.05768937990069389, -0.059167154133319855, 0.14926864206790924], [-0.03515925630927086, 0.14227479696273804, 0.0009892021771520376, 0.09638205915689468, 0.09985443949699402, 0.07939597964286804, -0.10261206328868866, -0.127881720662117, -0.07752873003482819, -0.06268572062253952, 0.2146291434764862, -0.055088188499212265, 0.11993328481912613, 0.07252410799264908], [0.07679042965173721, -0.06733047962188721, 0.1471160501241684, -0.033560626208782196, 0.06462422013282776, 0.07428393512964249, 0.031108876690268517, 0.1164839118719101, 0.1020357757806778, -0.0035961903631687164, 0.054117072373628616, 0.047533854842185974, 0.005391427781432867, 0.1363459676504135], [-0.12949912250041962, 0.13500253856182098, -0.10900016874074936, 0.17327895760536194, 0.13556043803691864, 0.06553705036640167, -0.06293956190347672, -0.22959326207637787, -0.0580170713365078, 0.06331060081720352, 0.08414377272129059, 0.11306463181972504, 0.04348509758710861, 0.22619906067848206], [-0.14041048288345337, 0.12810127437114716, -0.06729980558156967, 0.018787549808621407, -0.05079164355993271, -0.09777041524648666, -0.0877249538898468, -0.34005874395370483, -0.1274333894252777, -0.01628439873456955, 0.1097373366355896, 0.04003051295876503, 0.10528203845024109, 0.08707886934280396], [-0.5058745741844177, 0.12444977462291718, -0.3094049394130707, 0.10652872174978256, 0.018984032794833183, -0.24706324934959412, -0.2577027976512909, -0.7550802230834961, -0.4428311884403229, 0.046045344322919846, 0.31938740611076355, -0.043067727237939835, 0.043063946068286896, 0.12504050135612488], [0.0074758101254701614, -0.025209369137883186, 0.10927741974592209, 0.023573067039251328, -0.028712715953588486, -0.061815690249204636, 0.08477016538381577, -0.011246420443058014, -0.0012475308030843735, -0.04194335266947746, -0.0703975111246109, 0.07054492831230164, 0.16100817918777466, 0.014249016530811787], [0.04651946201920509, -0.01805180124938488, -0.12482816725969315, 0.0876365527510643, -0.06502806395292282, -0.07487256079912186, -0.10349752008914948, -0.07409969717264175, 0.006451191380620003, -0.06811243295669556, 0.029233064502477646, -0.028825441375374794, 0.09610746055841446, 0.2195897102355957], [-0.030395615845918655, -0.05692495033144951, 0.013652075082063675, -0.018214086070656776, 0.06884808838367462, 0.07994617521762848, -0.02791013941168785, -0.04213067889213562, 0.14309513568878174, -0.02305580861866474, -0.03142503276467323, 0.10626918822526932, 0.09955384582281113, 0.12081315368413925], [-0.051940470933914185, -0.0887329950928688, -0.03084588423371315, 0.024437278509140015, 0.061426032334566116, -0.1329694539308548, 0.0517335943877697, -0.09014031291007996, -0.007308157626539469, 0.10544275492429733, -0.13829101622104645, 0.12448736280202866, 0.11032085865736008, 0.13955676555633545], [-0.22747398912906647, 0.03798551857471466, -0.08612052351236343, -0.03264113888144493, 0.1424807757139206, -0.05282767489552498, -0.15327922999858856, -0.3773869276046753, -0.1654634177684784, -0.04293522611260414, 0.16625124216079712, 0.09075341373682022, 0.051285047084093094, 0.24942579865455627], [0.09214477986097336, 0.07167267799377441, 0.03793051093816757, 0.18033544719219208, 0.012698481790721416, 0.05534541979432106, 0.0499260388314724, 0.02226768061518669, 0.013311969116330147, 0.07023607194423676, 0.13569459319114685, -0.011210293509066105, -0.041160762310028076, -0.01909782551229], [-0.0022128813434392214, -0.0879988819360733, -0.10993046313524246, 0.04242737591266632, 0.08892275393009186, -0.1184149757027626, -0.11657866090536118, -0.036643631756305695, -0.08320008963346481, 0.13252383470535278, 0.044485561549663544, 0.0006001502042636275, 0.05781441554427147, 0.12160889804363251], [-0.061836544424295425, 0.17369318008422852, 0.14799204468727112, 0.14049683511257172, -0.0536634735763073, 0.12076377123594284, 0.1556144803762436, 0.04762765392661095, 0.11817454546689987, 0.10289047658443451, 0.05874595791101456, 0.07201068103313446, 0.008318469859659672, 0.0806475356221199], [-0.5416126847267151, -0.06450233608484268, -0.287092924118042, 0.1592016965150833, 0.12253528088331223, -0.2761077582836151, -0.2030593752861023, -0.533922016620636, -0.342119961977005, -0.03403129428625107, 0.14774128794670105, 0.05856618657708168, 0.09378347545862198, 0.21783602237701416], [0.017622189596295357, 0.027903692796826363, 0.07107430696487427, 0.04873248189687729, 0.11522959172725677, 0.1270260512828827, 0.16267231106758118, 0.1474839597940445, -0.0019356438424438238, 0.06602096557617188, 0.03349722549319267, 0.08517743647098541, 0.07290367037057877, 0.020252715796232224], [-0.08999757468700409, -0.008542342111468315, -0.08862736821174622, -0.011306311935186386, 0.13868780434131622, 0.02878546714782715, 0.11274421215057373, -0.07724570482969284, 0.025475338101387024, 0.011345275677740574, 0.08006320893764496, 0.00807177647948265, 0.07997395843267441, 0.15272390842437744], [0.058852676302194595, 0.07211294770240784, 0.13474075496196747, -0.040038611739873886, 0.07224027812480927, 0.09079983830451965, 0.140408456325531, -0.04063154757022858, -0.019908180460333824, 0.07059332728385925, -0.04440637305378914, 0.03171921148896217, 0.1333497315645218, 0.21218162775039673], [-0.28559452295303345, -0.04163278266787529, 0.0657922700047493, 0.06368741393089294, 0.11751389503479004, -0.1790752410888672, 0.00770175876095891, -0.4261699616909027, -0.11261163651943207, 0.0744801014661789, 0.21134091913700104, 0.022127697244286537, -0.07268023490905762, 0.26053792238235474], [-0.10426444560289383, 0.020553790032863617, -0.10245845466852188, 0.18062911927700043, 0.18272870779037476, -0.11307595670223236, -0.14814814925193787, -0.2185368537902832, -0.1593085676431656, 0.12338699400424957, 0.24104461073875427, -0.002659167628735304, 0.04420027136802673, 0.19743603467941284], [-0.4602813124656677, 0.03175405040383339, -0.15534469485282898, 0.19309602677822113, 0.14999078214168549, -0.04751964658498764, -0.22377188503742218, -0.4808701276779175, -0.28320005536079407, -0.030030062422156334, 0.34518828988075256, -0.021947583183646202, -0.06298135966062546, 0.05473998188972473], [-0.08836980909109116, 0.11523415893316269, -0.07888163626194, 0.003382932161912322, -0.0782918781042099, 0.06496462225914001, 0.07109331339597702, -0.02002524398267269, 0.07835137844085693, 0.12976041436195374, 0.023502284660935402, -0.06724696606397629, -0.02172359637916088, 0.2932699918746948], [0.1308378428220749, -0.058451876044273376, 0.16136156022548676, 0.061005670577287674, 0.11031594127416611, 0.07252798229455948, 0.03242724388837814, 0.03839576989412308, 0.1380019336938858, 0.00503503018990159, 0.028158001601696014, -0.024095412343740463, -0.04430205747485161, 0.015796510502696037], [-0.12556493282318115, 0.004552492871880531, -0.039435870945453644, 0.10659173876047134, -0.06189168617129326, -0.07707645744085312, 0.02933652512729168, -0.08798486739397049, -0.14226336777210236, 0.1376468390226364, -0.05662892758846283, 0.0970337763428688, 0.16070838272571564, 0.20577472448349], [-0.20691578090190887, -0.03516530618071556, 0.032038964331150055, 0.13590902090072632, 0.008302074857056141, -0.21498818695545197, -0.1852944940328598, -0.33303555846214294, -0.2219194918870926, -0.10347628593444824, 0.17497946321964264, -0.013766746036708355, -0.08915465325117111, 0.33963486552238464], [-0.1157497763633728, 0.14314106106758118, 0.016464993357658386, 0.15882861614227295, 0.1611810177564621, -0.05763610079884529, -0.08411902189254761, -0.04172562062740326, -0.024911288172006607, -0.04208481311798096, -0.005503002554178238, 0.06493020057678223, 0.1546490341424942, 0.12331273406744003], [-0.14352363348007202, 0.12198793888092041, -0.09896255284547806, 0.10438847541809082, 0.06057439371943474, 0.03423861414194107, -0.11910581588745117, -0.027838198468089104, -0.06867203861474991, 0.13078424334526062, 0.0324300192296505, 0.12466144561767578, -0.014051996171474457, 0.18408967554569244], [-0.0675533264875412, -0.04925161972641945, 0.002293095225468278, 0.12347850203514099, 0.08412908017635345, -0.07051758468151093, 0.10468403995037079, 0.036714132875204086, -0.10976804792881012, 0.058762647211551666, 0.14663392305374146, -0.08137350529432297, 0.06287262588739395, 0.007665832061320543], [-0.43710288405418396, 0.11194805055856705, -0.19247888028621674, 0.14910992980003357, -0.015438922680914402, -0.28602445125579834, -0.25021883845329285, -0.6056762337684631, -0.29721352458000183, -0.1279934197664261, 0.326236367225647, 0.06250416487455368, 0.08710414171218872, 0.2848055958747864], [0.09157653898000717, -0.023880144581198692, -0.07788694649934769, 0.13786882162094116, -0.008830268867313862, -0.024034468457102776, 0.10449070483446121, -0.04509599134325981, -0.05934785306453705, 0.06475528329610825, -0.09183825552463531, 0.03814663738012314, 0.09688087552785873, 0.030035214498639107], [-0.03239306062459946, 0.11261387169361115, 0.023934699594974518, 0.1387517750263214, 0.17620211839675903, -0.09721112996339798, -0.001493255258537829, -0.1329209953546524, 0.06444354355335236, -0.07516807317733765, -0.01183672621846199, 0.13429461419582367, -0.06063275411725044, 0.21179085969924927], [-0.14924593269824982, -0.02486119419336319, -0.018328439444303513, 0.046235091984272, 0.1705015003681183, -0.10073274374008179, -0.0027815806679427624, -0.1774754524230957, 0.05719578638672829, 0.0380370132625103, -0.032349515706300735, 0.07513965666294098, -0.036244481801986694, 0.13671405613422394], [-0.15815414488315582, -0.010861259885132313, -0.03701252490282059, 0.05543952435255051, -0.035194698721170425, 0.019631387665867805, -0.07265017926692963, -0.11221636086702347, 0.02971208468079567, 0.08472801744937897, 0.05612267181277275, 0.1409481316804886, -0.07158180326223373, 0.1597965955734253], [-0.3183690011501312, 0.027872584760189056, -0.19825106859207153, 0.038247909396886826, 0.09625249356031418, -0.12320231646299362, -0.13680902123451233, -0.5618168711662292, -0.1916380077600479, -0.09717061370611191, 0.2407488226890564, -0.007934218272566795, 0.09710545092821121, 0.31761619448661804], [-0.6139183044433594, 0.06509199738502502, -0.22153784334659576, 0.035151537507772446, 0.2438221424818039, -0.21155495941638947, -0.17781487107276917, -0.6563507914543152, -0.45385095477104187, -0.13845419883728027, 0.36914852261543274, 0.021957557648420334, -0.02326352894306183, 0.32224711775779724], [0.12383285909891129, -0.08624600619077682, 0.0357784703373909, -0.009838277474045753, -0.007236818317323923, 0.12803655862808228, -0.008911111392080784, -0.05330752953886986, 0.0372549332678318, 0.11301124840974808, 0.008996903896331787, 0.155537948012352, 0.059075094759464264, 0.07764331996440887], [-0.10612171143293381, 0.05095754563808441, 0.03617464378476143, -0.034102246165275574, -0.059095825999975204, -0.0038110006134957075, -0.055404506623744965, -0.21013228595256805, -0.09271553158760071, -0.10400030761957169, 0.25932449102401733, 0.08307688683271408, -0.021180234849452972, 0.1962478756904602], [-0.0963379517197609, 0.12808522582054138, 0.08291604369878769, -0.013899295590817928, 0.07650214433670044, 0.046968795359134674, 0.1082974523305893, 0.046148769557476044, 0.036744505167007446, -0.02873264253139496, 0.01210714504122734, 0.06351690739393234, 0.05025852471590042, 0.07625072449445724], [-0.0029283761978149414, 0.06018970534205437, -0.05154680088162422, 0.03919658064842224, 0.13623228669166565, -0.04849785938858986, -0.11198503524065018, -0.22499136626720428, -0.0799248218536377, 0.0839340090751648, 0.04998823255300522, -0.09603613615036011, 0.11106780916452408, 0.03223602846264839], [0.046346236020326614, 0.10878953337669373, -0.019116418436169624, 0.026967642828822136, 0.12391191720962524, 0.025057343766093254, 0.040424760431051254, -0.05654342100024223, 0.14662772417068481, 0.03658071905374527, -0.10914812237024307, 0.10766478627920151, 0.158284991979599, 0.05917501449584961], [-0.7604160904884338, 0.1014406830072403, -0.5475101470947266, 0.14874154329299927, 0.1699741929769516, -0.15422946214675903, -0.35449567437171936, -1.0023053884506226, -0.47729969024658203, -0.04206445813179016, 0.4826662838459015, -0.07864060997962952, -0.0754040852189064, 0.36536911129951477], [-0.1419525146484375, -0.013298114761710167, 0.10254020243883133, 0.02213156223297119, 0.05581998825073242, -0.024564282968640327, -0.07970525324344635, -0.1445288211107254, -0.0452200286090374, -0.07702727615833282, -0.04610604792833328, 0.16961535811424255, 0.04183562099933624, 0.011586221866309643], [-0.006039099767804146, 0.07444582879543304, -0.12450379133224487, 0.040833730250597, -0.05306626483798027, 0.08674503862857819, -0.01072127465158701, 0.009930684231221676, -0.019048070535063744, 0.1202746331691742, -0.08927023410797119, 0.0850035771727562, 0.10113473981618881, 0.1565755158662796], [-0.09830342233181, 0.038429807871580124, -0.1135624572634697, 0.16219088435173035, 0.07615529000759125, -0.1947755366563797, -0.09810543060302734, -0.2125457525253296, -0.1983739137649536, -0.06746485084295273, 0.08324971795082092, -0.06856773793697357, -0.018282443284988403, 0.2925138771533966], [-0.2129954993724823, 0.1110859140753746, -0.07895489782094955, 0.1317417472600937, -9.61952464422211e-05, 0.01565411500632763, -0.10463099181652069, -0.0951036661863327, -0.07446767389774323, 0.07395098358392715, 0.04145515710115433, -0.022056687623262405, 0.14142294228076935, 0.18237096071243286]], "lstm.weight_hh_l0": [[0.03778516501188278, 0.19812200963497162, 0.0042400723323225975, -0.07557854056358337, 0.11870007961988449, -0.007854601368308067, 0.034826043993234634, -0.10690692067146301, 0.05753619223833084, 0.06080053001642227, 0.05072101950645447, 0.06564615666866302, -0.04397043213248253, -0.038460422307252884, 0.09185602515935898, -0.07834386080503464, -0.02417139895260334, -0.030489124357700348, -0.05730726197361946, 0.07443646341562271, -0.16537019610404968, 0.08997375518083572, 0.11852605640888214, -0.039792872965335846, -0.024025825783610344, 0.07343781739473343, 0.09063811600208282, -0.08062051981687546, 0.07011758536100388, 0.12136105448007584, -0.11427665501832962, -0.04050023481249809, -0.0782613679766655, 0.0049452707171440125, -0.07368138432502747, -0.14642342925071716, 0.09314518421888351, 0.012543056160211563, 0.1527477651834488, -0.03349914029240608, 0.09847801923751831, 0.03063514456152916, -0.0061649661511182785, 0.0483853779733181, 0.07607198506593704, -0.06944495439529419, 0.07275760918855667, -0.029249409213662148, 0.10361255705356598, 0.1428707391023636, -0.027071570977568626, 0.06483815610408783, 0.08812796324491501, -0.02334004081785679, 0.024406472221016884, -0.04354412481188774, 0.06423021107912064, -0.1703130155801773, -0.0003740308166015893, -0.06732581555843353, 0.027569705620408058, -0.08035941421985626, -0.08412857353687286, 0.13244232535362244], [0.013230640441179276, 0.588387131690979, -0.07516991347074509, 0.04469483718276024, 0.32127344608306885, 0.06645920127630234, 0.10928000509738922, -0.043884944170713425, 0.08774767071008682, 0.04955291748046875, 0.07960334420204163, -0.05345825105905533, -0.00041921527008526027, -0.03679439797997475, 0.0284185241907835, -0.003586728125810623, 0.09644129872322083, 0.36345648765563965, 0.11634561419487, -0.05250764265656471, -0.08566172420978546, -0.004240076988935471, -0.010532228276133537, 0.016555745154619217, 2.2764463210478425e-05, 0.03243143483996391, -0.09089905023574829, -0.05479232221841812, -0.1625402718782425, 0.023033784702420235, -0.04948074743151665, -0.02106418088078499, 0.03753131255507469, -0.013754088431596756, -0.15061523020267487, 0.06168073043227196, 0.07287867367267609, -0.08027837425470352, 0.03731613606214523, -0.16466271877288818, -0.10011886805295944, 0.0840269923210144, 0.1287495493888855, 0.16862276196479797, -0.12798894941806793, 0.07816867530345917, 0.011961621232330799, -0.045374590903520584, -0.1713402420282364, -0.09205181151628494, -0.121968574821949, 0.05248192697763443, 0.10691798478364944, 0.08131192624568939, 0.14648577570915222, -0.039961665868759155, 0.051297158002853394, 0.01795903779566288, -0.1147426888346672, -0.1338479071855545, -0.15573208034038544, 0.10106277465820312, 0.07664080709218979, -0.040294285863637924], [0.02108875662088394, 0.26681506633758545, 0.014611187390983105, -0.06763971596956253, 0.19055011868476868, 0.12299484759569168, -0.025634076446294785, -0.0853947252035141, -0.13482441008090973, -0.04551006853580475, -0.010169869288802147, 0.06743359565734863, 0.01326314639300108, 0.02293212153017521, 0.03712143376469612, 0.023831134662032127, -0.03327002376317978, 0.06421278417110443, -0.0438062883913517, -0.006116560194641352, -0.03601236268877983, 0.17198911309242249, 0.1604505479335785, 0.06031911075115204, 0.17038796842098236, 0.08055052161216736, -0.07299874722957611, -0.07337682694196701, 0.06339026242494583, 0.08572790771722794, -0.05233496055006981, 0.15285705029964447, 0.051238298416137695, -0.03978630527853966, 0.0391920804977417, -0.11950293183326721, 0.16794253885746002, -0.08435732126235962, -0.07898037135601044, -0.0006585443625226617, -0.05733203515410423, 0.07865767925977707, -0.012694829143583775, -0.08619559556245804, 0.04514782875776291, 0.0249618012458086, -0.15474973618984222, -0.16075177490711212, 0.10620436817407608, -0.04452861472964287, -0.030636658892035484, -0.1322305053472519, -0.0351874902844429, -0.016708260402083397, -0.0016924013616517186, -0.1452939361333847, -0.04222157970070839, 0.030506441369652748, 0.06594618409872055, 0.07274257391691208, 0.07598044723272324, -0.0137274619191885, -0.08136452734470367, -0.011021969839930534], [0.06337861716747284, -0.17554059624671936, -0.14752601087093353, 0.0386294350028038, -0.04395205155014992, 0.08407292515039444, -0.004859695211052895, -0.0278619434684515, 0.006836215034127235, -0.1601075828075409, 0.0453951358795166, 0.03370151296257973, 0.015560795553028584, -0.036727845668792725, 0.06081421300768852, -0.12156658619642258, -0.06982557475566864, -0.0844481810927391, -0.12637895345687866, -0.07771388441324234, -0.02325551025569439, 0.1514042317867279, 0.0856490358710289, -0.12530818581581116, 0.05213891714811325, -0.07740256935358047, -0.05655454471707344, -0.13970516622066498, 0.12909376621246338, 0.13314303755760193, 0.06728703528642654, 0.12327438592910767, -0.07877244800329208, -0.1365785151720047, -0.031189320608973503, -0.1658109426498413, 0.16054101288318634, -0.1266101747751236, 0.054322291165590286, 0.028808023780584335, 0.06535633653402328, -0.10264524072408676, -0.07658316195011139, -0.1049993559718132, 0.009957542642951012, 0.0617370530962944, -0.04604775831103325, 0.08396203815937042, 0.006217022892087698, 0.12741616368293762, 0.05663352087140083, -0.060632433742284775, -0.01325563807040453, 0.04290985316038132, -0.13763126730918884, -0.12926362454891205, 0.01733732968568802, 0.01335020363330841, 0.034279271960258484, -0.023791354149580002, -0.049676116555929184, 0.049208469688892365, 0.06371811777353287, -0.03976931422948837], [0.04297013208270073, 0.581005334854126, 0.08528389036655426, 0.1112198680639267, 0.4124661386013031, -0.07896061986684799, 0.12261327356100082, 0.10272848606109619, -0.05591639503836632, -0.05077105388045311, -0.12785029411315918, -0.10724145174026489, 0.055709756910800934, -0.021931637078523636, -0.03769182413816452, 0.11171255260705948, -0.07659295201301575, 0.44640275835990906, 0.08187854290008545, -0.08584494143724442, 0.008062629960477352, 0.03972959890961647, -0.09143657982349396, 0.08521783351898193, 0.14681857824325562, 0.13964161276817322, -0.015757057815790176, -0.02690485119819641, -0.04179250821471214, 0.03261253610253334, -0.024564409628510475, -0.0017609663773328066, -0.049269288778305054, 0.06683290004730225, -0.09924331307411194, 0.053326260298490524, -0.021511593833565712, -0.06492006778717041, -0.06734667718410492, -0.18673329055309296, 0.08775512129068375, 0.0948290228843689, -0.06353703886270523, 0.08118093758821487, -0.0713496208190918, 0.13748498260974884, 0.033618904650211334, 0.07248524576425552, -0.1130959764122963, -0.05507455766201019, -0.0946611613035202, 0.011771944351494312, 0.031028350815176964, 0.01483930367976427, 0.06699736416339874, -0.08602922409772873, -0.050278130918741226, 0.11501488834619522, -0.07962038367986679, -0.38562190532684326, -0.06168805807828903, 0.013276820071041584, -0.04851638525724411, -0.05875902995467186], [-0.11409646272659302, -0.16774636507034302, -0.09580552577972412, 0.006687541492283344, -0.08594125509262085, -0.05496241897344589, -0.059606295078992844, 0.03064982406795025, -0.018693167716264725, -0.10730347037315369, 0.1164243221282959, -0.14072492718696594, -0.05476771667599678, 0.014541598036885262, -0.06967911124229431, 0.02087554521858692, -0.1334996372461319, -0.12873372435569763, 0.04962511733174324, 0.02288319729268551, -0.041484929621219635, 0.0953296646475792, -0.0036404409911483526, 0.07948790490627289, 0.0892166718840599, -0.12022103369235992, 0.08081508427858353, -0.1252875179052353, 0.15733908116817474, 0.16759195923805237, -0.1013026237487793, -0.01386630441993475, 0.04210614413022995, 0.06092454493045807, -0.03405384346842766, -0.09587462991476059, 0.026469172909855843, -0.0017131854547187686, 0.1426209956407547, 0.03054889477789402, -0.041659679263830185, 0.033987510949373245, -0.15390795469284058, -0.03151338919997215, 0.1004667580127716, -0.05375409871339798, -0.007043452467769384, -0.038679059594869614, 0.1365535706281662, 0.13699838519096375, 0.028626620769500732, -0.0996125340461731, 0.1258983314037323, -0.045782990753650665, 0.014347188174724579, 0.1173517107963562, -0.13576693832874298, 0.08430463075637817, 0.12402822822332382, 0.09469056129455566, 0.1290859580039978, -0.10657266527414322, -0.06857083737850189, 0.16447867453098297], [0.0504143163561821, -0.16380324959754944, 0.09745066612958908, -0.1440584808588028, 0.0032625505700707436, 0.02619684487581253, 0.01576980948448181, -0.08344829082489014, 0.010813961736857891, 0.027204276993870735, 0.16098229587078094, -0.03294355049729347, -0.07654330134391785, 0.0026158217806369066, 0.09418332576751709, -0.07390504330396652, 0.07323933392763138, -0.0983019694685936, -0.14728786051273346, -0.013547956012189388, -0.13403750956058502, 0.06954216957092285, -0.0724053829908371, -0.1394656002521515, -0.1549367904663086, 0.013370572589337826, 0.09814535826444626, -0.09285315126180649, -0.04862203449010849, 0.0009245834662579, 0.07701625674962997, 0.16073697805404663, -0.06528646498918533, -0.07202183455228806, -0.017806826159358025, -0.05557646602392197, 0.11748696863651276, -0.06871837377548218, 0.002135756891220808, 0.0605165921151638, 0.07496664673089981, -0.0019329482456669211, -0.09536009281873703, 0.06832811236381531, 0.07942645996809006, 0.021234355866909027, 0.058751076459884644, 0.07352998852729797, 0.08974821120500565, 0.11588946729898453, 0.15213783085346222, -0.11416267603635788, 0.07554242014884949, -0.010107966139912605, -0.13573607802391052, 0.08028610795736313, -0.16209526360034943, -0.06971795856952667, -0.07217350602149963, 0.1254759579896927, 0.08103752136230469, -0.07014565914869308, 0.047747500240802765, -0.021100139245390892], [-0.0196535661816597, 0.23644183576107025, -0.13316211104393005, 0.027041101828217506, 0.13570928573608398, -0.04852290824055672, -0.10383177548646927, -0.028613680973649025, 0.05453293398022652, -0.15098562836647034, -0.05778687074780464, 0.09332577884197235, -0.15425729751586914, 0.015489085577428341, 0.13017550110816956, -0.10567107051610947, -0.06451107561588287, 0.2754863500595093, 0.04128041863441467, -0.1307128518819809, -0.03711630776524544, 0.04641347751021385, 0.062177874147892, -0.09487395733594894, -0.007753623183816671, 0.03829879313707352, 0.15033215284347534, -0.06908593326807022, 0.02160797454416752, 0.12024637311697006, -0.024560920894145966, 0.0010782817844301462, 0.05211497098207474, -0.07485786080360413, 0.03352895751595497, 0.028006277978420258, 0.05408690869808197, 0.013279319740831852, 0.1556786149740219, -0.11571996659040451, 0.159635990858078, -0.0187864750623703, -0.07294169813394547, 0.053630854934453964, 0.14803072810173035, 0.01480231061577797, -0.15000104904174805, -0.19021283090114594, -0.010381161235272884, 0.1514219045639038, -0.0011026709107682109, 0.006078212521970272, 0.07439067959785461, -0.05537302419543266, -0.053298406302928925, -0.029207175597548485, -0.15127207338809967, -0.09031733870506287, -0.05151117965579033, -0.04542393237352371, -0.08415016531944275, 0.012394502758979797, -0.11037749797105789, -0.056898199021816254], [0.08689285069704056, 0.028759796172380447, 0.03249925747513771, -0.125835120677948, -0.03721395879983902, 0.051260292530059814, -0.04953315109014511, -0.1549844592809677, -0.011688229627907276, -0.06179453432559967, 0.06993381679058075, -0.0339503176510334, 0.05251278728246689, -0.11142665147781372, -0.008174757473170757, 0.014553188346326351, -0.14541704952716827, 0.1784614473581314, -0.09576842188835144, 0.031037095934152603, 0.024024898186326027, 0.15904535353183746, -0.04120047390460968, -0.03302888199687004, 0.12496072053909302, -0.057844072580337524, 0.04905758425593376, -0.0007252745563164353, -0.029333114624023438, 0.043932363390922546, 0.03262428194284439, 0.008391113951802254, 0.06588520109653473, -0.13993732631206512, 0.021997526288032532, -0.12087617069482803, -0.06863433122634888, -0.04781966283917427, -0.010161235928535461, -0.011166976764798164, 0.14431902766227722, -0.15726548433303833, 0.015470332466065884, -0.02622952312231064, 0.07947544753551483, 0.06909403949975967, -0.058018460869789124, -0.07142630964517593, 0.08040275424718857, 0.011101431213319302, 0.05604249984025955, -0.025200437754392624, 0.15292885899543762, 0.09448529034852982, -0.0769779160618782, -0.16399018466472626, -0.0896572396159172, -0.10523419827222824, 0.11715091019868851, -0.11511710286140442, 0.038904108107089996, -0.0681496113538742, 0.06686851382255554, 0.12489308416843414], [-0.07866435497999191, -0.2006472945213318, -0.03466055169701576, 0.00023129067267291248, -0.04556604102253914, 0.006352789234369993, -0.10150334984064102, 0.061046063899993896, -0.06985748559236526, -0.11411112546920776, 0.14571695029735565, 0.055454932153224945, 0.06576672941446304, -0.023693060502409935, 0.014392944052815437, -0.09343548119068146, 0.03319481387734413, -0.23122572898864746, -0.031107157468795776, -0.053223561495542526, -0.04319067671895027, 0.018478572368621826, 0.013742418959736824, -0.05872822552919388, 0.09639851748943329, -0.0013658961979672313, -0.0017131752101704478, -0.10850762575864792, 0.12836363911628723, 0.13958263397216797, -0.1674656867980957, 0.03539204224944115, -0.11383119225502014, -0.035658709704875946, -0.06452988088130951, 0.0008586200419813395, 0.0596776083111763, 0.013499263674020767, 0.06129489466547966, -0.10736389458179474, 0.1206279769539833, -0.12020303308963776, -0.12237047404050827, 0.022003628313541412, 0.13134337961673737, -0.037154924124479294, -0.02949720248579979, 0.09476423263549805, 0.08332408219575882, -0.008443905971944332, 0.13635176420211792, -0.12275312840938568, -0.05439940094947815, 0.10150986164808273, 0.022728759795427322, 0.04029187560081482, -0.11665038019418716, -0.06334515661001205, -0.044649820774793625, -0.08870799094438553, -0.01740204729139805, -0.17543189227581024, -0.1308104246854782, 0.13732415437698364], [-0.06828623265028, -0.14845117926597595, 0.04854654148221016, -0.11544796079397202, -0.11040748655796051, -0.07148515433073044, -0.1527295708656311, 0.07667256891727448, 0.0028861460741609335, -0.14216479659080505, -0.012801500968635082, -0.0011502369306981564, 0.06124212220311165, -0.06558141112327576, 0.15655332803726196, -0.08220143616199493, -0.09440720081329346, -0.007964990101754665, -0.11540167033672333, -0.15296761691570282, 0.050810474902391434, 0.12060484290122986, 0.16010594367980957, -0.12639421224594116, 0.025539569556713104, -0.03818550333380699, -0.06493137776851654, -0.02084079571068287, 0.11280930042266846, 0.1311372071504593, -0.07611202448606491, 0.0356399305164814, 0.04536851495504379, -0.07653376460075378, -0.027022816240787506, 0.04343844950199127, 0.0964326560497284, -0.08261440694332123, 0.05762992799282074, -0.07923263311386108, -0.07092874497175217, 0.04934094101190567, -0.11319124698638916, 0.033459749072790146, -0.010027549229562283, -0.16840238869190216, -0.10138809680938721, -0.06973835080862045, 0.13325005769729614, 0.031269483268260956, -0.013105286285281181, -0.05390670895576477, 0.09400344640016556, -0.08509602397680283, 0.04068555310368538, 0.002252568257972598, -0.013283869251608849, 0.06668039411306381, -0.01706862449645996, 0.016785183921456337, 0.13360150158405304, 0.028383322060108185, 0.050721295177936554, 0.17612969875335693], [-0.07801305502653122, -0.05162220820784569, -0.006392509210854769, -0.11343561857938766, 0.048125263303518295, -0.024945223703980446, -0.1322409063577652, -0.05604378506541252, -0.05280246213078499, -0.00892327819019556, 0.053605880588293076, 0.15200982987880707, -0.07983406633138657, 0.04087414592504501, 0.053642529994249344, 0.07769611477851868, -0.009392126463353634, -0.06781638413667679, -0.16686172783374786, -0.10086064785718918, 0.06526748836040497, 0.1437402218580246, -0.03741390258073807, -0.10279291123151779, 0.059875961393117905, 0.06459636986255646, 0.03264505788683891, -0.04788878932595253, 0.09197977930307388, 0.13202671706676483, 0.010804083198308945, 0.021891575306653976, -0.06029428914189339, 0.00859546847641468, 0.13724735379219055, 0.08380905538797379, 0.07188816368579865, -0.1189960166811943, 0.1039695218205452, -0.12793031334877014, 0.012825626879930496, 0.1003151386976242, 0.07290501147508621, -0.07555162161588669, 0.010291754268109798, 0.08506964147090912, 0.011022612452507019, -0.05920688807964325, 0.07822714745998383, -0.0728456899523735, 0.08244745433330536, 0.06973744183778763, 0.04807322472333908, 0.025018000975251198, -0.07676050812005997, -0.12641751766204834, 0.05063344165682793, -0.17049135267734528, -0.08127200603485107, -0.1455313265323639, -0.037071894854307175, -0.1287170648574829, -0.0883587971329689, 0.0014749551191926003], [-0.05901368334889412, -0.15653067827224731, -0.0466250404715538, -0.16553649306297302, 0.04309125989675522, 0.09214109182357788, -0.08770693093538284, 0.05407128855586052, -0.10397354513406754, 0.05512089282274246, -0.06559258699417114, 0.04574200510978699, 0.0040157330222427845, 0.03509156405925751, 0.14368188381195068, -0.046816032379865646, 0.07532995939254761, -0.15239347517490387, -0.05957368388772011, 0.07538218796253204, -0.06805870682001114, 0.03633548319339752, 0.11114455759525299, -0.130021870136261, -0.08047430217266083, -0.1586439311504364, 0.06925645470619202, 0.052882127463817596, 0.14797794818878174, 0.0033928228076547384, -0.007799931801855564, 0.033344343304634094, -0.09485290199518204, -0.12590958178043365, 0.14950041472911835, -0.10836644470691681, 0.15614761412143707, -0.11798430234193802, 0.1562456339597702, -0.06273867934942245, 0.00994359515607357, 0.005451816599816084, -0.0648394450545311, -0.03526122495532036, 0.015928877517580986, -0.03508521243929863, 0.07382115721702576, -0.10574088990688324, -0.00884397141635418, 0.1079784631729126, 0.13826754689216614, 0.019155507907271385, -0.07473858445882797, 0.09114982932806015, -0.060091547667980194, -0.018533606082201004, -0.1155799925327301, -0.06770655512809753, 0.13371407985687256, 0.13014522194862366, 0.009587799198925495, 0.01991565153002739, -0.09108950197696686, 0.1398039311170578], [-0.14473982155323029, -0.027707846835255623, -0.064078688621521, 0.06157282367348671, 0.051635462790727615, 0.028776831924915314, 0.031057070940732956, -0.02258518524467945, -0.11375410854816437, -0.021223867312073708, 0.170768141746521, 0.12504398822784424, 0.03418929874897003, -0.03729024901986122, -0.003837193828076124, -0.002349499147385359, -0.00847760308533907, 0.020835258066654205, 0.00515493331477046, -0.10973037779331207, -0.04782017320394516, -0.03119828924536705, -0.04854928329586983, -0.012223077937960625, 0.1424940675497055, -0.018088921904563904, -0.001214263029396534, 0.0009398202528245747, 0.009662958793342113, -0.009319455362856388, 0.04104829207062721, 0.035958271473646164, -0.11600854992866516, 0.02392948418855667, 0.06505126506090164, -0.06173739954829216, 0.08566699922084808, 0.07370409369468689, 0.1612130105495453, 0.10433957725763321, -0.04547072947025299, -0.041859205812215805, 0.08321037888526917, -0.12575745582580566, 0.05525827035307884, -0.15380661189556122, -0.07895106077194214, -0.07453612238168716, 0.17639248073101044, -0.06930074095726013, 0.08883431553840637, 0.013133647851645947, 0.1167730912566185, 0.03400181233882904, -0.09105236828327179, 0.028277700766921043, -0.14419996738433838, -0.1336347460746765, 0.15861891210079193, -0.11316542327404022, 0.048064474016427994, 0.0024613719433546066, -0.12737828493118286, 0.09480725228786469], [-0.1263955682516098, 0.09138544648885727, -0.007798383012413979, -0.15356339514255524, 0.03363161161541939, -0.009797077625989914, -0.026256218552589417, 0.036975450813770294, -0.04730574041604996, -0.003590877866372466, -0.012650438584387302, -0.04532535746693611, 0.015964403748512268, -0.014274687506258488, -0.04047412797808647, 0.002936634235084057, -0.13500599563121796, -0.07676112651824951, -0.06479894369840622, 0.02424563840031624, -0.07768464088439941, -0.013553799130022526, 0.14171437919139862, 0.06152567267417908, 0.1609741598367691, -0.08525976538658142, 0.15912888944149017, -0.13175496459007263, 0.046945102512836456, 0.09138993173837662, -0.10600914061069489, 0.12513752281665802, -0.11514834314584732, 0.05719519779086113, 0.09413077682256699, -0.04324540123343468, 0.0659044161438942, 0.0662357360124588, -0.015785926952958107, 0.08655453473329544, 0.09373269230127335, -0.00853288359940052, 0.044731978327035904, -0.02700962871313095, -0.0029151306953281164, -0.027987275272607803, -0.09333574771881104, -0.11951347440481186, -0.0132850157096982, -0.013334241695702076, -0.03844821825623512, 0.014345605857670307, 0.1214689165353775, 0.12441346049308777, 0.05038786306977272, -0.037661369889974594, -0.16698779165744781, -0.0053570885211229324, -0.046193286776542664, -0.08453118056058884, 0.09002221375703812, 0.019729776307940483, -0.0386144183576107, 0.015337677672505379], [-0.0059088184498250484, -0.03890889883041382, -0.08679580688476562, -0.006715842057019472, 0.015403476543724537, 0.09428519755601883, -0.0783296674489975, -0.05855664238333702, -0.06225688382983208, -0.10651694238185883, 0.09833245724439621, -0.012131746858358383, -0.0949121043086052, -0.03158652037382126, 0.15460216999053955, -0.0005904236459173262, -0.10080069303512573, -0.0728728324174881, 0.012676689773797989, -0.05696636065840721, -0.12750430405139923, 0.12216693162918091, -0.06517242640256882, -0.1428362876176834, 0.07514652609825134, -0.11044066399335861, -0.008301508612930775, -0.13345038890838623, 0.08658354729413986, 0.15583521127700806, 0.04711361229419708, -0.03688237443566322, -0.05891834571957588, 4.284278838895261e-05, -0.06773984432220459, 0.014830277301371098, -0.043581683188676834, 0.03761223331093788, 0.09707099199295044, 0.051931481808423996, -0.07322587817907333, -0.08449598401784897, -0.008520076982676983, -0.14280514419078827, 0.10445413738489151, 0.05533573403954506, 0.020709240809082985, -0.024055052548646927, 0.10653962194919586, 0.04555602744221687, -0.016053779050707817, -0.1424311399459839, 0.1438002735376358, 0.05571500584483147, -0.11446840316057205, 0.06715546548366547, -0.014941466972231865, -0.13756678998470306, 0.06588783860206604, -0.005261847283691168, 0.11495684832334518, -0.0368964746594429, -0.034937500953674316, 0.04587627574801445], 