{"lstm.weight_ih_l0": [[0.0984317734837532, 0.10611284524202347, -0.021920103579759598, 0.14725668728351593, 0.07800254225730896, 0.07209329307079315, 0.054646946489810944, -0.007214867509901524, 0.059778593480587006, 0.025421632453799248, -0.09722345322370529, 0.01135091669857502, 0.07020410150289536, 0.05427909269928932], [0.14049232006072998, -0.08370732516050339, 0.07044989615678787, 0.09771139919757843, 0.015230553224682808, -0.04304087162017822, 0.04412949085235596, 0.031554147601127625, 0.04722646251320839, 0.00205850787460804, -0.1159476712346077, 0.12974247336387634, 0.11573820561170578, -0.0038410827983170748], [-0.004272704944014549, -0.03074866347014904, 0.1815941482782364, -0.12150345742702484, 0.00014245364582166076, 0.07384101301431656, -0.05015116557478905, 0.025936521589756012, 0.095357246696949, 0.1021762415766716, 0.1808265745639801, -0.10098455101251602, 0.11393840610980988, 0.10700352489948273], [-0.07093985378742218, 0.05770403519272804, -0.04159161075949669, 0.02686414122581482, 0.014031643979251385, 0.12292200326919556, 0.056275855749845505, 0.07209406048059464, -0.04630127176642418, 0.12236765772104263, 0.02786046452820301, -0.08404812216758728, 0.0863836407661438, 0.18118269741535187], [0.07855331152677536, 0.09043467789888382, -0.0015077772550284863, 0.07802585512399673, -0.05041120946407318, 0.08550634980201721, -0.04125971347093582, 0.004215107765048742, 0.11852549761533737, 0.05944046005606651, 0.19273832440376282, 0.04627200588583946, 0.04308190569281578, 0.06436771154403687], [-0.023359019309282303, 0.17228437960147858, -0.0026620407588779926, 0.12959600985050201, -0.06958063691854477, 0.1004355400800705, 0.16781605780124664, 0.04383831471204758, -0.06822088360786438, 0.027250535786151886, 0.12391532212495804, -0.06539403647184372, 0.05313342064619064, 0.049990519881248474], [0.1303834319114685, 0.07253685593605042, 0.18859192728996277, -0.07766535878181458, 0.0471343919634819, 0.14094917476177216, 0.09363476932048798, 0.00750921294093132, -0.03275946155190468, 0.08897830545902252, 0.11178059875965118, 0.06178762763738632, 0.006092014256864786, 0.12023194879293442], [0.09546683728694916, 0.026353908702731133, 0.03806385025382042, 0.11397107690572739, 0.10185843706130981, -0.016227243468165398, 0.0070349364541471004, 0.012178268283605576, 0.11916317790746689, -0.12116014212369919, 0.16240866482257843, 0.10471894592046738, 0.0636768788099289, -0.10042464733123779], [0.08171995729207993, 0.10791190713644028, 0.12290117144584656, -0.043606724590063095, 0.12462331354618073, 0.06141965463757515, 0.1626916080713272, -0.03583458065986633, 0.08781655132770538, -0.061120275408029556, -0.07544848322868347, 0.09056442975997925, 0.16497306525707245, 0.09052359312772751], [-0.07898306846618652, 0.17578938603401184, 0.10878043621778488, -0.08696427941322327, -0.00045241767656989396, 0.014797999523580074, -0.011074450798332691, 0.031057478860020638, -0.07591048628091812, 0.054777998477220535, 0.0693216323852539, 0.012600870802998543, 0.054968688637018204, 0.06636631488800049], [-0.015982558950781822, 0.12617674469947815, -0.09771055728197098, 0.12455688416957855, 0.17205451428890228, 0.01638028211891651, -0.0647808238863945, 0.16854840517044067, 0.075442835688591, 0.029118051752448082, -0.04949811100959778, -0.027565104886889458, 0.1252787560224533, 0.04796423017978668], [0.03274368867278099, -0.01653154380619526, 0.10078728199005127, 0.01678973063826561, 0.13268950581550598, 0.05283384770154953, -0.04699484258890152, -0.1766970306634903, -0.09657656401395798, 0.07851313054561615, 0.13585326075553894, 0.12436950206756592, -0.06121087819337845, 9.338613017462194e-05], [0.061085667461156845, 0.06257215887308121, 0.08579753339290619, 0.03231104835867882, -0.10375452786684036, 0.07619494944810867, 0.18003907799720764, 0.25804153084754944, 0.02812494896352291, -0.018425149843096733, 0.1256263554096222, 0.10469610244035721, 0.03623971715569496, 0.3366386890411377], [-0.06030040979385376, 0.028229467570781708, -0.01004690770059824, 0.0029797449242323637, -0.008188717998564243, -0.039436135441064835, -0.07677827030420303, -0.010204548947513103, 0.040740348398685455, 0.0070176091976463795, 0.024731967598199844, 0.07496162503957748, -0.05984959378838539, 0.15547281503677368], [-0.08548290282487869, 0.05727693811058998, -0.06959787011146545, -0.10403741151094437, -0.0803452879190445, 0.06522335112094879, 0.06839688867330551, 0.0437602624297142, -0.05855178087949753, -0.04537954553961754, 0.16320878267288208, 0.05815325304865837, 0.11758428812026978, -0.061976365745067596], [0.028223082423210144, -0.048602983355522156, -0.005799443926662207, 0.005685395561158657, 0.01679978147149086, 0.14041957259178162, -0.03399134799838066, 0.15185552835464478, 0.021840689703822136, 0.17075872421264648, 0.08794364333152771, 0.0040096682496368885, -0.0008659643353894353, -0.04141667112708092], [-0.021670309826731682, 0.1551005244255066, 0.12058623880147934, 0.09914574772119522, 0.05807846039533615, -0.04169949144124985, 0.009738434106111526, 0.10112332552671432, -0.010466434061527252, 0.025805165991187096, 0.004090046975761652, 0.06627361476421356, 0.029151752591133118, 0.09595103561878204], [0.07445072382688522, -0.0531555712223053, 0.09466011822223663, -0.07728791236877441, 0.1293085217475891, 0.1615927815437317, 0.02401801012456417, 0.025567956268787384, -0.010481929406523705, -0.05558982118964195, -0.08822561800479889, -0.035479169338941574, -0.04409384727478027, 0.15221266448497772], [-0.04049157351255417, 0.14567172527313232, 0.014905479736626148, 0.003523744409903884, -0.0838114395737648, -0.025369279086589813, -0.08610710501670837, -0.04545014351606369, 0.015663592144846916, -0.025591295212507248, 0.048067763447761536, -0.058584921061992645, 0.035389307886362076, -0.00996653363108635], [0.07438153028488159, 0.09698440134525299, -0.02049955725669861, -0.02443460188806057, -0.008302321657538414, 0.08350889384746552, 0.13263541460037231, -0.07422751933336258, -0.05776270851492882, 0.013836133293807507, -0.0432513952255249, 0.012635362334549427, 0.14747868478298187, 0.0895533412694931], [0.10802478343248367, 0.03403082489967346, -0.019169870764017105, 0.134685680270195, 0.024593153968453407, 0.058111779391765594, 0.03980013355612755, 0.003025940153747797, 0.055180683732032776, 0.08837098628282547, -0.002550363540649414, 0.13634690642356873, -0.012948294170200825, -0.16439932584762573], [0.07235119491815567, 0.030777735635638237, 0.0019709235057234764, 0.047079481184482574, 0.019035030156373978, 0.16337361931800842, 0.14836111664772034, 0.045239195227622986, 0.14221437275409698, 0.11233212798833847, 0.08857321739196777, 0.04300617054104805, -0.0299965962767601, 0.004349089693278074], [0.3306316137313843, -0.03067847713828087, 0.15833762288093567, 0.08913029730319977, 0.08400659263134003, 0.023768451064825058, 0.14793410897254944, 0.35233959555625916, 0.16988235712051392, 0.20854538679122925, 0.05811409652233124, 0.08989512920379639, 0.015641342848539352, -0.20211060345172882], [0.09785202145576477, -0.06812682002782822, 0.04493188485503197, -0.05646297335624695, 0.05610174685716629, -0.03599763661623001, -0.08886203914880753, -0.027772514149546623, -0.02101357840001583, 0.019825022667646408, 0.12530268728733063, -0.036406293511390686, -0.07553201168775558, 0.08293212950229645], [-0.0781414732336998, 0.0171588733792305, 0.036368951201438904, 0.05135893449187279, 0.01692761480808258, -0.01563526876270771, 0.11983047425746918, 0.0049786437302827835, -0.02558387815952301, 0.1567385196685791, -0.019129173830151558, 0.12739384174346924, -0.020046988502144814, 0.14143237471580505], [-0.02676638402044773, 0.12742139399051666, 0.03251485899090767, -0.025917325168848038, -0.07112906873226166, -0.003269704058766365, -0.03604753687977791, -0.05677350237965584, -0.06681426614522934, 0.059485550969839096, 0.13183635473251343, -0.06759551912546158, 0.07123483717441559, 0.1274378001689911], [0.11371956765651703, -0.012967073358595371, -0.10423315316438675, -1.794298441382125e-05, 0.10969174653291702, 0.11656360328197479, 0.0005892979679629207, 0.014005947858095169, 0.15329934656620026, -0.07649558037519455, 0.04752630367875099, 0.13048280775547028, -0.09496025741100311, 0.10784882307052612], [0.08283515274524689, 0.11501837521791458, 0.027161167934536934, 0.04599151760339737, 0.05276037007570267, 0.0879521444439888, -0.019259875640273094, 0.0338580496609211, 0.11681299656629562, 0.01082863099873066, -0.07678956538438797, -0.06800120323896408, 0.16201528906822205, -0.012455176562070847], [-0.07506490498781204, 0.09205545485019684, 0.11293249577283859, 0.08294780552387238, -0.021151432767510414, 0.10534270852804184, 0.14469562470912933, 0.06080116704106331, -0.014131281524896622, -0.03575313836336136, 0.11210006475448608, 0.08007130026817322, 0.017134280875325203, -0.009074198082089424], [0.12885591387748718, 0.052629053592681885, 0.023014506325125694, -0.09958547353744507, 0.07342810928821564, 0.11500263214111328, 0.026788093149662018, -0.053912047296762466, 0.024092603474855423, -0.08647330105304718, 0.01085833739489317, 0.1147589311003685, -0.060682814568281174, -0.07768547534942627], [0.002674509072676301, -0.016924617812037468, 0.12798666954040527, 0.1700715273618698, -0.03906721621751785, 0.14945922791957855, 0.08309868723154068, 0.04369004815816879, -0.02928672730922699, 0.031120875850319862, 0.08148659765720367, 0.14028993248939514, 0.11324403434991837, 0.16940881311893463], [0.033176571130752563, 0.029667215421795845, 0.1623396873474121, 0.027789361774921417, -0.009851437993347645, 0.06579229980707169, 0.07945439964532852, 0.013895266689360142, 0.07989697903394699, 0.13894277811050415, 0.020708240568637848, -0.08350493758916855, 0.014549857005476952, 0.008690595626831055], [0.09920477867126465, -0.023550953716039658, -0.03614989295601845, 0.12432149797677994, -0.0682600736618042, -0.048915255814790726, 0.14591924846172333, 0.0840129479765892, 0.039683397859334946, -0.06695764511823654, -0.08461279422044754, 0.02509528584778309, 0.07339704036712646, 0.15692004561424255], [0.02149326354265213, -0.004798100795596838, 0.07869452983140945, -0.03683258220553398, -0.09371345490217209, 0.12201040983200073, -0.0628943145275116, -0.05258938670158386, 0.134506493806839, -0.009068133309483528, 0.12914249300956726, -0.03909497335553169, 0.08802810311317444, 0.0052297539077699184], [-0.050645820796489716, 0.150088369846344, 0.14364618062973022, 0.08414959907531738, 0.0506291538476944, 0.12460905313491821, 0.02517291158437729, -0.11932669579982758, -0.008377754129469395, -0.01682455837726593, -0.06847582012414932, -0.007008662912994623, -0.010987432673573494, 0.15638549625873566], [-0.03877583518624306, 0.13931243121623993, -0.07211305946111679, 0.07873323559761047, 0.0034051386173814535, 0.11981243640184402, -0.07681248337030411, 0.060821469873189926, 0.01118411123752594, 0.11241433024406433, 0.09909479320049286, -0.08607175946235657, -0.07615002244710922, 0.09919814765453339], [-0.08015396445989609, 0.03905246779322624, -0.0651777982711792, 0.10118583589792252, -0.05561612546443939, 0.03064756840467453, 0.14987172186374664, 0.035258643329143524, 0.06104101985692978, -0.05098586902022362, 0.08357280492782593, 0.17329400777816772, 0.040010716766119, 0.10932983458042145], [0.14413699507713318, -0.04026016592979431, 0.128493532538414, 0.1778554767370224, 0.06806381046772003, 0.025199947878718376, 0.14787480235099792, 0.2249428927898407, -0.03158317133784294, 0.025527795776724815, 0.028302468359470367, 0.1620694398880005, 0.18191969394683838, 0.05667974427342415], [0.1539921909570694, 0.1903650164604187, 0.0960988998413086, -0.06995704770088196, -0.07806858420372009, 0.03727098926901817, -0.04739861562848091, -0.023160550743341446, -0.002893385710194707, 0.029623251408338547, -0.024957049638032913, -0.10168340802192688, 0.07383190095424652, 0.2106722891330719], [0.0021840755362063646, 0.1192396730184555, -0.06240183115005493, 0.04215037450194359, -0.07753373682498932, 0.11849971860647202, 0.11313634365797043, 0.08838867396116257, 0.12461728602647781, -0.04424160718917847, -0.09997577220201492, 0.12299124151468277, 0.07461920380592346, 0.08076918870210648], [-0.045624230057001114, -0.029607506468892097, -0.03927179425954819, 0.15320971608161926, -0.05210272595286369, 0.13562405109405518, 0.040585558861494064, 0.04611486941576004, 0.10477257519960403, -0.035783492028713226, -0.11136369407176971, 0.1074296161532402, -0.026755129918456078, 0.0949825569987297], [-0.011859430000185966, -0.02681971713900566, 0.14990060031414032, -0.0846041664481163, -0.0016446864465251565, -0.005858561955392361, 0.014925036579370499, -0.04930456355214119, -0.036745935678482056, 0.12165327370166779, 0.034910816699266434, -0.09497682005167007, -0.08281448483467102, 0.09351996332406998], [0.04673369973897934, 0.03138921409845352, -0.012313354760408401, 0.1766846626996994, 0.03918509557843208, 0.06731007248163223, 0.07036402821540833, 0.009252363815903664, 0.06552328169345856, 0.047140609472990036, -0.0783759355545044, 0.10385694354772568, 0.006321134511381388, -0.0001697633124422282], [0.058167800307273865, 0.02115262672305107, 0.12130521982908249, 0.009814445860683918, 0.08229060471057892, 0.009443244896829128, 0.05893106386065483, -0.07184597849845886, -0.06739160418510437, -0.054321710020303726, -0.03845096752047539, 0.14466357231140137, -0.08067513257265091, 0.04142414405941963], [0.07076022773981094, 0.05945967510342598, 0.09805864095687866, 0.005288988817483187, 0.03935286030173302, 0.012732166796922684, 0.010529613122344017, 0.04872557520866394, 0.12716980278491974, 0.04390868917107582, -0.001732498174533248, 0.017103958874940872, 0.058453936129808426, 0.04364791512489319], [0.0022142939269542694, 0.09466518461704254, 0.11483563482761383, 0.012598719447851181, 0.11410902440547943, 0.06546681374311447, 0.07580645382404327, 0.14051948487758636, -0.01863378845155239, 0.14858154952526093, 0.020772388204932213, 0.0968160480260849, 0.1394171267747879, 0.15063056349754333], [0.049367837607860565, 0.12537391483783722, 0.09590444713830948, 0.13491582870483398, 0.09356739372015, 0.08367770910263062, 0.06883013248443604, -0.08848042041063309, 0.13076132535934448, 0.14200474321842194, 0.004217659588903189, 0.1108517125248909, 0.16437311470508575, 0.07896365225315094], [0.12525226175785065, 0.06119956821203232, 0.0792519599199295, 0.014269071631133556, -0.017864814028143883, 0.13379201292991638, -0.062011558562517166, 0.06683472543954849, -0.04578719288110733, -0.03055800125002861, -0.07959567755460739, 0.011623998172581196, 0.15077731013298035, 0.16200721263885498], [0.14139099419116974, 0.0663602352142334, 0.07624135911464691, 0.026694713160395622, -0.05225663632154465, 0.09063256531953812, 0.10467302054166794, 0.03275280445814133, -0.05719257891178131, 0.0603211484849453, 0.021012894809246063, 0.06888719648122787, 0.07471641898155212, 0.17434225976467133], [-0.08443878591060638, 0.04847768321633339, 0.010318142361938953, 0.13727861642837524, 0.16368070244789124, -0.017937881872057915, -0.02113143354654312, 0.18853026628494263, 0.04864079877734184, -0.06860066205263138, -0.18420125544071198, 0.041180890053510666, 0.09978232532739639, 0.09041623771190643], [0.08203063905239105, 0.1232943907380104, 0.06255638599395752, 0.05296396091580391, 0.14227081835269928, -0.07767190039157867, -0.06843249499797821, 0.05165000632405281, 0.10824103653430939, 0.11684945225715637, 0.0005370387807488441, 0.11895550787448883, -0.021185504272580147, 0.010960112325847149], [-0.02049604430794716, 0.11685312539339066, -0.08061954379081726, 0.19257313013076782, -0.060973767191171646, 0.12850403785705566, 0.11318855732679367, 0.1253814846277237, 0.10194917023181915, -0.035849325358867645, -0.06737980991601944, 0.013232648372650146, 0.14360485970973969, -0.02482273057103157], [0.07527187466621399, 0.06980882585048676, -0.012336423620581627, 0.09977427124977112, 0.147378608584404, 0.03307504579424858, 0.08134406059980392, -0.01758897304534912, -0.01777435652911663, 0.16221614181995392, 0.053380634635686874, 0.07064241915941238, 0.039258576929569244, 0.08381800353527069], [0.047160565853118896, 0.007413296494632959, 0.09193655848503113, -0.00779727241024375, 0.004698434844613075, 0.1453212946653366, 0.09271616488695145, 0.028640810400247574, -0.029073335230350494, 0.12034685909748077, 0.09985412657260895, -0.006223202683031559, -0.0183455478399992, 0.1556195467710495], [-0.036776620894670486, -0.08635369688272476, 0.0683908462524414, 0.11366061121225357, -0.05259976163506508, 0.014494109898805618, 0.14702819287776947, 0.2085774689912796, 0.16769224405288696, 0.17599079012870789, 0.04275431111454964, 0.1479562371969223, 0.05440017580986023, -0.047585394233465195], [-0.01304044108837843, -0.010366277769207954, 0.11234100908041, 0.035096313804388046, -0.11257194727659225, 0.006178694777190685, -0.0053027234971523285, 0.019947992637753487, 0.033070530742406845, -0.11652356386184692, 0.14973436295986176, -0.029880743473768234, 0.100001759827137, -0.01705530285835266], [0.06118306145071983, -0.04418708384037018, 0.16150234639644623, 0.10703208297491074, 0.05167442932724953, 0.07181514799594879, 0.14048245549201965, -0.12297335267066956, 0.10246409475803375, -0.013211335055530071, 0.1582719385623932, -0.01705153100192547, 0.12204233556985855, 0.18181054294109344], [-0.0328630730509758, -0.03753112256526947, 0.16910797357559204, -0.04240696504712105, 0.026302531361579895, -0.07589758187532425, 0.15200279653072357, -0.13157764077186584, -0.07691801339387894, -0.022322826087474823, 0.11893699318170547, -0.02989194728434086, 0.014954946003854275, 0.03355987370014191], [-0.05514197051525116, 0.022412819787859917, 0.1022121012210846, -0.06350374966859818, 0.031639061868190765, 0.09523654729127884, 0.15736615657806396, 0.07472912222146988, 0.13905289769172668, 0.1343868523836136, 0.0855657309293747, 0.08773240447044373, 0.00922120176255703, 0.09098248183727264], [0.0626191571354866, -0.07569802552461624, 0.04815874993801117, 0.11387775093317032, 0.015480490401387215, 0.07915850728750229, -0.06422442942857742, 0.058001838624477386, 0.10746665298938751, 0.14528965950012207, 0.07670187950134277, -0.0035418113693594933, 0.09892389923334122, 0.0014309476828202605], [0.06529608368873596, -0.0288956668227911, -0.0032733522821217775, 0.10148370265960693, 0.013668850064277649, 0.1291532814502716, -0.016964023932814598, -0.03187624365091324, 0.1183968260884285, -0.006760758347809315, -0.04910288751125336, 0.16757018864154816, -0.0029833235312253237, -0.018116367980837822], [-0.04819847643375397, 0.058892711997032166, 0.01835627108812332, -0.006324103567749262, -0.05961811915040016, 0.1251477152109146, 0.11063969135284424, 0.13221415877342224, -0.0581960566341877, 0.13744017481803894, -0.04994746670126915, 0.01752929389476776, -0.043332867324352264, 0.053415246307849884], [-0.06861472874879837, 0.11748995631933212, 0.030545171350240707, -0.03102870285511017, 0.1186927929520607, 0.0330452136695385, 0.15386418998241425, 0.07230532914400101, -0.05149802938103676, -0.0073156035505235195, 0.031197596341371536, 0.01497148908674717, 0.04395506903529167, 0.13620097935199738], [-0.04834900423884392, 0.10633047670125961, 0.17738211154937744, 0.11815017461776733, 0.14273422956466675, -0.010276447050273418, 0.07872498035430908, -0.0038354548159986734, -0.0835205689072609, 0.13287924230098724, 0.06789538264274597, -0.005687922239303589, -0.0022698889952152967, 0.06560547649860382], [-0.008325005881488323, -0.01037791557610035, 0.09361445903778076, 0.13470430672168732, -0.002660694532096386, 0.0999239832162857, 0.07570415735244751, 0.13665547966957092, -0.05347806587815285, 0.016757290810346603, -0.07038833200931549, 0.07576657831668854, -0.014412426389753819, 0.12815611064434052], [0.10992660373449326, 0.1024385541677475, 0.10835358500480652, 0.027491401880979538, 0.06966642290353775, -0.05260111019015312, 0.024233827367424965, -0.05216293781995773, 0.1184714138507843, 0.001656480715610087, -0.016215799376368523, 0.13374583423137665, 0.05727289989590645, 0.19341254234313965], [-0.02324196696281433, 0.03130422905087471, 0.17890451848506927, -0.04126033931970596, 0.09499287605285645, 0.11112672090530396, 0.028422005474567413, 0.02023235894739628, 0.09898829460144043, 0.0010361387394368649, 0.034655630588531494, 0.06997166574001312, 0.07643468677997589, 0.08246791362762451], [-0.02944146655499935, -0.031122108921408653, 0.1662924438714981, 0.06746575981378555, 0.1430778205394745, 0.0037348149344325066, -0.07611476629972458, 0.06618713587522507, 0.04348206892609596, -0.012144028209149837, -0.059548914432525635, 0.08029965311288834, -0.010726431384682655, -0.020229430869221687], [0.0016928702825680375, 0.11369480192661285, 0.055387772619724274, 0.04242295026779175, -0.045179400593042374, 0.16794641315937042, -0.03582705929875374, 0.06391005218029022, 0.00977457594126463, 0.14881932735443115, 0.024211527779698372, -0.06212565675377846, 0.16276569664478302, -0.0391310453414917], [-0.014313883148133755, 0.1676727831363678, -0.0015833445359021425, 0.07412667572498322, -0.050203725695610046, -0.0075550079345703125, 0.03933834657073021, 0.031965311616659164, -0.0009471751982346177, 0.044571660459041595, 0.046796590089797974, -0.05543294548988342, 0.06869258731603622, 0.07917434722185135], [0.0468674935400486, 0.09546918421983719, -0.05676394701004028, 0.146690234541893, 0.11346683651208878, 0.010438305325806141, 0.15034547448158264, 0.024394026026129723, 0.05930308252573013, 0.13182690739631653, 0.082278311252594, 0.014303728938102722, 0.10312390327453613, -0.08853517472743988], [0.02055620215833187, 0.08711429685354233, -0.08448764681816101, 0.04728824272751808, 0.0975305512547493, 0.033625468611717224, -0.0913163423538208, -0.1284743696451187, 0.033803440630435944, 0.04305664822459221, 0.08534711599349976, 0.09709808230400085, 0.03660079836845398, -0.02647515945136547], [-0.014729876071214676, -0.044663045555353165, 0.06659986078739166, -0.054340288043022156, 0.016832608729600906, 0.1150713786482811, 0.08043541759252548, 0.13649287819862366, 0.060879260301589966, 0.12089600414037704, -0.03671698644757271, -0.0698665902018547, 0.15208682417869568, 0.06480545550584793], [0.11537187546491623, -0.026669643819332123, 0.09004594385623932, -0.030520165339112282, 0.16691523790359497, -0.057693369686603546, -0.07579349726438522, -0.061290089040994644, 0.1528148502111435, 0.03380069136619568, -0.056538600474596024, 0.11199712008237839, -0.0425284206867218, -0.043527424335479736], [0.15151874721050262, -0.06682206690311432, -0.053417183458805084, 0.13305240869522095, -0.013606781139969826, 0.1084827110171318, 0.1086975485086441, -0.018951022997498512, -0.03333301842212677, -0.050237830728292465, 0.07106927782297134, 0.027013814076781273, 0.019301805645227432, 0.10265568643808365], [0.0685388520359993, 0.06632129848003387, 0.1415400207042694, 0.006590803619474173, 0.08284953236579895, -0.032534755766391754, -0.0593213215470314, -0.12463460862636566, 0.15480764210224152, 0.13109688460826874, 0.16715972125530243, -0.05496172606945038, 0.0583987757563591, -0.032007329165935516], [0.1872253119945526, -0.00038393528666347265, 0.03298646956682205, 0.09181447327136993, 0.09022262692451477, 0.0150699308142066, 0.09062743186950684, 0.2523595988750458, 0.015289290808141232, 0.06837865710258484, 0.17126037180423737, 0.024831626564264297, -0.0319879986345768, 0.25495636463165283], [-0.035238828510046005, 0.09490471333265305, 0.06891524791717529, 0.0023261161986738443, 0.013139881193637848, 0.16420945525169373, 0.13226723670959473, 0.06645302474498749, 0.16924893856048584, 0.10314274579286575, -0.022259848192334175, 0.1520286351442337, -0.011564535088837147, 0.06521248072385788], [0.0807335376739502, 0.1346830278635025, 0.10751911252737045, 0.03445848450064659, -0.05045878887176514, 0.1295495629310608, -0.09753675013780594, 0.051526252180337906, -0.048596594482660294, 0.09705567359924316, 0.07343799620866776, -0.06993991881608963, -0.04140589013695717, 0.042519617825746536], [0.10695703327655792, 0.07570299506187439, 0.10104990750551224, 0.02381022274494171, 0.04338138550519943, 0.13004812598228455, 0.05899928882718086, 0.13546812534332275, 0.08757444471120834, 0.04599255695939064, 0.03711237013339996, 0.07848452031612396, 0.03928240016102791, 0.08115073293447495], [0.020652668550610542, -0.004734187386929989, 0.08414451032876968, 0.10452449321746826, -0.06498239934444427, -0.022171776741743088, 0.027265969663858414, 0.10844254493713379, 0.1379772573709488, 0.08897251635789871, -0.050520192831754684, 0.0960984006524086, -0.033340826630592346, 0.08717598021030426], [-0.03382583335042, 0.05782707408070564, 0.0685977041721344, 0.15139976143836975, 0.010754751972854137, 0.02920169197022915, -0.07683367282152176, 0.04812539741396904, 0.15107731521129608, 0.02849530056118965, -0.08105939626693726, 0.14050732553005219, -0.04148721322417259, 0.15956664085388184], [0.05048050358891487, 0.13856720924377441, 0.028365083038806915, -0.07798852771520615, -0.013367462903261185, 0.07928963005542755, 0.01327984407544136, -0.04597220569849014, -0.004532688297331333, 0.1470000296831131, 0.06005668640136719, 0.1320984661579132, -0.04385411739349365, 0.09610287845134735], [0.12564212083816528, 0.12866592407226562, 0.1422761231660843, 0.1295679211616516, 0.029552044346928596, 0.08104847371578217, -0.0377139151096344, -0.028219668194651604, -0.039674848318099976, 0.10361170023679733, 0.15224944055080414, 0.08239343762397766, -0.027883559465408325, -0.10187844187021255], [-0.08458150178194046, 0.04485646262764931, 0.14005687832832336, 0.09193386882543564, 0.026109354570508003, -0.011792168952524662, -0.06176842749118805, -0.006226953584700823, 0.0013527579139918089, -0.0646149143576622, 0.13044175505638123, 0.049097564071416855, 0.1210731789469719, -0.12849529087543488], [0.15379507839679718, -0.01687719114124775, 0.07532098144292831, -0.025472860783338547, -0.01367233507335186, 0.009338515810668468, -0.004827647935599089, -0.020230522379279137, 0.09196203947067261, -0.004312014672905207, 0.09818927198648453, -0.0536145456135273, 0.021811338141560555, 0.12016206979751587], [0.1277344971895218, 0.14488933980464935, 0.007869331166148186, 0.02016514167189598, 0.08374826610088348, 0.08527923375368118, 0.2428562194108963, 0.4359455108642578, 0.17902402579784393, -0.015667611733078957, 0.05436554551124573, -0.03876516968011856, 0.0956449806690216, 0.35717344284057617], [0.13604901731014252, -0.07552231103181839, -0.0051442408002913, -0.04630429297685623, 0.13375084102153778, 0.13516774773597717, -0.08848778903484344, -0.06377192586660385, -0.008797342889010906, 0.06295668333768845, 0.03895803913474083, -0.08514748513698578, -0.04236573353409767, -0.1399114578962326], [0.043001510202884674, 0.03837013989686966, -0.08339936286211014, -0.03561709076166153, 0.16950005292892456, 0.1544247567653656, 0.11336034536361694, 0.1182323470711708, 0.13150350749492645, -0.026032719761133194, -0.07797791808843613, 0.022105084732174873, -0.013716244138777256, 0.18736422061920166], [-0.1199345737695694, -0.0733775869011879, -0.10113110393285751, 0.03295385465025902, -0.07804203778505325, -0.05387142300605774, 0.01178833283483982, 0.04465894773602486, -0.028026368468999863, 0.018931783735752106, 0.10597599297761917, 0.15388421714305878, -0.01086440309882164, 0.13912053406238556], [0.1268480271100998, -0.07900933176279068, 0.0024343752302229404, -0.07709972560405731, -0.013026589527726173, -0.08945737034082413, -0.0552406832575798, 0.07020416110754013, -0.03422835096716881, -0.07207868993282318, 0.061414770781993866, -0.08467219024896622, -0.03004876896739006, 0.016594979912042618], [-0.046265870332717896, -0.055199459195137024, 0.09109198302030563, -0.006991504225879908, 0.062278687953948975, 0.0625680461525917, 0.038560912013053894, 0.051375679671764374, -0.022980734705924988, 0.130759596824646, 0.14691032469272614, 0.1317095309495926, 0.16410064697265625, -0.019094886258244514], [0.1599898338317871, -0.04707833379507065, 0.031412273645401, -0.062345098704099655, 0.044118598103523254, 0.1143353283405304, -0.006646548397839069, 0.009671652689576149, 0.0833052322268486, 0.061664436012506485, 0.1174280047416687, 0.061666183173656464, -0.03190311789512634, 0.056443262845277786], [0.10762505233287811, 0.11110880225896835, 0.049812402576208115, 0.06398549675941467, -0.03148692101240158, -0.05367642268538475, -0.060131993144750595, -0.06417271494865417, 0.02205336093902588, -0.0737667977809906, -0.03056963160634041, 0.16096973419189453, 0.11844409257173538, 0.14711540937423706], [0.010167006403207779, -0.028266865760087967, -0.03348575904965401, 0.03834789618849754, -0.026411646977066994, 0.09695590287446976, 0.16401167213916779, 0.09019099920988083, -0.019306089729070663, -0.05084677413105965, -0.009048170410096645, 0.003700435860082507, 0.07660218328237534, 0.12323439866304398], [-0.04572705179452896, 0.16478179395198822, 0.13469263911247253, 0.061847928911447525, 0.004823180381208658, 0.07635641098022461, 0.10040970891714096, 0.02734530158340931, 0.05886538326740265, 0.13666944205760956, -0.07025358825922012, 0.12168877571821213, 0.11681043356657028, 0.0739234983921051], [0.10785116255283356, -0.06021779775619507, 0.08315891027450562, 0.033984240144491196, -0.07557006180286407, 0.11008754372596741, -0.07332110404968262, 0.1560717523097992, 0.045263830572366714, 0.06854225695133209, 0.05440891534090042, 0.10805977880954742, 0.1300739198923111, -0.04030681028962135], [0.018074478954076767, -0.012017949484288692, 0.12468454241752625, -0.05314669758081436, -0.010076089762151241, 0.03717384487390518, 0.08449292182922363, -0.06831897795200348, 0.011867359280586243, 0.12614494562149048, 0.19013825058937073, 0.12115292996168137, 0.13278937339782715, -0.10557489842176437], [-0.00027403648709878325, -0.0024843623396009207, 0.12701070308685303, 0.1610773354768753, 0.09247520565986633, -0.0637790635228157, 0.13233396410942078, 0.13085408508777618, 0.05027489364147186, 0.14233219623565674, -0.0082100173458457, 0.005784252658486366, 0.13962790369987488, -0.11122797429561615], [0.1583959311246872, 0.01006004586815834, 0.12469296157360077, 0.12707041203975677, 0.019230488687753677, 0.04782940819859505, 0.06495066732168198, 0.10859648883342743, -0.03473784029483795, 0.09640122950077057, 0.002602919237688184, 0.0005954211810603738, -0.030889181420207024, 0.03474933281540871], [0.08929476886987686, 0.10415200144052505, 0.06853905320167542, 0.14225023984909058, 0.14517852663993835, 0.07971818745136261, 0.08264897763729095, -0.06378066539764404, 0.11904535442590714, 0.09925538301467896, -0.05199538916349411, 0.046276696026325226, -0.07482670992612839, 0.11574229598045349], [0.13348698616027832, 0.019460517913103104, 0.040686432272195816, 0.15591418743133545, 0.0400126688182354, 0.12931093573570251, 0.07378354668617249, 0.18250510096549988, 0.09897230565547943, 0.0578923374414444, 0.00025466812076047063, 0.048446908593177795, 0.1747748851776123, 0.06676384061574936], [0.1342618465423584, -0.06144951656460762, 0.16350647807121277, 0.08488020300865173, 0.08509460091590881, -0.035460565239191055, 0.07540490478277206, -0.08854857832193375, 0.08822590857744217, -0.06544681638479233, 0.05608686804771423, 0.1492229700088501, -0.0031115487217903137, -0.06932011246681213], [0.10757115483283997, 0.09386058151721954, 0.021051732823252678, 0.042421065270900726, 0.05440610274672508, -0.029898200184106827, 0.05101710185408592, 0.02299240417778492, -0.08329576998949051, 0.14411263167858124, -0.138301819562912, -0.045336153358221054, 0.0005674634012393653, -0.04863030090928078], [0.010621057823300362, 0.13928593695163727, 0.057393427938222885, 0.13257436454296112, 0.1174560934305191, 0.017291607335209846, 0.07734953612089157, 0.1259647160768509, -0.022419989109039307, -0.06697158515453339, -0.07100775092840195, -0.03625202551484108, 0.14552392065525055, -0.013369208201766014], [0.07310343533754349, 0.09514624625444412, 0.11490687727928162, 0.08425590395927429, 0.14010755717754364, -0.06796665489673615, -0.005827924236655235, 0.15804758667945862, 0.12719757854938507, 0.14058569073677063, 0.10853261500597, 0.12919126451015472, 0.1091594398021698, -0.03414712846279144], [-0.3959697186946869, -0.1090172603726387, -0.2787829041481018, 0.03292571380734444, 0.1270424723625183, 0.02505991980433464, -0.13132011890411377, -0.27182522416114807, -0.3575436770915985, -0.040871310979127884, -0.10549531877040863, -0.04626248776912689, -0.09673106670379639, 0.17090624570846558], [0.08226899057626724, 0.022509412840008736, 0.0981777161359787, 0.010563157498836517, 0.10106661915779114, 0.12159782648086548, 0.10449467599391937, 0.021994590759277344, -0.03524024412035942, -0.004377678036689758, -0.024476224556565285, 0.0783580020070076, 0.05856230854988098, 0.08376775681972504], [0.06666305661201477, 0.16072514653205872, 0.12877897918224335, 0.1337839663028717, 0.089952751994133, 0.015783092007040977, 0.04866869002580643, 0.12370964884757996, -0.0065231285989284515, -0.015841614454984665, 0.09738766402006149, -0.061714593321084976, 0.12076312303543091, 0.12474842369556427], [0.1452004313468933, 0.10686583071947098, -0.02256024442613125, -0.043319545686244965, 0.14391107857227325, -0.017019180580973625, 0.14261987805366516, 0.03020300716161728, 0.10527711361646652, 0.06244518607854843, 0.10457006096839905, 0.16516652703285217, 0.1531982421875, 0.040281329303979874], [-0.06094036623835564, -0.019535072147846222, -0.003108935197815299, 0.09473244100809097, -0.01332913152873516, 0.15427789092063904, -0.05297096446156502, 0.15432825684547424, 0.011986142955720425, -0.030365994200110435, 0.04077426344156265, 0.09785247594118118, -0.03313412889838219, 0.05516504868865013], [0.1038394644856453, 0.004517469089478254, 0.1428515613079071, 0.14427407085895538, 0.1632263958454132, 0.16458384692668915, 0.05052892863750458, 0.05819690600037575, 0.07482784986495972, 0.12723350524902344, -0.059075977653265, -0.05530010163784027, 0.01785760559141636, -0.02996635250747204], [0.08740147203207016, 0.00495637534186244, 0.026917213574051857, 0.08043327927589417, 0.024268463253974915, 0.07320983707904816, 0.11514962464570999, 0.07137071341276169, 0.014881126582622528, -0.035117894411087036, -0.14072473347187042, 0.16487011313438416, 0.11090634018182755, -0.012527774088084698], [-0.0720459446310997, 0.05962645635008812, -0.060389142483472824, 0.03992532193660736, 0.08883783966302872, -0.04802084341645241, -0.010948113165795803, 0.0750746950507164, 0.010165344923734665, 0.1661311388015747, 0.1280967891216278, -0.029874980449676514, 0.11948155611753464, -0.012602338567376137], [0.14781677722930908, -0.043382517993450165, 0.17530971765518188, -0.028298573568463326, -0.01469326950609684, 0.12090963870286942, 0.1202550083398819, -0.10743486136198044, -0.008873424492776394, 0.06685849279165268, 0.10996972769498825, 0.09696350991725922, 0.0761200338602066, 0.05889414995908737], [-0.06301793456077576, 0.045039910823106766, 0.0024503429885953665, 0.013476748950779438, 0.12464281171560287, -0.010325299575924873, 0.16594509780406952, -0.04431026428937912, -0.06555617600679398, 0.02037418633699417, -0.031888265162706375, -0.005976120475679636, 0.16398845613002777, 0.08708740025758743], [-0.009031327441334724, -0.0673748031258583, 0.1673039346933365, -0.028242139145731926, 0.02734912931919098, -0.005238874349743128, 0.0439988374710083, -0.05457372963428497, -0.053345270454883575, -0.029092928394675255, 0.03345523029565811, 0.11153088510036469, -0.007220190484076738, 0.04028595611453056], [0.10795523971319199, 0.16410952806472778, 0.025317030027508736, 0.010137183591723442, 0.021444952115416527, 0.009778393432497978, -0.013001447543501854, 0.09983684122562408, -0.029427850618958473, -0.015053331851959229, -0.04778206720948219, 0.02920813113451004, -0.01232224516570568, -0.11414071172475815], [-0.0517885759472847, 0.03852345049381256, 0.14595071971416473, 0.03769460693001747, 0.13587036728858948, -0.05216273292899132, 0.04863572120666504, -0.03373686969280243, 0.10453332960605621, -0.029831601306796074, -0.07963091880083084, -0.0712130144238472, 0.13661643862724304, -0.001598121365532279], [-0.01832732744514942, -0.02078479900956154, 0.16267231106758118, -0.08591385930776596, 0.13703741133213043, -0.05210857465863228, -0.0656597688794136, 0.08436578512191772, -0.08176419883966446, 0.1193164736032486, -0.03669028729200363, 0.030064735561609268, 0.09284107387065887, 0.011880754493176937], [0.12449327856302261, -0.0006730000022798777, -0.047468334436416626, 0.13706091046333313, 0.027817411348223686, 0.11366365104913712, 0.03580281510949135, 0.12131630629301071, 0.018380580469965935, 0.060782916843891144, 0.012439203448593616, -0.07725851982831955, 0.060083940625190735, -0.06678608059883118], [0.108584925532341, 0.047444503754377365, 0.04434548690915108, 0.04538045823574066, 0.1363178789615631, 0.14840278029441833, 0.1290697455406189, 0.04416852816939354, 0.06500037014484406, 0.11825939267873764, -0.03887541964650154, 0.07687295228242874, 0.125331312417984, 0.06122400611639023], [0.023548291996121407, 0.043533358722925186, -0.030935775488615036, 0.08207894116640091, 0.13214223086833954, 0.15534581243991852, -0.0381990410387516, -0.06170845404267311, 0.05221004784107208, 0.04480338841676712, 0.02110213413834572, 0.007007440086454153, -0.01875138469040394, 0.12570278346538544], [0.11163769662380219, -0.07702867686748505, -0.03928590565919876, 0.002276144688948989, -0.07619211077690125, -0.005768313072621822, 0.011228209361433983, -0.06168339028954506, 0.0394536629319191, -0.03879573941230774, -0.05424750968813896, -0.07320702075958252, 0.15806373953819275, 0.1648126244544983], [-0.016791844740509987, 0.15937724709510803, -0.0745902881026268, 0.1281912624835968, 0.06091122329235077, 0.12719671428203583, 0.037267569452524185, 0.017779916524887085, 0.019326578825712204, -0.07159368693828583, 0.03748597577214241, 0.09196089208126068, 0.11213885247707367, -0.033271729946136475], [0.11070390790700912, -0.07376358658075333, -0.012386721558868885, 0.06743523478507996, 0.1447349637746811, 0.02967345155775547, 0.14222469925880432, 0.022515371441841125, 0.13239942491054535, 0.04396384581923485, -0.046496953815221786, -0.05074593052268028, 0.13648176193237305, 0.1234341487288475], [-0.01829368993639946, -0.0697450116276741, 0.057791534811258316, 0.1440655142068863, 0.09687962383031845, -0.03730877488851547, -0.015086094848811626, 0.0662831962108612, -0.09365370124578476, 0.11939061433076859, -0.09425055980682373, 0.09164031594991684, -0.028802214190363884, 0.03387510031461716], [-0.054057393223047256, 0.018641535192728043, -0.01957736536860466, 0.11714563518762589, -0.013142673298716545, 0.02391786128282547, 0.12479845434427261, -0.08901683986186981, -0.04888996481895447, 0.026488712057471275, -0.03954462707042694, -0.019991280511021614, -0.0075663914903998375, -0.018954366445541382], [0.017141347751021385, 0.052472636103630066, -0.13844650983810425, -0.0013749123318120837, -0.1173166036605835, -0.025068406015634537, -0.15364837646484375, -0.13517984747886658, 0.03247634321451187, -0.023605527356266975, 0.10302340239286423, -0.06743673980236053, -0.14445939660072327, -0.1045747622847557], [0.1051284670829773, 0.11599315702915192, 0.05227477476000786, -0.03582366928458214, 0.07491567730903625, 0.00999779999256134, 0.08892961591482162, -0.06116104871034622, 0.1191718578338623, 0.023888709023594856, -0.05327904224395752, 0.15363386273384094, -0.08424393832683563, -0.06766410917043686], [0.08974934369325638, 0.026027387008070946, 0.030908817425370216, -0.07773640006780624, 0.12212662398815155, 0.12606655061244965, 0.07082412391901016, -0.051261503249406815, 0.008658266626298428, -0.017351748421788216, -0.04839551821351051, 0.08348222076892853, 0.11857952922582626, 0.10286343842744827], [0.020975444465875626, 0.08017343282699585, 0.15308429300785065, -0.020579930394887924, -0.04351146146655083, 0.036322589963674545, 0.054495152086019516, 0.047388672828674316, -0.07892590016126633, -0.04124520346522331, 0.10900191217660904, 0.06301084160804749, 0.10802268236875534, 0.009534837678074837], [0.10136573016643524, -0.1769612580537796, -0.11014661937952042, 0.036248642951250076, -0.04836822673678398, -0.10817715525627136, 0.11015024036169052, 0.14638197422027588, 0.00844940822571516, 0.010156810283660889, -0.0848311185836792, -0.02248978242278099, 0.0812188908457756, -0.21187910437583923], [-0.012818128801882267, -0.18052265048027039, -0.11502905189990997, -0.023838749155402184, 0.052993692457675934, -0.009860046207904816, -0.06740496307611465, 0.037618473172187805, -0.11809933930635452, -0.056178923696279526, -0.011569434776902199, 0.08180497586727142, -0.13943800330162048, -0.22188647091388702], [-0.07646502554416656, -0.0488719642162323, 0.17175984382629395, 0.12520955502986908, 0.09860922396183014, 0.10767066478729248, 0.008326842449605465, 0.05827204883098602, -0.025955647230148315, 0.13540038466453552, -0.06618288159370422, -0.027405239641666412, 0.05903743952512741, 0.16845692694187164], [-0.06186981499195099, 0.19350206851959229, 0.05462295189499855, 0.027715617790818214, 0.11930117756128311, 0.13345365226268768, -0.028556445613503456, -0.11382869631052017, 0.11765877902507782, -0.04618498310446739, 0.12959378957748413, 0.07914905995130539, 0.06636187434196472, 0.06810317188501358], [-0.042792558670043945, 0.07418105751276016, -0.020585831254720688, 0.12373515218496323, 0.0715709701180458, -0.017927026376128197, 0.14473450183868408, 0.14629656076431274, 0.1578792780637741, -0.033839449286460876, -0.08049894124269485, 0.10565309971570969, 0.048261430114507675, 0.013418469578027725], [-0.06709307432174683, -0.05458516255021095, 0.14996418356895447, 0.020615408197045326, 0.057381413877010345, -0.032251399010419846, 0.0026487112045288086, 0.09835241734981537, 0.10271049290895462, 0.06066868081688881, -0.06073405593633652, 0.03443295881152153, 0.13651274144649506, 0.14355337619781494], [-0.056249409914016724, 0.041045766323804855, -0.07132015377283096, -0.021150726824998856, -0.015029278583824635, -0.15274831652641296, -0.06122772768139839, -0.1079193502664566, 0.014168520458042622, 0.05930013582110405, 0.0713060274720192, -0.060225412249565125, -0.14358094334602356, -0.09889139980077744], [0.05817146971821785, -0.16484452784061432, -0.025813832879066467, 0.12264527380466461, 0.023519687354564667, -0.08046332001686096, 0.03513471409678459, 0.1676395982503891, 0.10587743669748306, -0.11584687978029251, 0.03191916644573212, -0.11291401833295822, -0.09945499897003174, -0.20482701063156128], [-0.30709129571914673, -0.17033225297927856, -0.06846383213996887, 0.058531735092401505, 0.017969131469726562, 0.11823825538158417, -0.14229732751846313, -0.2188798189163208, -0.19301238656044006, 0.034176602959632874, -0.009944130666553974, 0.0497419610619545, 0.018473783507943153, 0.08241145312786102], [-0.035501424223184586, -0.13274197280406952, -0.0680585503578186, -0.14782392978668213, -0.07199448347091675, -0.054787300527095795, 0.056873273104429245, -0.008823700249195099, -0.15763892233371735, -0.011002680286765099, -0.07035999000072479, -0.052297938615083694, -0.013447285629808903, -0.006975713185966015], [-0.08683422952890396, -0.12198727577924728, 0.028569426387548447, 0.014465674757957458, -0.07770230621099472, 0.047693122178316116, -0.05806399881839752, 0.02528529055416584, -0.13025584816932678, 0.03184812143445015, -0.08022208511829376, -0.02644455060362816, -0.015316165052354336, -0.09758268296718597], [0.08645310997962952, -0.04951617494225502, 0.06015324220061302, -0.1658184826374054, -0.020300235599279404, 0.06000079959630966, -0.05434013903141022, -0.09837260842323303, -0.11978387832641602, -0.13974905014038086, -0.08254151791334152, -0.07420793920755386, -0.12514443695545197, -0.11390531063079834], [0.14911141991615295, 0.13130615651607513, -0.050464171916246414, 0.0446181558072567, 0.10272685438394547, 0.10616984218358994, -0.05580753833055496, 0.09394807368516922, 0.049756672233343124, 0.16103185713291168, -0.11230024695396423, 0.06719671934843063, 0.14024370908737183, 0.11779488623142242], [0.13785210251808167, 0.06847905367612839, 0.1574481725692749, 0.04058578237891197, -0.04787081107497215, 0.038822758942842484, -0.06128194183111191, -0.027335263788700104, 0.0741996243596077, 0.05545802786946297, -0.08803977817296982, 0.059119101613759995, 0.13803038001060486, 0.011443021707236767], [0.040291886776685715, -0.05729712173342705, -0.04274723306298256, 0.027262279763817787, 0.08401302993297577, -0.061539046466350555, 0.16030684113502502, 0.04547648876905441, 0.03563150390982628, -0.007404601667076349, -0.04321908578276634, 0.13687819242477417, 0.1065211370587349, 0.09432588517665863], [-0.09559514373540878, -0.23512397706508636, -0.19443479180335999, -0.10944058001041412, 0.04175950586795807, 0.030046479776501656, 0.05192737653851509, 0.13084614276885986, -0.05679680407047272, 0.08998716622591019, -0.11084618419408798, -0.03938068822026253, -0.09290493279695511, -0.1311773806810379], [0.002737784758210182, 0.019860446453094482, 0.05294563248753548, 0.06174805387854576, 0.027001764625310898, 0.03286660090088844, -0.057071663439273834, 0.11326383054256439, -0.08390333503484726, 0.04229669272899628, -0.002148207975551486, 0.045902132987976074, 0.0933268815279007, -0.050980135798454285], [-0.09223148226737976, 0.14987482130527496, 0.15226194262504578, -0.04957306757569313, -0.11246272176504135, 0.06569629162549973, -0.052927423268556595, 0.0939883217215538, -0.014989374205470085, 0.11301000416278839, -0.0008738813339732587, -0.08792058378458023, -0.012969113886356354, 0.18301576375961304], [-0.33795657753944397, 0.051080189645290375, -0.11232990026473999, 0.023344721645116806, 0.01104028895497322, -0.11203736811876297, -0.1073332354426384, -0.32923778891563416, -0.32058897614479065, 0.0013332793023437262, 0.1497223973274231, 0.030954871326684952, -0.022058585658669472, -0.135348841547966], [-0.023591317236423492, 0.1479828804731369, 0.08593753725290298, -0.10167589783668518, 0.09620929509401321, 0.09908825159072876, 0.10130303353071213, -0.013701177202165127, 0.07122355699539185, -0.051991671323776245, 0.11049264669418335, 0.029863283038139343, 0.10785870999097824, 0.19881579279899597], [-0.009154271334409714, -0.09201059490442276, 0.10080278664827347, 0.04107518866658211, 0.11374305933713913, 0.11645209044218063, 0.04249132052063942, 0.05045084282755852, 0.12344949692487717, 0.07701811194419861, -0.0937238559126854, 0.07077944278717041, 0.0003311356995254755, -0.020518220961093903], [-0.04959438741207123, -0.04986988380551338, -0.04244700446724892, -0.08424567431211472, -0.09404990822076797, 0.05436187610030174, 0.1421286165714264, -0.014237388037145138, 0.029253577813506126, -0.057851023972034454, 0.03581394627690315, 0.011099252849817276, -0.05024624615907669, 0.10088945180177689], [-0.013179346919059753, 0.025197673588991165, 0.10336090624332428, -0.15484778583049774, -0.1149330586194992, -0.1274484544992447, -0.024509022012352943, -0.09888194501399994, -0.1014297679066658, 0.027712352573871613, -0.04053986817598343, -0.013719105161726475, 0.04289626702666283, -0.11963801831007004], [-0.043871138244867325, 0.046253759413957596, -0.06976368278265, 0.03813883289694786, -0.06624344736337662, 0.00248071295209229, 0.015473980456590652, -0.12567445635795593, -0.13281677663326263, -0.1368534117937088, -0.05760595574975014, -0.12846611440181732, -0.12988443672657013, -0.16405180096626282], [-0.0854385644197464, 0.03890035301446915, -0.1735001504421234, 0.1080952137708664, -0.11796415597200394, -0.033670809119939804, -0.027087224647402763, 0.09133723378181458, -0.020493149757385254, -0.056914642453193665, 0.0027932985685765743, 0.07340075075626373, -0.11473020911216736, -0.08854271471500397], [0.022832656279206276, -0.052661165595054626, 0.0799286738038063, 0.05371969938278198, 0.12543155252933502, 0.04235829785466194, 0.04261709377169609, -0.09463880956172943, 0.0031376637052744627, -0.015214106999337673, 0.0836992934346199, -0.0756385326385498, 0.06704110652208328, 0.02589612454175949], [-0.02422942779958248, 0.13598744571208954, -0.043990712612867355, 0.12860554456710815, 0.038445815443992615, -0.057780079543590546, 0.07721269875764847, 0.0909404382109642, 0.08865530043840408, 0.01227877102792263, 0.04840803146362305, 0.09533464163541794, 0.08382999151945114, -0.034257080405950546], [0.0458734892308712, -0.0829879492521286, -0.02776552177965641, -0.14539068937301636, -0.03249882906675339, -0.15086621046066284, 0.06219018995761871, -0.08735670149326324, 0.056897591799497604, 0.054298676550388336, 0.02211526408791542, -0.09492846578359604, -0.14376018941402435, -0.00276778731495142], [0.06959652900695801, 0.007074694614857435, 0.016986628994345665, 0.051798805594444275, 0.12833815813064575, 0.0276972446590662, 0.11497540771961212, 0.14911702275276184, 0.1416933834552765, -0.07159373164176941, 0.04827862232923508, 0.12961935997009277, 0.06788773834705353, -0.04349139705300331], [0.11811494827270508, 0.17701216042041779, 0.04319339245557785, 0.1038123369216919, 0.013838686048984528, 0.10574281215667725, -0.06339747458696365, 0.07696470618247986, 0.10183349251747131, 0.10935178399085999, 0.022916916757822037, 0.13585203886032104, -0.06377416849136353, 0.18323783576488495], [-0.10795874893665314, -0.18489529192447662, 0.052315853536129, -0.09851843118667603, 0.015908194705843925, 0.01646755076944828, -0.04787449538707733, -0.12034166604280472, 0.06282968074083328, -0.13849347829818726, -0.14015664160251617, 0.08789059519767761, 0.0026668645441532135, -0.0005224451888352633], [-0.06811407208442688, -0.04256493225693703, -0.07170572131872177, -0.06824163347482681, -0.07976343482732773, -0.05868791788816452, 0.05478795990347862, 0.07441922277212143, -0.08333803713321686, -0.13151223957538605, 0.031597625464200974, -0.01503781322389841, -0.07088643312454224, -0.06986084580421448], [0.061002884060144424, -0.11327323317527771, -0.01291687972843647, -0.16446709632873535, 0.05293437838554382, -0.06401219218969345, -0.1629139930009842, -0.14061479270458221, -0.0017448168946430087, 0.015016871504485607, 0.0863778367638588, -0.11385318636894226, -0.13612748682498932, -0.03749967738986015], [0.0807550698518753, 0.09217322617769241, 0.1041865348815918, 0.12694889307022095, 0.0824991837143898, 0.1173124760389328, 0.0267446581274271, 0.1472499668598175, 0.1448211967945099, 0.0012849434278905392, 0.016655655577778816, -0.03606019914150238, 0.04060659185051918, -0.09465605020523071], [0.04116499051451683, -0.04532558098435402, -0.034575507044792175, 0.00891618151217699, 0.014955766499042511, -0.14183640480041504, -0.1626541167497635, 0.10125333070755005, -0.08791885524988174, -0.1386997550725937, 0.10839559137821198, -0.017765691503882408, 0.013261537067592144, -0.21143566071987152], [0.020047923550009727, 0.004939498379826546, -0.07260612398386002, -0.08126753568649292, 0.0022263764403760433, -0.12246455252170563, -0.012319895438849926, -0.12337204068899155, -0.02319023571908474, 0.011989148333668709, 0.053286392241716385, -0.13657677173614502, -0.08721183240413666, -0.17516280710697174], [0.06268543750047684, 0.015287758782505989, 0.11734765022993088, 0.08514650166034698, 0.04914090037345886, 0.16543570160865784, -0.00010444740473758429, 0.024007197469472885, -0.05451839789748192, 0.12268555909395218, -0.09231812506914139, 0.1311924010515213, 0.15987412631511688, -0.007598448544740677], [-0.056294094771146774, -0.09124541282653809, 0.05103307217359543, -0.0834442749619484, 0.01874665915966034, -0.139043927192688, -0.11408844590187073, -0.05595127120614052, 0.03733453154563904, 0.04981548711657524, -0.09717284142971039, 0.07772565633058548, -0.10899598151445389, -0.01744515635073185], [-0.11605696380138397, -0.06331869959831238, 0.07789506018161774, 0.1047295331954956, -0.057898133993148804, -0.016688253730535507, 0.02537568472325802, 0.049912288784980774, 0.015588524751365185, 0.016336502507328987, -0.03541155904531479, 0.024191197007894516, 0.00887227337807417, -0.016372939571738243], [0.06735900789499283, -0.1558399349451065, -0.045040324330329895, -0.0486789345741272, -0.14052438735961914, -0.09391402453184128, -0.14771082997322083, -0.03545650094747543, 0.015499267727136612, 0.09124424308538437, 0.07658739387989044, -0.08661201596260071, 0.01679377630352974, -0.17865754663944244], [-0.005653975997120142, 0.059356581419706345, -0.1533464789390564, -0.12841658294200897, -0.05433779954910278, -0.13720518350601196, -0.0236674714833498, -0.026054035872220993, -0.058256544172763824, -0.06220141798257828, -0.10802844911813736, 0.03974935784935951, 0.03585272654891014, -0.058862268924713135], [0.018283504992723465, -0.125079944729805, -0.16092592477798462, 0.01368732750415802, -0.038812585175037384, 0.05171145126223564, -0.16380415856838226, 0.08209623396396637, -0.08106119185686111, 0.0026881839148700237, -0.08126028627157211, -0.11345192044973373, -0.14933553338050842, -0.07019676268100739], [-0.03101203776896, 0.028339747339487076, 0.16659070551395416, 0.08182236552238464, -0.09991979598999023, 0.0008723717764951289, 0.13694018125534058, 0.0769633948802948, 0.10949960350990295, -0.07253991812467575, 0.07397304475307465, -0.09116426110267639, 0.14924006164073944, 0.13930247724056244], [0.10797182470560074, 0.1604837030172348, 0.09414571523666382, 0.15795084834098816, -0.06865017861127853, 0.03203462436795235, 0.02081606537103653, 0.14713123440742493, 0.1327245831489563, -0.010967240668833256, 0.10907882452011108, 0.0031510463450104, -0.08625517785549164, 0.1287141591310501], [0.00556873669847846, -0.001107994350604713, 0.0915648341178894, -0.07011503726243973, 0.025936607271432877, -0.10374915599822998, -0.09998634457588196, -0.051494281738996506, -0.0330582819879055, -0.1148887574672699, 0.09328607469797134, -0.09310293942689896, 0.025305017828941345, 0.07899485528469086], [-0.09456486999988556, -0.11551663279533386, 0.03558557480573654, -0.03861067816615105, -0.10814604163169861, 0.0718614012002945, -0.14663738012313843, -0.08721467852592468, -0.08487395197153091, 0.060272764414548874, 0.12286550551652908, -0.015382649376988411, -0.07798589766025543, -0.06454189121723175], [-0.038573700934648514, 0.0725560188293457, 0.09048771113157272, -0.1443406045436859, -0.057380445301532745, 0.042226195335388184, -0.08664771914482117, -0.05963466688990593, -0.02885797806084156, 0.07784521579742432, 0.16432228684425354, 0.026004621759057045, -0.003341258969157934, 0.09425218403339386], [-0.04513789340853691, 0.017599979415535927, 0.11317862570285797, 0.05859755352139473, -0.07247766852378845, 0.05126117914915085, -0.07911910116672516, 0.08173425495624542, -0.003974793013185263, 0.09951674193143845, -0.05946541950106621, -0.03874285891652107, 0.10211700946092606, 0.019596649333834648], [-0.07954186201095581, -0.10081404447555542, -0.005358874332159758, -0.005455641075968742, 0.03592994064092636, 0.027339212596416473, -0.03428179770708084, 0.07268048822879791, -0.12328805774450302, -0.08770043402910233, -0.03295939788222313, -0.14423209428787231, -0.12753793597221375, 0.04333529621362686], [-0.15837998688220978, -0.14394226670265198, -0.001149723189882934, 0.010662280954420567, -0.05730974301695824, -0.0773201659321785, -0.0023683994077146053, 0.02432563528418541, -0.09114476293325424, -0.12658436596393585, -0.09256479889154434, -0.015351569280028343, -0.15143272280693054, 0.02529284730553627], [0.13832327723503113, -0.05159980431199074, 0.11352450400590897, 0.0683727040886879, 0.09541432559490204, 0.1585099697113037, 0.04863964021205902, 0.06744151562452316, -0.08003880083560944, 0.013578062877058983, 0.01877021975815296, 0.08761219680309296, 0.061438992619514465, 0.09078468382358551], [-0.029996944591403008, -0.13203302025794983, -5.7284334616269916e-05, -0.04021140933036804, 0.04772430285811424, -0.1080525740981102, -0.12211904674768448, -0.020847532898187637, -0.08911643922328949, 0.06693209707736969, 0.08979745209217072, -0.11876674741506577, 0.015938440337777138, -0.0798250138759613], [0.1423444002866745, 0.005241725593805313, 0.05169452354311943, -0.04615267738699913, -0.06200915947556496, 0.15343283116817474, 0.15852294862270355, 0.08396236598491669, 0.09321766346693039, 0.034771982580423355, 0.07340312004089355, 0.11958089470863342, 0.05878601595759392, 0.2150706946849823], [0.15087807178497314, 0.18791933357715607, 0.16012685000896454, -0.12400326132774353, -0.10338779538869858, -0.07608355581760406, 0.14233817160129547, -0.10148897022008896, 0.09641256928443909, 0.07878454774618149, 0.04187287762761116, 0.05674942210316658, 0.140716090798378, 0.07004537433385849], [-0.05221780762076378, -0.15681612491607666, -0.10499823093414307, -0.10312741249799728, 0.046835072338581085, 0.05492779612541199, -0.07289541512727737, 0.019994640722870827, 0.008433698676526546, 0.07884953171014786, 0.012322661466896534, -0.08451482653617859, -0.02608759142458439, -0.17343349754810333], [0.10698234289884567, 0.053010471165180206, -0.022503100335597992, -0.00014280756295192987, 0.06438793987035751, 0.11896980553865433, 0.15259671211242676, -0.041943058371543884, -0.03145713731646538, 0.1398414671421051, 0.13830631971359253, 0.1420767903327942, 0.15635882318019867, 0.015246883034706116], [-0.11918601393699646, 0.057302072644233704, 0.02357296459376812, -0.018826808780431747, 0.010163864120841026, -0.11046996712684631, -0.08856029063463211, 0.013778903521597385, 0.07408171892166138, -0.05876403674483299, -0.041097790002822876, 0.061345603317022324, -0.03428643196821213, -0.12375574558973312], [0.05874091014266014, 0.056600917130708694, 0.13219298422336578, 0.06508971750736237, -0.057401143014431, 0.08314771950244904, -0.05790560692548752, 0.06458137929439545, 0.04940703511238098, -0.07005304098129272, 0.07063271105289459, 0.07623973488807678, 0.09272385388612747, 0.009023870341479778], [0.0425129272043705, -0.0830843448638916, 0.01827426068484783, -0.07915546000003815, 0.012291199527680874, -0.15845826268196106, 0.0101728281006217, 0.0052626426331698895, -0.11613962054252625, -0.14422142505645752, 0.08000843971967697, -0.07588040828704834, 0.048115771263837814, -0.025143751874566078], [0.02427491918206215, -0.06362494826316833, -0.11847887933254242, 0.048741381615400314, 0.04782981052994728, -0.11101705580949783, -0.06394310295581818, -0.01967291720211506, -0.14452654123306274, -0.06583091616630554, 0.07648424804210663, -0.08629606664180756, 0.027427230030298233, -0.13871212303638458], [0.0003765960573218763, -0.08721282333135605, -0.17327648401260376, -0.04540571570396423, -0.039558179676532745, 0.09418273717164993, -0.05850733816623688, -0.03185975179076195, -0.19211187958717346, -0.04269177466630936, -0.06200994551181793, 0.058182619512081146, -0.023234086111187935, 0.32134053111076355], [-0.31622985005378723, 0.0703987181186676, -0.37849605083465576, 0.20155592262744904, 0.14816945791244507, -0.14414705336093903, -0.014581316150724888, -0.2706657350063324, -0.23990865051746368, 0.009763574227690697, 0.05817784368991852, 0.0814773440361023, -0.16356827318668365, 0.31243783235549927], [-0.06686770170927048, 0.04394092783331871, 0.13636969029903412, -0.06854396313428879, -0.024360304698348045, 0.06587623804807663, -0.027485400438308716, -0.022486336529254913, -0.006499507464468479, -0.07901328802108765, -0.05858515575528145, 0.043691787868738174, -0.06500860303640366, -0.06502316892147064], [-0.10242041200399399, 0.0951998233795166, 0.07379484176635742, 0.1735905259847641, -0.029179861769080162, -0.0800987184047699, 0.06193901598453522, -0.1319684088230133, 0.03677981719374657, 0.09229614585638046, 0.02161126397550106, 0.05495085567235947, -0.03458218276500702, -0.027747754007577896], [0.02941090241074562, -0.05636288598179817, -0.09211038053035736, 0.1830526739358902, 0.1095242127776146, -0.05878215655684471, 0.074339359998703, 0.04796933755278587, -0.010676762089133263, 0.1268303096294403, 0.03820042312145233, 0.062477029860019684, 0.1368989199399948, -0.08051891624927521], [-0.06936933100223541, 0.11384553462266922, 0.15748918056488037, 0.03902807831764221, 0.16248592734336853, 0.04611440375447273, 0.03814315423369408, -0.129203200340271, 0.0334254689514637, 0.02060365304350853, -0.09530027955770493, -0.006343106739223003, 0.06617371737957001, -0.034323520958423615], [0.010323936119675636, -0.013025551103055477, 0.062482915818691254, 0.15922245383262634, 0.15040172636508942, 0.13019731640815735, -0.012094773352146149, -0.08389776200056076, -0.03888729587197304, 0.15586917102336884, 0.045356277376413345, 0.03747348114848137, 0.00010493821173440665, 0.06398618221282959], [-0.15429501235485077, -0.07309168577194214, -0.27117621898651123, 0.1897982507944107, 0.09018825739622116, -0.14336852729320526, 0.013309524394571781, -0.23405976593494415, -0.11204272508621216, 0.07451006770133972, -0.023614607751369476, -0.10969774425029755, -0.055950623005628586, 0.16314131021499634], [-0.07307767868041992, -0.08581753820180893, 0.0853910967707634, 0.1254039853811264, -0.007659849710762501, 0.13450230658054352, -0.07153478264808655, 0.1350083351135254, 0.006361943669617176, 0.022291025146842003, 0.11953825503587723, 0.10489295423030853, 0.08299138396978378, 0.12456696480512619], [0.016283463686704636, -0.07623875886201859, 0.04794923961162567, 0.14238241314888, 0.056978918612003326, 0.002256933832541108, -0.04887852072715759, -0.15531791746616364, 0.09159170091152191, -0.005337683949619532, 0.007251922506839037, -0.012265749275684357, 0.044675152748823166, 0.006313216406852007], [0.10271134972572327, -0.006642352323979139, -0.05526478961110115, 0.12780949473381042, 0.06840969622135162, 0.04532095044851303, 0.06736718118190765, -0.026163913309574127, 0.043789852410554886, 0.04994397237896919, -0.015073136426508427, -0.013504409231245518, -0.08588358759880066, 0.025297334417700768], [-0.46963346004486084, -0.06366396695375443, -0.19371649622917175, 0.22192543745040894, 0.06294439733028412, -0.009711651131510735, -0.23253974318504333, -0.41031527519226074, -0.41599076986312866, -0.10953114181756973, -0.09328661113977432, 0.08849307894706726, -0.09535766392946243, 0.2161351442337036], [0.06953971087932587, 0.09118477255105972, -0.0011724574724212289, -0.08812597393989563, -0.028574086725711823, 0.09581625461578369, 0.10521096736192703, 0.07568708807229996, -0.04517728090286255, -0.059841010719537735, 0.03822251781821251, 0.01913296990096569, 0.019932106137275696, 0.11214874684810638], [-0.07822885364294052, -0.08046692609786987, -0.04704173654317856, 0.008526651188731194, 0.15755584836006165, -0.007749541662633419, -0.0522344745695591, -0.17869392037391663, -0.10399159044027328, 0.03823181614279747, 0.12002488970756531, 0.070423424243927, 0.09883856028318405, 0.13945747911930084], [-0.3926522731781006, -0.01629575341939926, -0.27792733907699585, 0.24583439528942108, -0.014688471332192421, -0.06413757055997849, -0.14342959225177765, -0.30746906995773315, -0.22016213834285736, -0.04493849724531174, -0.016947094351053238, 0.00027731541194953024, -0.05865294486284256, 0.09929625689983368], [-0.03840552642941475, 0.01253159623593092, -0.0589970126748085, 0.12093723565340042, 0.07271049171686172, -0.07812479138374329, -0.07459232956171036, 0.11661866307258606, -0.026750054210424423, 0.07666274905204773, 0.14649459719657898, -0.0693814605474472, -0.0723293349146843, 0.2812485992908478], [-0.00917411781847477, 0.15968070924282074, -0.07438629120588303, 0.11525734513998032, -0.0389845110476017, 0.14127114415168762, 0.07754937559366226, 0.06407259404659271, 0.09242928773164749, -0.02737654745578766, 0.09847117960453033, 0.01530967466533184, -0.0855502039194107, -0.023260099813342094], [-0.28648391366004944, -0.06321947276592255, -0.20514245331287384, 0.16701801121234894, 0.0013071841094642878, -0.012136008590459824, -0.08013508468866348, -0.229985311627388, -0.21354684233665466, 0.039716802537441254, 0.04363976791501045, 0.04394190013408661, 0.028903121128678322, 0.28306347131729126], [0.12954430282115936, 0.1034717857837677, 0.06273765861988068, 0.13550767302513123, -0.07450512796640396, 0.07619462162256241, 0.08190437406301498, -0.03739111125469208, -0.08096211403608322, 0.08807854354381561, -0.0920732393860817, -0.0031428327783942223, 0.0024774724151939154, -0.07515407353639603], [-0.012028960511088371, -0.08368032425642014, -0.034755829721689224, 0.013942422345280647, -0.022618738934397697, 0.041510239243507385, -0.12441951036453247, -0.16849388182163239, -0.1730620115995407, -0.10884220153093338, 0.053900666534900665, -0.07292144000530243, -0.03119291365146637, 0.030927570536732674], [-0.0007628730381838977, 0.02450481243431568, 0.09605713933706284, -0.012860431335866451, 0.002415810478851199, 0.013584875501692295, -0.1248837485909462, -0.04402292147278786, -0.10636663436889648, -0.10774418711662292, 0.057830773293972015, -0.013284236192703247, 0.04446171596646309, -0.04499678686261177], [-0.26505520939826965, -0.02096855267882347, -0.08272569626569748, 0.03705916553735733, 0.15066978335380554, 0.02118425816297531, -0.08863512426614761, -0.2246275693178177, -0.13510169088840485, -0.1021631732583046, 0.06390318274497986, -0.07685903459787369, -0.13662473857402802, 0.21206538379192352], [0.07571010291576385, 0.060406070202589035, -0.01609600894153118, 0.18692179024219513, 0.07041676342487335, -0.0485227108001709, 0.08009213954210281, 0.3468421697616577, 0.21033240854740143, -0.027479855343699455, 0.0009752363548614085, 0.18348170816898346, 0.18184702098369598, 0.09123282134532928], [-0.10846908390522003, -0.04584139958024025, -0.0448174923658371, -0.025775475427508354, 0.020526375621557236, -0.11927183717489243, -0.02987813763320446, -0.3793587386608124, -0.12559646368026733, 0.023647382855415344, 0.0992540791630745, 0.052308090031147, -0.13662703335285187, -0.00900263525545597], [0.024278393015265465, 0.09944736957550049, 0.04097111150622368, 0.10534348338842392, 0.012590490281581879, 0.027463240548968315, -0.03327774628996849, -0.014561816118657589, 0.08627773821353912, 0.005303865298628807, -0.11971569806337357, 0.0009661400108598173, 0.13897782564163208, 0.20985464751720428], [-0.4173286259174347, -0.01924525573849678, -0.3060462176799774, 0.15960367023944855, 0.17567744851112366, -0.027357421815395355, -0.21949605643749237, -0.25576871633529663, -0.4609851539134979, -0.11674662679433823, -0.01552517432719469, -0.06644351780414581, -0.0761864110827446, 0.29588237404823303], [-0.14402079582214355, 0.00982988253235817, -0.1520020216703415, -0.06127114221453667, 0.10147161781787872, -0.025445982813835144, -0.11910313367843628, -0.0774756446480751, 0.049580782651901245, -0.10477118194103241, -0.14246417582035065, -0.05466439202427864, 0.07397790998220444, 0.07770145684480667], [-0.1250942349433899, -0.09132637828588486, -0.11555716395378113, 0.09977766126394272, -0.0723651722073555, 0.002872647251933813, -0.06597492098808289, 0.0549774244427681, -0.013967187143862247, -0.05823924392461777, -0.0400303415954113, -0.07916756719350815, -0.09914418309926987, 0.028560820966959], [0.11346723884344101, 0.11281675845384598, -0.01029531005769968, 0.15970191359519958, -0.007176896091550589, -0.02489454858005047, 0.04501182585954666, 0.04418717697262764, 0.07949330657720566, 0.037399813532829285, 0.07858248800039291, -0.029206333681941032, 0.10107588022947311, 0.011204259470105171], [-0.055067189037799835, 0.014130299910902977, -0.07082545757293701, 0.07049155980348587, 0.04950950667262077, -0.05324232578277588, -0.04029287397861481, -0.03667096421122551, 0.08626820892095566, -0.04460562765598297, -0.07439011335372925, -0.0443873293697834, 0.0007149983430281281, 0.0663742870092392], [-0.02331196703016758, 0.050970032811164856, -0.0332908071577549, 0.1337241679430008, 0.0406852550804615, -0.1178872287273407, 0.06253496557474136, -0.0033520387951284647, 0.03521659970283508, 0.10659188777208328, 0.1184973195195198, 0.09990549832582474, 0.09172843396663666, 0.10887130349874496], [-0.10113932937383652, -0.10610205680131912, 0.06110300496220589, 0.07256239652633667, 0.08624084293842316, -0.0048209973610937595, 0.050993911921978, -0.041778210550546646, -0.016780417412519455, 0.12958692014217377, 0.03824809193611145, -0.02063380368053913, 0.05622453987598419, 0.14536499977111816], [-0.045921746641397476, 0.13058771193027496, -0.08570588380098343, 0.037697676569223404, -0.052550844848155975, -0.03759097307920456, 0.0013446606462821364, -0.04131799563765526, 0.007029664237052202, 0.05783435329794884, -0.06594624370336533, -0.045511458069086075, -0.025692855939269066, 0.08183547109365463], [-0.07628137618303299, -0.04904002323746681, -0.06441233307123184, -0.048288699239492416, -0.0597379170358181, 0.11313661932945251, -0.025367990136146545, 0.05822975933551788, 0.03870594874024391, -0.05069897323846817, 0.11677098274230957, 0.055233243852853775, 0.04962736740708351, -0.042658913880586624], [0.13603658974170685, -0.0324629470705986, 0.11406827718019485, -0.0646686851978302, 0.03933040425181389, 0.14100615680217743, 0.027950551360845566, -0.1085137277841568, 0.07780984789133072, -0.0016678126994520426, 0.1436014175415039, -0.013826992362737656, 0.13916268944740295, -0.08267544955015182], [-0.16401541233062744, 0.05735035240650177, 0.07146996259689331, 0.10951396077871323, -0.03045237436890602, 0.08016517758369446, -0.10428006947040558, -0.09378819912672043, -0.14320124685764313, -0.10701007395982742, -0.0772208720445633, 0.12174636870622635, 0.0743013396859169, 0.11675667762756348], [-0.053575560450553894, 0.057603973895311356, -0.09417708218097687, -0.025963928550481796, 0.12306791543960571, 0.14175140857696533, -0.07315674424171448, -0.07620029896497726, 0.10000847280025482, -0.03476725146174431, -0.13780644536018372, -0.05859292671084404, 0.06113146245479584, 0.04258827492594719], [-0.21937216818332672, 0.07748227566480637, -0.20594245195388794, 0.11352699995040894, 0.025013545528054237, -0.13214026391506195, 0.10842639207839966, 0.1064373105764389, -0.19363343715667725, 0.06837570667266846, -0.031219203025102615, 0.17876596748828888, 0.06638868153095245, 0.16334496438503265], [0.02699219435453415, 0.12775087356567383, 0.11335483938455582, 0.0037621932569891214, 0.07716404646635056, -0.03318188712000847, -0.04267294332385063, -0.04497843235731125, -0.07857695966959, 0.061516787856817245, -0.052995651960372925, 0.14043636620044708, 0.1013587936758995, 0.03733820468187332], [-0.5846605896949768, -0.04986456781625748, -0.373281329870224, 0.30313143134117126, 0.22656169533729553, 0.05043135583400726, -0.03754017874598503, -0.4686183035373688, -0.4504052996635437, -0.08815116435289383, -0.029072003439068794, 0.15999005734920502, -0.09146950393915176, 0.16391593217849731], [-0.040384162217378616, 0.012733676470816135, -0.03138808161020279, 0.08321652561426163, 0.15427887439727783, -0.08913742750883102, 0.08133105933666229, 0.10006383806467056, 0.07014524936676025, 0.13448646664619446, -0.12987352907657623, 0.14474205672740936, 0.13408666849136353, 0.11638502031564713], [0.051454536616802216, 0.16244924068450928, -0.021502945572137833, 0.06561706960201263, 0.05932172015309334, -0.05650993436574936, -0.0580536313354969, -0.06629730761051178, 0.05643630027770996, 0.16543206572532654, 0.1303321272134781, 0.1612340807914734, 0.14012950658798218, 0.09727943688631058], [-0.6119526624679565, -0.13932612538337708, -0.4873393774032593, 0.09719111025333405, 0.10111315548419952, -0.08030571788549423, -0.106829434633255, -0.5156206488609314, -0.5119303464889526, -0.02227170206606388, 0.016232775524258614, -0.04047038033604622, -0.04105154424905777, 0.15814243257045746], [-0.07204018533229828, 0.11626121401786804, -0.151775524020195, 0.018810393288731575, 0.11189313977956772, 0.00847927387803793, -0.032827045768499374, -0.15781037509441376, -0.058779582381248474, 0.05019048973917961, 0.06909755617380142, -0.027440160512924194, 0.02005777508020401, 0.10154876112937927], [-0.20980437099933624, -0.06849870085716248, -0.1460275948047638, -0.007450405973941088, 0.1373135894536972, -0.13045018911361694, -0.1271018385887146, -0.017703548073768616, -0.09924130141735077, 0.12019206583499908, -0.08943551033735275, 0.07460740953683853, 0.03855492174625397, 0.1667858511209488], [0.019047239795327187, 0.051062870770692825, 0.09919732064008713, 0.0013126132544130087, -0.0009691392770037055, 0.09866078943014145, 0.018648982048034668, -0.011569594033062458, 0.14852465689182281, 0.11450895667076111, 0.008144974708557129, 0.010855638422071934, -0.06735391169786453, 0.06625569611787796], [-0.06295149028301239, 0.009839276783168316, 0.16261129081249237, 0.032569728791713715, 0.08251222223043442, -0.07604454457759857, 0.12285752594470978, -0.05387134477496147, 0.013839471153914928, 0.03848886117339134, -0.04012443497776985, 0.16506250202655792, -0.07049205154180527, -0.06890703737735748], [0.13074623048305511, 0.013884886167943478, 0.043441224843263626, 0.13942281901836395, 0.1745176762342453, 0.12892895936965942, 0.07998113334178925, -0.005715776700526476, 0.11487501114606857, 0.07127422094345093, -0.014276610687375069, -0.04182157292962074, 0.1424722671508789, -0.02221996709704399], [-0.17827075719833374, -0.16413745284080505, -0.06557881832122803, -0.031096920371055603, 0.13981105387210846, -0.12434051185846329, -0.04378541186451912, -0.13050855696201324, -0.19642195105552673, 0.014111706987023354, -0.05359530821442604, -0.05327344313263893, -0.0928305834531784, 0.1985732614994049], [-0.07051558792591095, 0.0632736012339592, -0.01502229180186987, 0.07326709479093552, 0.05501241981983185, -0.005635516252368689, 0.06538596004247665, 0.11541154980659485, -0.08493831008672714, -0.09386745095252991, -0.1540212333202362, 0.05308861285448074, -0.03384748101234436, 0.19644522666931152], [0.0007024353253655136, -0.04940822347998619, 0.10050797462463379, 0.000539719476364553, 0.0659889429807663, 0.09332256764173508, 0.013026922941207886, -0.25275319814682007, 0.011976499110460281, 0.026805903762578964, -0.06918864697217941, 0.1182166039943695, -0.09864421933889389, 0.06279924511909485], [0.008566880598664284, 0.041655514389276505, 0.0010125315748155117, 0.03261106461286545, 0.06859096884727478, -0.11298727244138718, -0.05820871889591217, 0.05862036347389221, -0.06342966854572296, 0.14230331778526306, -0.005073889158666134, 0.06463371962308884, 0.1145692691206932, 0.053188685327768326], [0.059352677315473557, 0.13550621271133423, 0.014915053732693195, -0.06725968420505524, 0.11486362665891647, 0.07868345826864243, -0.06070200353860855, -0.07741647958755493, 0.07649437338113785, -0.0057913814671337605, -0.10608930885791779, -0.039534714072942734, 0.11511772871017456, 0.22036607563495636], [-0.01978377066552639, -0.05494207888841629, 0.15855008363723755, -0.02269929274916649, 0.157909095287323, 0.13852864503860474, -0.0823022872209549, 0.0751347541809082, -0.06767553836107254, -0.050283033400774, 0.003377420362085104, 0.028901927173137665, 0.016520285978913307, -0.02793695405125618], [-0.1443679928779602, 0.06745001673698425, -0.0025775975082069635, 0.1492222398519516, -0.0014785225503146648, -0.0461994931101799, 0.045372288674116135, 0.10900876671075821, -0.12081436067819595, -0.06919317692518234, 0.05156690999865532, -0.02539747767150402, 0.12336055189371109, 0.07685278356075287], [-0.2781231999397278, -0.18446233868598938, -0.17718729376792908, 0.16747084259986877, 0.04372154176235199, 0.060026127845048904, -0.17474809288978577, -0.26087018847465515, -0.3549695611000061, -0.03536449745297432, 0.06636118143796921, -0.027369283139705658, 0.04380038380622864, 0.15437579154968262], [0.005067237187176943, 0.10850586742162704, 0.13454914093017578, 0.04238758236169815, 0.014710372313857079, 0.16326238214969635, 0.105100616812706, -0.0047324723564088345, -0.051444169133901596, 0.07656916975975037, 0.0256483256816864, 0.10074096918106079, 0.08729774504899979, -0.05116608738899231], [0.013950041495263577, 0.059114567935466766, 0.1621718406677246, 0.16336490213871002, 0.01030744332820177, -0.05884167179465294, 0.03548832982778549, 0.04108861833810806, 0.0033115821424871683, -0.06872887164354324, 0.10487779974937439, 0.07819806784391403, 0.057273343205451965, 0.09843325614929199], [0.018221084028482437, 0.057365234941244125, -0.07896406203508377, 0.010440429672598839, 0.13209031522274017, -0.01040953304618597, 0.08901406824588776, 0.030512889847159386, -0.07426244020462036, 0.12688323855400085, 0.08479566872119904, 0.11545608192682266, -0.08061333745718002, 0.09752435982227325], [-0.17287178337574005, 0.10243262350559235, -0.13759459555149078, 0.019720425829291344, -0.09154076874256134, -0.07306267321109772, 0.06639993190765381, 0.11910253763198853, -0.021766120567917824, 0.09403610229492188, -0.02815270982682705, -0.02610141970217228, 0.1126766949892044, 0.04271700978279114], [-0.18604300916194916, -0.014231999404728413, -0.09290950000286102, 0.1611553132534027, 0.14494672417640686, -0.014157785102725029, 0.07723914831876755, -0.15534494817256927, -0.23844687640666962, 0.053486041724681854, 0.002715921960771084, 0.10969077795743942, -0.11757149547338486, 0.09826939553022385], [-0.15206857025623322, -0.11053008586168289, -0.05700303986668587, 0.14704015851020813, 0.12045985460281372, -0.10595110803842545, 0.08769994974136353, 0.016884485259652138, 0.007676898036152124, 0.12271545827388763, 0.07929675281047821, -0.038808971643447876, -0.10895053297281265, 0.06406251341104507], [-0.3589147627353668, -0.09785584360361099, -0.2669631838798523, 0.08565886318683624, 0.026774710044264793, 0.07923568785190582, -0.10804060101509094, -0.17875367403030396, -0.09514375776052475, -0.1119556650519371, -0.16886693239212036, -0.07147852331399918, -0.09597231447696686, 0.14405374228954315], [-0.0647139698266983, -0.07826795428991318, -0.039598964154720306, 0.08209452778100967, -0.031188759952783585, -0.0320509634912014, -0.0780041441321373, -0.14369109272956848, -0.07666179537773132, -0.10927300155162811, -0.12544474005699158, 0.0018802543636411428, 0.08960357308387756, -0.04483460634946823]], "lstm.weight_hh_l0": [[-0.058756273239851, 0.12994837760925293, 0.09677471965551376, 0.08445454388856888, 0.03864945098757744, -0.022399060428142548, 0.13945512473583221, -0.015393871814012527, -0.06676122546195984, 0.025739170610904694, -0.041395153850317, 0.021119967103004456, -0.006308786571025848, -0.05997249856591225, 0.014185724779963493, -0.1316685974597931, -0.009725281968712807, 0.16072137653827667, 0.03496336191892624, -0.12431278079748154, -0.07715283334255219, 0.09574399888515472, -0.01549795176833868, 0.10708516836166382, 0.009175282903015614, 0.08570405095815659, -0.13302995264530182, -0.039942286908626556, -0.0954425185918808, 0.13592475652694702, -0.04361759126186371, -0.049083009362220764, -0.042399242520332336, -0.07454679906368256, -0.037877533584833145, -0.09966003149747849, -0.0030101321171969175, 0.11674948781728745, 0.020724529400467873, -0.00844536442309618, 0.1574530005455017, -0.06304289400577545, 0.1507626622915268, 0.056474778801202774, -0.007951534353196621, 0.054507866501808167, 0.08309199661016464, -0.0728486105799675, -0.033494386821985245, -0.12774866819381714, -0.038302697241306305, 0.14213287830352783, -0.11623890697956085, -0.0015561849577352405, -0.05567765235900879, -0.13898462057113647, -0.0014992274809628725, -0.0765887126326561, -0.06178378686308861, 0.002723493380472064, 0.021648645401000977, 0.06039643660187721, 0.07396397739648819, -0.04131228104233742], [0.07484176754951477, 0.06375661492347717, -0.031942736357450485, 0.15652738511562347, 0.014758095145225525, 0.06474024802446365, 0.13362352550029755, -0.004485141020268202, 0.0505455918610096, -0.07907229661941528, -0.10243410617113113, -0.1466227024793625, 0.13215531408786774, -0.08643370866775513, 0.0444754958152771, 0.044853802770376205, -0.048313066363334656, 0.06953772902488708, 0.1094898134469986, -0.06238030642271042, -0.1276666820049286, 0.10765185207128525, -0.07945889234542847, 0.0868007242679596, 0.032635945826768875, 0.17018523812294006, 0.03130597248673439, -0.1186237633228302, -0.11050748080015182, 0.10704848915338516, 0.01896532252430916, -0.09011054039001465, 0.115634985268116, 0.06965066492557526, -0.02750825509428978, -0.034332387149333954, -0.027158282697200775, 0.03432939574122429, 0.0503973551094532, -0.10973870009183884, 0.0796828344464302, -0.15872082114219666, 0.06615530699491501, -0.08069173991680145, -0.006872058846056461, -0.07081221789121628, 0.02661777473986149, 0.009339083917438984, -0.015338689088821411, -0.003249184228479862, -0.036171454936265945, 0.12343955785036087, 0.07254902273416519, -0.055341217666864395, 0.03055904246866703, -0.15276558697223663, -0.059167616069316864, -0.04321865364909172, -0.04308463633060455, 0.09370680898427963, -0.1775500327348709, -0.06962746381759644, 0.02128363959491253, -0.060710545629262924], [0.0173347070813179, 0.12712183594703674, 0.09317014366388321, 0.18590040504932404, -0.149993896484375, -0.09718784689903259, 0.17682182788848877, 0.13326764106750488, 0.10089156776666641, -0.028769930824637413, 0.027765722945332527, -0.06314264982938766, -0.10790649056434631, -0.11564983427524567, -0.00885323528200388, -0.1753351092338562, 0.15499821305274963, 0.03694959729909897, 0.11029260605573654, -0.12498056143522263, 0.042442452162504196, -0.03341495618224144, -0.1561889797449112, 0.08813940733671188, 0.04293085262179375, 0.03532956913113594, -0.16207659244537354, 0.05811130255460739, -0.12121296674013138, -0.016376452520489693, 0.033314213156700134, -0.06620490550994873, -0.07271522283554077, 0.007980337366461754, 0.05942390859127045, -0.18740428984165192, -0.01947370544075966, -0.007131160702556372, 0.02664913609623909, -0.11101891845464706, 0.1205696240067482, -0.05151953175663948, -0.039988525211811066, -0.20043976604938507, -0.1505592167377472, -0.13060854375362396, -0.010869098827242851, 0.17864032089710236, -0.12937596440315247, -0.07303248345851898, -0.01884564757347107, -0.021724242717027664, 0.051656924188137054, -0.03407901152968407, 0.018699422478675842, -0.1796678602695465, 0.11648835241794586, -0.00046342937275767326, -0.08544745296239853, -0.035281918942928314, -0.07687697559595108, 0.18023361265659332, -0.1338464319705963, 0.03998856619000435], [-0.175800159573555, 0.1005617156624794, -0.013911955989897251, 0.14804451167583466, -0.062314849346876144, -0.12255599349737167, 0.15042713284492493, 0.04566700756549835, -0.05372295901179314, 0.10984061658382416, 0.014140580780804157, -0.0978681817650795, -0.1397981494665146, 0.04041583463549614, 0.05629611015319824, -0.05457678437232971, -0.05201004445552826, 0.1571403294801712, 0.006925377994775772, -0.09801188111305237, -0.025881700217723846, -0.02810690738260746, -0.07839356362819672, 0.191843181848526, -0.01478953193873167, -0.030242880806326866, -0.05628913640975952, -0.05716289207339287, -0.10973502695560455, 0.03309677913784981, 0.07271210849285126, -0.004785596858710051, 0.04792781546711922, -0.01409211102873087, -0.002568610943853855, -0.14302290976047516, -0.10252217203378677, -0.07003656774759293, 0.07022731006145477, -0.02809036709368229, -0.03961261361837387, 0.06251456588506699, 0.102541483938694, -0.17711742222309113, -0.038688331842422485, 0.031294889748096466, 0.07665643841028214, 0.09860951453447342, -0.07746797055006027, -0.06968000531196594, 0.14404736459255219, -0.005834439303725958, -0.02465035952627659, -0.09504713118076324, 0.09754085540771484, -0.13588909804821014, 0.17350052297115326, -0.0178575087338686, -0.0007208017632365227, 0.08355448395013809, -0.0953221246600151, 0.05908305197954178, -0.07490469515323639, 0.046473320573568344], [0.002804204821586609, 0.07326624542474747, 0.08879997581243515, 0.02723846212029457, 0.02663111872971058, 0.05502503365278244, 0.12197960168123245, 0.009101969189941883, -0.0495089516043663, 0.09857119619846344, -0.13772356510162354, -0.16384762525558472, 0.00035047277924604714, -0.10493641346693039, -0.08256639540195465, -0.14680643379688263, 0.1405082494020462, 0.039743728935718536, 0.011559153907001019, -0.059820350259542465, -0.126925528049469, 0.06969844549894333, -0.01496117003262043, -0.05007770285010338, -0.02711518295109272, -0.04208103194832802, -0.15519143640995026, -0.04793044924736023, 0.029220810160040855, 0.0426848940551281, -0.006453387904912233, 0.04386971518397331, -0.060263313353061676, -0.059182535856962204, -0.09775929898023605, 0.02192220278084278, 0.08257195353507996, 0.09589020162820816, -0.0894877016544342, -0.12282107025384903, 0.10541942715644836, -0.13315026462078094, 0.046841174364089966, -0.04878741875290871, -0.04484852775931358, 0.04048822447657585, -0.004728569183498621, 0.11787716299295425, 0.024179020896553993, -0.009379838593304157, 0.04682350531220436, 0.025868019089102745, 0.07285299897193909, -0.10340683907270432, 0.03118220902979374, 0.05837642773985863, 0.005337154492735863, 0.10169804096221924, -0.16315940022468567, 0.09741462767124176, -0.09405786544084549, 0.10984623432159424, 0.0556190051138401, 0.008636987768113613], [-0.04637007415294647, 0.16321231424808502, 0.003156737657263875, 0.07091464102268219, 0.029738277196884155, -0.014292841777205467, -0.05124902352690697, 0.09509406983852386, 0.03376047685742378, 0.009355389513075352, -0.05231519043445587, -0.1097283810377121, -0.1347222626209259, -0.1180725023150444, 0.0751873031258583, -0.12223141640424728, 0.07915443927049637, -0.009113877080380917, 0.014585832133889198, -0.13641099631786346, -0.1301056295633316, 0.15412504971027374, -0.1517965942621231, 0.10086455196142197, 0.0691281259059906, 0.06840850412845612, -0.0335848405957222, -0.009280936792492867, -0.05608444660902023, -0.0757531076669693, 0.05944717675447464, -0.10033514350652695, 0.0920068770647049, 0.07880906015634537, -0.14752314984798431, -0.1211080476641655, 0.03164993226528168, -0.04795847088098526, -0.07062940299510956, 0.04041724279522896, 0.11662664264440536, -0.1262636035680771, -0.050281278789043427, -0.005130594130605459, -0.12739767134189606, 0.0075685433112084866, -0.06217204034328461, 0.14416247606277466, -0.13935382664203644, 0.032370198518037796, 0.09874767810106277, -0.0230067390948534, -0.07835683226585388, -0.02334464155137539, 0.17290973663330078, 0.03349932283163071, 0.07800137996673584, 0.07553230971097946, -0.14639724791049957, 0.03143720328807831, -0.07515689730644226, -0.04276623949408531, -0.1460755169391632, -0.14627254009246826], [-0.011047045700252056, -0.026233743876218796, 0.14117561280727386, -0.005943588446825743, 0.03798895329236984, -0.0860847532749176, -0.0657748281955719, 0.015517045743763447, 0.025696858763694763, 0.048964597284793854, -0.0012552249245345592, -0.035659488290548325, -0.046611517667770386, -0.11219260096549988, -0.14765386283397675, -0.05029965564608574, 0.16423988342285156, 0.08804600685834885, 0.0916653722524643, 0.04033886268734932, -0.13530994951725006, 0.03933285176753998, -0.1779235452413559, 0.1372826248407364, 0.055921293795108795, 0.01804664358496666, -0.041090015321969986, 0.05751015990972519, 0.0007239206461235881, 0.07305693626403809, -0.05836298316717148, -0.0692158043384552, 0.10828041285276413, -0.001138754771091044, 0.019442610442638397, -0.020866988226771355, -0.05521471053361893, 0.004745690617710352, 0.01910737156867981, -0.04101487994194031, 0.02694958820939064, -0.12413570284843445, 0.029636453837156296, -0.050223469734191895, -0.12799635529518127, -0.015702515840530396, 0.03926004841923714, 0.014325646683573723, -0.03952189162373543, -0.11152070760726929, 0.1601887345314026, 0.14379319548606873, 0.036515846848487854, -0.17444346845149994, -0.07136189937591553, 0.013455322943627834, -0.06047222018241882, 0.11781717091798782, -0.07119183987379074, 0.14260821044445038, -0.16373880207538605, 0.08999951928853989, -0.07813695073127747, -0.14262552559375763], [-0.08396977186203003, -0.06966648250818253, 0.030950119718909264, -0.07593946158885956, 0.004791990388184786, -0.05354449152946472, 0.10292015224695206, 0.016319606453180313, 0.058287810534238815, 0.08550643175840378, -0.10398869961500168, 0.016690118238329887, 0.030218828469514847, -0.08965704590082169, -0.04628743231296539, -0.01402710098773241, 0.10235603898763657, -0.029279405251145363, 0.1113550141453743, -0.07859344035387039, -0.10617588460445404, -0.06743200123310089, 0.04273627698421478, 0.0795418992638588, 0.11843055486679077, -0.011269139125943184, -0.07875239849090576, 0.02221301570534706, 0.05451364070177078, 0.14277225732803345, -0.050087034702301025, 0.0790771096944809, 0.09748031198978424, 0.07138613611459732, -0.05123594403266907, 0.039838626980781555, 0.0614251047372818, 0.11129233986139297, -0.056328900158405304, 0.0799831822514534, -0.029546571895480156, -0.05444888025522232, -0.013748548924922943, -0.13056261837482452, 0.06772826611995697, 0.0551648885011673, -0.06625273823738098, 0.060506731271743774, -0.10444805771112442, -0.11738885194063187, -0.03969617560505867, 0.07582870125770569, -0.04211205616593361, 0.02999722957611084, -0.02737509272992611, 0.058642804622650146, 0.09610967338085175, 0.1523710936307907, 0.04625905305147171, -0.046466339379549026, 0.007201816886663437, -0.004247704520821571, -0.03745562583208084, -0.04134680703282356], [-0.08910142630338669, 0.14197088778018951, -0.07108190655708313, 0.0025313342921435833, -0.04978640750050545, -0.16431471705436707, -0.0703033059835434, -0.02084786258637905, 0.0992065891623497, 0.07898378372192383, -0.09686633944511414, -0.070073202252388, 0.018185578286647797, -0.03432592377066612, 0.062437623739242554, 0.02829492837190628, 0.14288835227489471, 0.059137098491191864, 0.0894472599029541, -0.023100106045603752, -0.14364731311798096, -0.06144681200385094, -0.04236113280057907, -0.07257254421710968, 0.1353757530450821, 0.09412369132041931, 0.016042042523622513, 0.03419872000813484, -0.05872320756316185, 0.026958225294947624, 0.042862918227910995, 0.05783018842339516, -0.005803053267300129, -0.0728524699807167, 0.054457057267427444, -0.12105488032102585, 0.037217456847429276, 0.14383471012115479, -0.011397366411983967, -0.17232492566108704, 0.10922861844301224, 0.028656715527176857, 0.06838738173246384, 0.05338684469461441, -0.057329267263412476, 0.04411245509982109, -0.05060791224241257, -0.015833698213100433, 0.0754326656460762, 0.032207999378442764, 0.04057035595178604, 0.05340394377708435, -0.06292399764060974, -0.04031653702259064, 0.04292156174778938, -0.06526929140090942, 0.07759600877761841, 0.0733085498213768, 0.0007228882750496268, 0.08112768083810806, 0.005445510149002075, 0.16826003789901733, 0.01960337720811367, -0.09383758157491684], [0.04884761571884155, -0.027059637010097504, 0.012045644223690033, 0.0545017309486866, -0.17506393790245056, 0.004752931650727987, 0.12284601479768753, 0.1099567636847496, 0.14935192465782166, 0.06133589893579483, -0.049247920513153076, -0.022716857492923737, -0.06427808851003647, -0.033995840698480606, -0.12505950033664703, 0.06905307620763779, 0.030288582667708397, 0.08722514659166336, 0.07128578424453735, -0.04534158483147621, 0.06997520476579666, 0.10182221233844757, -0.04988640174269676, -0.0019836437422782183, -0.02315470576286316, 0.09014077484607697, -0.07851200550794601, -0.032636914402246475, -0.11544539779424667, -0.004229508340358734, -0.039872922003269196, -0.06806023418903351, 0.06124928593635559, -0.06364942342042923, 0.06998532265424728, -0.16603903472423553, 0.0257831122726202, -0.08136401325464249, 0.0017136837122961879, -0.15906284749507904, 0.04714095965027809, -0.1593029648065567, 0.13484276831150055, -0.06277912110090256, -0.1631418615579605, -0.1120479553937912, 0.11586099863052368, -0.02203497476875782, 0.07559580355882645, -0.06218160688877106, 0.08370557427406311, 0.17491605877876282, -0.01383066363632679, -0.05037488788366318, -0.03429090976715088, 0.009858895093202591, 0.06033578887581825, 0.1323496699333191, -0.13586017489433289, 0.10595393925905228, -0.007899570278823376, 0.09510103613138199, -0.09708575904369354, 0.06489557027816772], [-0.06290990114212036, -0.07122407853603363, 0.1406157910823822, 0.16374100744724274, -0.055211372673511505, -0.08007793873548508, 0.15021513402462006, 0.09254293143749237, 0.15590272843837738, 0.0751056969165802, -0.15528899431228638, 0.09385798871517181, 0.013852955773472786, -0.07744640111923218, 0.07076393067836761, -0.01655086688697338, -0.05342315509915352, -0.012481476180255413, -0.05406723544001579, -0.137187197804451, -0.12489505857229233, -0.06439325958490372, 0.07362928986549377, -0.039550356566905975, 0.16795523464679718, -0.04686548188328743, -0.053546976298093796, 0.005044606514275074, 0.010186951607465744, -0.01931810937821865, 0.00025617401115596294, 0.0027450833003968, 0.0044934735633432865, 0.1062641590833664, -0.1314430981874466, 0.05109952762722969, -0.03169027343392372, -0.030262934044003487, -0.05823420360684395, 0.03637398034334183, 0.16710498929023743, -0.12351789325475693, -0.011442234739661217, 0.06444568186998367, 0.010152789764106274, -0.09693756699562073, 0.1635812669992447, -0.043753527104854584, -0.011330847628414631, 0.014445391483604908, 0.04325044900178909, 0.0380721241235733, -0.14218762516975403, -0.08656854182481766, 0.08180764317512512, -0.11141102761030197, 0.0598418265581131, -0.03148272633552551, -0.06940362602472305, 0.09454180300235748, -0.11787775903940201, -0.0702364593744278, -0.0795581117272377, -0.14780326187610626], [0.04971666634082794, 0.0313996858894825, -0.069112628698349, 0.07353291660547256, 0.05803150683641434, -0.052532460540533066, 0.03660336136817932, 0.11252734065055847, 0.006019386928528547, 0.09870114922523499, -0.13435660302639008, 0.044319018721580505, 0.10568755120038986, -0.06081076338887215, -0.16979825496673584, -0.04279498755931854, 0.10795322805643082, 0.14149895310401917, 0.09407924115657806, -0.084676094353199, -0.02913009189069271, 0.04342574626207352, 0.010305982083082199, -0.05567467212677002, 0.10467486083507538, 0.11943116039037704, -0.1395510733127594, -0.052291277796030045, 0.001823904924094677, 0.039754919707775116, 0.10241793841123581, -0.03672485426068306, 0.021072134375572205, -0.02373998612165451, 0.05750678852200508, 0.08783350139856339, 0.035130105912685394, -0.04917344078421593, -0.11466285586357117, 0.025912169367074966, 0.10203924030065536, -0.05310168117284775, 0.14160047471523285, -0.025245459750294685, 0.006213161163032055, -0.15470902621746063, 0.06658076494932175, 0.13967838883399963, -0.13274753093719482, -0.08700718730688095, -0.009005710482597351, 0.1429055631160736, -0.08142261952161789, 0.07245568931102753, -0.08422927558422089, -0.03684985637664795, -0.01265986729413271, 0.1392025202512741, 0.06734778732061386, 0.11889196187257767, -0.1700720191001892, 0.12336333841085434, -0.10033044964075089, -0.019004080444574356], [-0.2735356092453003, 0.24714131653308868, 0.1651235967874527, 0.1816283017396927, -0.02532068081200123, -0.0886455848813057, 0.20476952195167542, 0.2967258095741272, 0.20764021575450897, 0.194538876414299, -0.21751125156879425, -0.2843590974807739, -0.14475956559181213, -0.2632501423358917, -0.33003610372543335, -0.24886220693588257, 0.242778941988945, 0.057060834020376205, 0.2048545628786087, -0.1949818730354309, -0.10596844553947449, 0.04158475995063782, 0.12188851088285446, 0.2636297047138214, 0.03655727952718735, 0.1418008655309677, -0.21091990172863007, -0.06031794473528862, -0.19633860886096954, 0.09407903254032135, 0.1423061341047287, -0.044333603233098984, 0.1665806919336319, 0.1781507283449173, -0.2084776610136032, -0.23342685401439667, -0.03540600463747978, 0.14135722815990448, -0.08406374603509903, -0.2384556531906128, 0.1058398112654686, -0.09397777169942856, 0.1726708859205246, -0.08262965083122253, -0.058602068573236465, -0.17356356978416443, 0.2613721787929535, 0.07942280173301697, -0.143405944108963, -0.1302327662706375, 0.16155263781547546, 0.25742679834365845, -0.14057311415672302, -0.09304193407297134, 0.2348068654537201, -0.12544916570186615, 0.03336762264370918, 0.21319729089736938, -0.16715550422668457, 0.17331673204898834, -0.16061018407344818, 0.18651080131530762, -0.0915701687335968, -0.18855223059654236], [-0.14633075892925262, 0.1286054104566574, 0.03482402116060257, 0.10876701027154922, 0.02065971866250038, 0.04011647775769234, 0.008408511988818645, 0.09905539453029633, 0.003123130649328232, 0.04513136297464371, 0.0114040058106184, -0.08771152049303055, -0.04228760302066803, -0.17290841042995453, -0.007092596031725407, 0.027711929753422737, 0.17155741155147552, -0.02498617209494114, 0.12400596588850021, 0.03892550617456436, -0.1642114371061325, 0.08354770392179489, -0.14723250269889832, 0.15264084935188293, -0.0677667036652565, -0.05292578414082527, -0.13913193345069885, -0.0593663789331913, -0.10243785381317139, -0.0022981588263064623, -0.029276233166456223, 0.028675472363829613, 0.014939134009182453, 0.11038430780172348, -0.15958544611930847, -0.1727837175130844, -0.1681990772485733, 0.1650497019290924, -0.02360103279352188, -0.032406918704509735, 0.004691417329013348, -0.1372983604669571, 0.005514069925993681, 0.05593153461813927, -0.17195245623588562, -0.07643866539001465, 0.1619441658258438, 0.08560120314359665, -0.10676515102386475, -0.09919435530900955, -0.04484688490629196, -0.015069706365466118, 0.06972280889749527, -0.13030602037906647, 0.016674550250172615, -0.0352674163877964, -0.056826263666152954, -0.06596492975950241, -0.17150045931339264, 0.03266116976737976, 0.00434186402708292, 0.08058041334152222, -0.03998290374875069, -0.0691654309630394], [0.007081490475684404, 0.10654709488153458, 0.13142888247966766, 0.1065252348780632, 0.0300139170140028, -0.0728897675871849, -0.03737814351916313, -0.04095720872282982, -0.023762354627251625, 0.07010896503925323, -0.08817237615585327, -0.1776348054409027, -0.07052717357873917, -0.03249157592654228, -0.1536763608455658, 0.06410124152898788, -0.06136351823806763, 0.05962967127561569, 0.007290487643331289, 0.037313178181648254, -0.1911093294620514, 0.09253182262182236, -0.04573804512619972, 0.08053851872682571, 0.03932499140501022, 0.06946681439876556, -0.08117447048425674, -0.038925301283597946, 0.029546312987804413, 0.15474943816661835, 0.11345552653074265, -0.14295804500579834, 0.0658537894487381, -0.039729733020067215, 0.012377147562801838, 0.041988737881183624, -0.03292571008205414, 0.09385888278484344, -0.05474936217069626, -0.012219676747918129, -0.08484604954719543, -0.10422846674919128, 0.1657760888338089, 0.04506749287247658, 0.012253433465957642, 0.02812439203262329, 0.06669895350933075, 0.10538656264543533, -0.12986819446086884, -0.17191356420516968, 0.18070514500141144, -0.00912351906299591, -0.08873172849416733, 0.013959205709397793, 0.05431166663765907, 0.010342595167458057, 0.15639309585094452, 0.09686057269573212, 0.009528388269245625, 0.14214059710502625, -0.02009822241961956, -0.017202526330947876, 0.02166392095386982, -0.034707020968198776], [0.0421307198703289, -0.02719995751976967, 0.11732936650514603, 0.10190723091363907, -0.08238920569419861, 0.06310006976127625, -0.03664228692650795, -0.046132154762744904, 0.13207268714904785, 0.07650989294052124, 0.014898297376930714, -0.13256578147411346, -0.04927892982959747, -0.13541695475578308, 0.0635262131690979, 0.01477538701146841, -0.07460731267929077, 0.06511843204498291, 0.04066269099712372, 0.03703860566020012, -0.13168896734714508, -0.002298835664987564, 0.0007737757987342775, 0.1334998607635498, -0.06596610695123672, 0.11058711260557175, -0.08648557215929031, -0.06065201386809349, -0.024764081463217735, -0.035514723509550095, 0.07062235474586487, -0.1486087590456009, 0.17684710025787354, 0.10348576307296753, 0.01177247054874897, -0.11258135735988617, 0.04270525649189949, 0.04628220573067665, -0.063396155834198, 0.020700925961136818, 0.15006296336650848, -0.14764031767845154, 0.1716965138912201, 0.06220639869570732, -0.14150534570217133, -0.0776657685637474, 0.05466807633638382, 0.15854251384735107, -0.06063707917928696, -0.1545775681734085, 0.041366998106241226, 0.16670261323451996, -0.05833100900053978, 0.04467260465025902, -0.014520429074764252, 0.06722492724657059, 0.06919421255588531, -0.07899510860443115, -0.055567506700754166, 0.03059695102274418, -0.14333544671535492, 0.11988016217947006, 0.04734952747821808, -0.05600694939494133], [-0.012521452270448208, 