tree
version=v4
num_class=1
num_tree_per_iteration=1
label_index=0
max_feature_idx=76
objective=regression
feature_names=temperatureMax windBearing icon dewPoint cloudCover windSpeed pressure apparentTemperatureHigh precipType visibility humidity apparentTemperatureLow apparentTemperatureMax uvIndex temperatureLow temperatureMin temperatureHigh apparentTemperatureMin moonPhase nb_clients is_holiday dayofweek month dayofyear lag1 lag7 lag14 roll7_mean roll7_std HDD CDD lag_1 lag_2 lag_3 lag_7 lag_14 lag_21 lag_28 rolling_mean_3 rolling_std_3 rolling_min_3 rolling_max_3 rolling_mean_7 rolling_std_7 rolling_min_7 rolling_max_7 rolling_mean_14 rolling_std_14 rolling_min_14 rolling_max_14 rolling_mean_21 rolling_std_21 rolling_min_21 rolling_max_21 rolling_mean_30 rolling_std_30 rolling_min_30 rolling_max_30 ema_0.1 ema_0.3 ema_0.5 hour day week_of_year quarter is_weekend is_month_start is_month_end dayofweek_sin dayofweek_cos month_sin month_cos dayofyear_sin dayofyear_cos temp_humidity temp_difference apparent_temp_diff
feature_infos=[-0.059999999999999998:32.159999999999997] [0:359] none [-5.54:17.77] [0.02:0.94999999999999996] [0.40000000000000002:8.1699999999999999] [979.63:1037.1500000000001] [-6.46:32.159999999999997] none [1.48:15.34] [0.42999999999999999:0.97999999999999998] [-8.8800000000000008:20.539999999999999] [-4.1100000000000003:32.159999999999997] [0:7] [-3.8599999999999999:20.539999999999999] [-3.8599999999999999:20.539999999999999] [-0.81000000000000005:32.159999999999997] [-8.8800000000000008:20.539999999999999] [0.01:0.98999999999999999] [586:681] none [0:6] [1:12] [1:366] [7.2252240274736499:13.4946010842738] [7.2252240274736499:13.4946010842738] [7.2252240274736499:13.4946010842738] [7.450727802359614:12.464671473678257] [0.086820497754929823:1.034921680314929] [0:18.059999999999999] [0:11.159999999999997] [7.2252240274736499:13.4946010842738] [7.2252240274736499:13.4946010842738] [7.2252240274736499:13.4946010842738] [7.2252240274736499:13.4946010842738] [7.2252240274736499:13.4946010842738] [7.2252240274736499:13.4946010842738] [7.2252240274736499:13.4946010842738] [7.2675417567983267:13.108343244383533] [0.0027601807799831194:1.1308834660015743] [7.2252240274736499:12.575484757928001] [7.3178819851326598:13.4946010842738] [7.450727802359614:12.464671473678257] [0.086820497754929823:1.034921680314929] [7.2252240274736499:11.8167427043971] [7.8021870886565798:13.4946010842738] [7.5445972456010013:12.143295595158843] [0.14889173952242785:1.1085950406277718] [7.2252240274736499:11.6530715930233] [8.0154528197287593:13.4946010842738] [7.5607370546200929:11.746616523976396] [0.19946076951757979:1.0014501554109776] [7.2252240274736499:10.5559043456001] [8.0840234853365107:13.4946010842738] [7.6090038881653106:11.521005313241368] [0.19492938658097156:1.1990555085513723] [7.2252240274736499:10.298778760324501] [8.0840234853365107:13.4946010842738] [7.5599234942085127:11.815037929060132] [7.4536810251906989:12.684695149115507] [7.3513623550595995:13.110510483079681] none [1:31] [1:52] [1:4] [0:1] none none [-0.97492791218182362:0.97492791218182362] [-0.90096886790241903:1] [-1:1] [-1:1] [-0.99999073973619013:0.99999073973619013] [-0.99996295911626554:1] [-0.054600000000000003:20.793599999999998] [0.97999999999999998:16.710000000000001] [0.9700000000000002:16.710000000000001]
tree_sizes=1234 1319 1321 1406 1401 1322 1406 1319 1409 1406 1409 1492 1403 1407 1407 1407 1404 1410 1425 1415 1407 1411 1489 1414 1412 1412 1410 1409 1345 1324 1406 1332 1321 1405 1420 1412 1405 1322 1418 1408 1412 1332 1492 1414 1251 1413 1421 1320 1417 1503 1418 1322 1423 1412 1236 1426 1331 1499 1514 1430 1346 1424 1423 1345 1424 1503 1433 1416 1435 1343 1428 1411 1413 1352 1339 1351 1424 1343 1426 1345 1354 1420 1346 1418 1328 1344 1343 1432 1318 1334 1351 1347 1345 1264 1334 1430 1349 1259 1254 1337 1330 1259 1350 1261 1427 1175 1439 1348 1353 1436 1346 1182 1439 1367 1257 1436 1262 1351 1345 1506 1275 1348 1351 1271 1438 1455 1437 1519 1427 1366 1438 1358 1433 1359 1437 1436 1525 1357 1368 1436 1516 1418 1351 1348 1532 1353 1437 1442 1534 1608 1616 1434 1519 1267 1543 1358 1527 1528 1530 1612 1262 1435 1529 1437 1539 1453 1363 1442 1435 1356 1367 1446 1367 1525 1455 1436 1449 1355 1443 1618 1532 1362 1531 1628 1535 1542 1440 1533 1457 1356 1535 1539 1447 1440 1359 1535 1447 1532 1446 1536 1539 1543 1443 1621 1542 1532 1449 1529 1450 1539 1451 1365 1448 1534 1445 1277 1449 1538 1548 1355 1460 1452 1542 1621 1546 1362 1538 1364 1539 1454 1441 1452 1363 1451 1365 1456 1632 1537 1362 1461 1366 1455 1364 1454 1619 1550 1460 1377 1468 1360 1630 1454 1641 1369 1547 1457 1633 1641 1454 1551 1457 1446 1468 1373 1647 1375 1643 1640 1647 1289 1556 1552 1467 1375 1553 1375 1557 1469 1462 1553 1376 1466 1464 1475 1553 1466 1468 1469 1559 1461 1469 1558 1474 1471 1560 1473 1557 1477 1553 1374 1471 1372 1293 1377 1388 1390 1477 1480 1468 1394 1468 1461 1393 1474 1396 1381 1482 1388 1560 1389 1566 1397 1571 1477 1389 1481 1485 1396 1478 1478 1562 1397 1574 1394 1373 1473 1566 1485 1383 1375 1483 1394 1556 1460 1465 1467 1463 1460 1492 1562 1454 1567 1568 1545 1570 1550 1561 1577 1547 1561 1462 1396 1377 1563 1469 1398 1399 1548 1482 1394 1488 1564 1392 1480 1480 1571 1487 1574 1568 1486 1490 1487 1490 1488 1398 1489 1569 1394 1398 1489 1575 1488 1488 1576 1494 1397 1579 1584 1483 1481 1573 1569 1565 1583 1491 1493 1573 1490 1393 1573 1399 1398 1578 1571 1490 1578 1395 1489 1577 1576 1475 1134 1132 1219 1488 1131 1398 1487 1483 1574 1224 1130 1581 1574 1483 1297 1573 1129 1576 1312 1490 1137 1500 1486 1125 1572 1493 1487 1043 1578 1133 1223 1211 1578 1578 1495 1312 1310 1320 1486 1136 1136 1400 1133 1492 1224 1220 1131 1488 1490 1492 1401 1137 1309 1482 1488 1317 1226 1223 1050 1579 1221 1490 1577 1134 1227 1398 1399 1136 1490 1047 1487 1488 1135 1659 1309 1319 1298 1387 1303 1480 1317 1218 1401 1493 1135 1219 1572 1477 1493 1134 1495 1489 1306 1135 1131 1493 1226 1131 1218 1317 1576 1048 1219 1134 1138 1488 1300 1134 1136 1133 1315 1221 1137 1047 1042 1132 1574 1136 1225 962 1488 1132 1135 1047 1403 1315 1226 1048 1388 1305 1223 1135 1050 1131 1311 1309 1492 1315 1052 1133 1399 1043 1309 1308 1217 1578 1134 1047 1488 1226 1409 1133 1219 1138 1056 1306 1495 1232 1043 1210 1138 1048 1136 1134 1409 1307 1316 1492 1223 1137 1488 1581 959 1492 1484 1412 959 1398 1136 957 964 1048 957 1139 1311 1136 1395 957 1400 1569 1134 1224 1400 1142 958 1229 958 1130 1130 1051 1404 1240 1477 1050 957 957 962 1397 1050 1307 1039 1132 1309 1046 1210 959 1381 1138 1317 1053 1583 1139 1218 1140 1048 1311 1309 1137 1048 1139 1049 1042 1469 1135 961 1053 1137 1576 1224 1388 1139 1050 1137 1310 1135 1307 1228 1039 1320 1046 1048 1049 1402 1225 1224 1048 1232 1041 1317 1137 1402 1493 1049 1047 1049 1489 1400 1224 1141 1400 1046 1228 1225 1402 1135 1057 1037 1047 1492 960 1228 1125 1047 1407 1578 1230 1220 1045 1144 1052 1138 1139 1487 1053 1219 1051 1218 1139 1233 1223 1497 1140 960 1055 1484 958 1495 1225 1141 1223 1134 1051 1314 1222 1668 1133 958 1229 1226 1052 1564 1141 960 1406 1055 1142 1136 1224 1582 1143 961 1402 1134 1222 1236 1411 1137 1048 1229 1136 1052 1230 1048 1049 965 1415 1584 1414 1045 1056 1138 1479 958 1225 1140 1302 1142 1582 1314 1140 1137 1139 1039 1140 1582 1318 1574 1417 959 960 1124 1485 1497 1051 1223 1484 1048 1229 1233 962 1140 1223 1400 1320 1399 1126 1397 1490 1314 1139 1231 1143 1493 965 1142 1146 1497 1404 1399 1139 1055 1138 1049 1319 1121 1229 1320 1040 1413 1051 1145 1309 1415 1229 1407 1223 1317 1048 1230 1498 1145 965 1055 1314 1049 1481 1136 1320 1312 1321 1054 1052 1141 1410 1319 1049 959 1503 1049 1231 1143 1055 1415 1324 1139 1051 1230 1414 1052 1126 1318 1056 1049 1406 1137 1049 1234 1138 1399 1401 1054 1051 1498 964 1319 1495 964 1127 1055 1409 951 962 955 1234 1053 1040 1316 1495 1580 1053 1132 1228 1223 1501 1052 1305 1313 1494 1413 1050 1317 965 1409 961 1141 1140 1413 1142 1228 965 1230 1143 1497 1053 1125 1415 1591 1054 1049 1315 1054 1139 1583 1131 1496 1409 1053 1129 1053 1149 1407 1410 1229 962 1233 1574 1128 1503 1219 1227 1130 1584 1054 1230 961 1053 1230 1591 1132 1055 1236 1418 1051 1050 1046 1138 963 1229 1324 1051 1499 966 1413 1417 960 1229 1230 1231 1047 1243 1145 968 1052 1489 1240 949 963

Tree=0
num_leaves=14
num_cat=0
split_feature=60 60 60 60 60 60 60 60 60 60 60 24 60
split_gain=755.155 69.5843 39.285 14.964 11.1359 6.85092 3.79581 2.67833 1.3259 1.0711 0.850568 0.363781 0.227521
threshold=9.3354510561883668 10.830416867642858 8.0832105757688915 11.653232137412425 10.25254757684254 8.7851225824480217 7.6874048799979597 11.118970549965697 10.537510232510725 8.3769797945870259 7.9082437537652686 7.7492802811176311 7.5510134388787646
decision_type=2 2 2 2 2 2 2 2 2 2 2 2 2
left_child=2 4 6 7 -2 9 12 -3 -6 -4 11 -8 -1
right_child=1 3 5 -5 8 -7 10 -9 -10 -11 -12 -13 -14
leaf_value=9.2405192144630508 9.2643654868613154 9.2760412162240282 9.2487380048178789 9.2877390572347398 9.2694137408822357 9.2567753760249065 9.2447770906631117 9.2803825850405453 9.2726280401430312 9.25172561302589 9.2461264482831886 9.243257122379358 9.2418320919446852
leaf_weight=22 39 27 24 24 21 24 31 30 33 24 27 32 33
leaf_count=22 39 27 24 24 21 24 31 30 33 24 27 32 33
internal_value=9.25882 9.27434 9.24637 9.28112 9.26844 9.25241 9.24338 9.27833 9.27138 9.25023 9.24464 9.24401 9.24131
internal_weight=391 174 217 81 93 72 145 57 54 48 90 63 55
internal_count=391 174 217 81 93 72 145 57 54 48 90 63 55
is_linear=0
shrinkage=1


Tree=1
num_leaves=14
num_cat=0
split_feature=60 60 60 60 60 60 60 60 60 60 60 24 60
split_gain=740.128 68.1996 38.5033 14.6757 10.9143 6.72425 3.72028 2.18897 1.29952 0.833642 0.540617 0.356542 0.222993
threshold=9.3354510561883668 10.830416867642858 8.0832105757688915 11.59281386256564 10.25254757684254 8.6147294659670184 7.6874048799979597 11.118970549965697 10.537510232510725 7.9082437537652686 8.3194519834922698 7.7492802811176311 7.5510134388787646
decision_type=2 2 2 2 2 2 2 2 2 2 2 2 2
left_child=2 4 6 7 -2 10 12 -3 -6 11 -4 -8 -1
right_child=1 3 5 -5 8 -7 9 -9 -10 -11 -12 -13 -14
leaf_value=-0.018117080981081182 0.0054907278143442595 0.017049699800985831 -0.01005958154087975 0.028092567390865752 0.010488499544915699 -0.0027263099687794847 -0.013901783920103503 0.021076438515274614 0.013670655669588033 -0.012565919712737754 -0.0077904998972302391 -0.015406553000211716 -0.016817333156412297
leaf_weight=22 39 27 21 27 21 30 31 27 33 27 21 32 33
leaf_count=22 39 27 21 27 21 30 31 27 33 27 21 32 33
internal_value=-1.23763e-10 0.0153646 -0.01232 0.0220729 0.00952181 -0.00634224 -0.0152882 0.0190631 0.0124332 -0.0140361 -0.00892504 -0.0146661 -0.0173372
internal_weight=391 174 217 81 93 72 145 54 54 90 42 63 55
internal_count=391 174 217 81 93 72 145 54 54 90 42 63 55
is_linear=0
shrinkage=0.01


Tree=2
num_leaves=14
num_cat=0
split_feature=60 60 60 60 60 60 60 60 32 60 60 24 60
split_gain=725.399 66.8424 37.737 14.3982 10.6971 6.60262 3.64624 2.56759 1.32367 1.02683 0.817052 0.349447 0.218556
threshold=9.3354510561883668 10.830416867642858 8.0832105757688915 11.653232137412425 10.25254757684254 8.7851225824480217 7.6874048799979597 11.118970549965697 10.416412514933052 8.3769797945870259 7.9082437537652686 7.7492802811176311 7.5510134388787646
decision_type=2 2 2 2 2 2 2 2 2 2 2 2 2
left_child=2 4 6 7 -2 9 12 -3 -6 -4 11 -8 -1
right_child=1 3 5 -5 8 -7 10 -9 -10 -11 -12 -13 -14
leaf_value=-0.017935910224914552 0.0054358205428490271 0.016879203231246382 -0.0098827197775244718 0.028349636793136596 0.014271456514086043 -0.0019962187701215348 -0.013762765642135376 0.021129874388376872 0.01105986773967743 -0.0069575028121471403 -0.012440261068167511 -0.015252486914396287 -0.016649159843271429
leaf_weight=22 39 27 24 24 21 24 31 30 33 24 27 32 33
leaf_count=22 39 27 24 24 21 24 31 30 33 24 27 32 33
internal_value=-8.21279e-11 0.0152109 -0.0121968 0.0218522 0.00942659 -0.00627881 -0.0151353 0.0191164 0.0123088 -0.00842011 -0.0138957 -0.0145194 -0.0171639
internal_weight=391 174 217 81 93 72 145 57 54 48 90 63 55
internal_count=391 174 217 81 93 72 145 57 54 48 90 63 55
is_linear=0
shrinkage=0.01


Tree=3
num_leaves=15
num_cat=0
split_feature=60 60 60 60 60 60 60 60 60 60 60 38 21 60
split_gain=710.964 65.5122 36.9861 14.1117 10.5142 6.47123 3.57368 2.51649 2.44025 1.00639 0.800793 0.644598 0.270564 0.214207
threshold=9.3354510561883668 10.830416867642858 8.0832105757688915 11.653232137412425 10.418645863439897 8.7851225824480217 7.6874048799979597 11.118970549965697 9.9326155511685368 8.3769797945870259 7.9082437537652686 10.614606197865493 3.5000000000000004 7.5510134388787646
decision_type=2 2 2 2 2 2 2 2 2 2 2 2 2 2
left_child=2 4 6 7 8 9 13 -3 -2 -4 12 -6 -8 -1
right_child=1 3 5 -5 11 -7 10 -9 -10 -11 -12 -13 -14 -15
leaf_value=-0.017756551504135132 0.0039609090518206358 0.016710411089437979 -0.0097838923335075382 0.028066140512625376 0.014276343413761683 -0.0019762565785398085 -0.014923607143195902 0.020918575922648112 0.0083433379508830886 -0.0068879280363519993 -0.012315857896098384 0.011798636146954127 -0.013592485372836773 -0.016482667381113224
leaf_weight=22 24 27 24 24 21 24 37 30 27 24 27 21 26 33
leaf_count=22 24 27 24 24 21 24 37 30 27 24 27 21 26 33
internal_value=2.9345e-11 0.0150588 -0.0120748 0.0216337 0.00933233 -0.00621603 -0.014984 0.0189252 0.00628102 -0.00833591 -0.0137567 0.0130375 -0.0143743 -0.0169922
internal_weight=391 174 217 81 93 72 145 57 51 48 90 42 63 55
internal_count=391 174 217 81 93 72 145 57 51 48 90 42 63 55
is_linear=0
shrinkage=0.01


Tree=4
num_leaves=15
num_cat=0
split_feature=60 60 60 60 60 60 60 60 60 32 60 21 24 60
split_gain=696.815 64.2085 36.2501 13.8418 10.305 6.35155 3.50257 2.39169 2.05533 0.961201 0.784857 0.511507 0.34006 0.209944
threshold=9.3354510561883668 10.830416867642858 8.0832105757688915 11.59281386256564 10.418645863439897 8.6147294659670184 7.6874048799979597 9.9326155511685368 11.118970549965697 10.697317576155402 7.9082437537652686 3.5000000000000004 7.7492802811176311 7.5510134388787646
decision_type=2 2 2 2 2 2 2 2 2 2 2 2 2 2
left_child=2 4 6 8 7 11 13 -2 -3 -6 12 -4 -8 -1
right_child=1 3 5 -5 9 -7 10 -9 -10 -11 -12 -13 -14 -15
leaf_value=-0.017578985691070557 0.0039212999764519432 0.016543307216079148 -0.0097162876074964356 0.027263447090431495 0.014349515438079835 -0.0026395761811484893 -0.01348406107194962 0.0082599045612193923 0.020445189564316364 0.011320473372936249 -0.012192699291087962 -0.0075066344290971752 -0.014953638240695 -0.016317841464822944
leaf_weight=22 24 27 22 27 22 30 31 27 27 20 27 20 32 33
leaf_count=22 24 27 22 27 22 30 31 27 27 20 27 20 32 33
internal_value=-9.85153e-11 0.0149082 -0.0119541 0.0214173 0.009239 -0.00615387 -0.0148341 0.00621821 0.0184942 0.0129071 -0.0136192 -0.00866407 -0.0142305 -0.0168223
internal_weight=391 174 217 81 93 72 145 51 54 42 90 42 63 55
internal_count=391 174 217 81 93 72 145 51 54 42 90 42 63 55
is_linear=0
shrinkage=0.01


Tree=5
num_leaves=14
num_cat=0
split_feature=60 60 60 60 60 60 60 60 60 60 60 31 60
split_gain=682.949 62.9308 35.5287 13.5781 10.1063 6.23669 3.43287 2.49519 2.41244 0.97675 0.769238 0.333293 0.205766
threshold=9.3354510561883668 10.830416867642858 8.0832105757688915 11.653232137412425 10.040163161160628 8.7851225824480217 7.6874048799979597 10.449633532274266 11.118970549965697 8.3769797945870259 7.9082437537652686 7.7492802811176311 7.5510134388787646
decision_type=2 2 2 2 2 2 2 2 2 2 2 2 2
left_child=2 4 6 8 -2 9 12 -6 -3 -4 11 -8 -1
right_child=1 3 5 -5 7 -7 10 -9 -10 -11 -12 -13 -14
leaf_value=-0.017403196096420288 0.0043695159871131187 0.016377874392050285 -0.0095999389886856079 0.027512844800949097 0.0088844934602578494 -0.0019300982045630613 -0.01334921988748735 0.012982611381090605 0.020498120466868084 -0.0067469430093963943 -0.012070773045221965 -0.014804101176559925 -0.016154663020914249
leaf_weight=22 30 27 24 24 24 24 31 39 30 24 27 32 33
leaf_count=22 30 27 24 24 24 24 31 39 30 24 27 32 33
internal_value=4.93053e-11 0.0147591 -0.0118345 0.0212031 0.00914661 -0.00609233 -0.0146858 0.0114214 0.0185464 -0.00817344 -0.013483 -0.0140882 -0.0166541
internal_weight=391 174 217 81 93 72 145 63 57 48 90 63 55
internal_count=391 174 217 81 93 72 145 63 57 48 90 63 55
is_linear=0
shrinkage=0.01


Tree=6
num_leaves=15
num_cat=0
split_feature=60 60 60 60 60 60 60 21 60 60 60 40 60 24
split_gain=669.472 52.4851 46.8183 12.2706 7.3511 6.77792 4.61354 1.93492 1.54389 1.26317 1.22244 0.440852 0.201671 0.157088
threshold=9.695196312682036 11.095768637430456 8.3769797945870259 10.449633532274266 11.69971801162758 7.8113481866733805 8.7851225824480217 4.5000000000000009 10.796539662795984 10.040163161160628 7.6874048799979597 7.8398785774583262 7.5510134388787646 7.7236547085328153
decision_type=2 2 2 2 2 2 2 2 2 2 2 2 2 2
left_child=2 3 5 9 -3 10 -4 11 -5 -2 12 -7 -1 -12
right_child=1 4 6 8 -6 7 -8 -9 -10 -11 13 -13 -14 -15
leaf_value=-0.017229163646697999 0.0054373326471873693 0.020334605111016171 -0.0066794735379517084 0.012709769374794431 0.027779399781000046 -0.013455731685344989 -0.00091722730039195584 -0.0090447924318520917 0.015873100404386168 0.0087956485400597258 -0.013633483932131815 -0.01148092868924141 -0.015993116552179509 -0.014817785322666168
leaf_weight=22 21 36 24 36 21 26 33 23 27 24 21 20 33 24
leaf_count=22 21 36 24 36 21 26 33 23 27 24 21 20 33 24
internal_value=-1.9865e-11 0.015314 -0.0111806 0.0112167 0.0230774 -0.0138239 -0.00334344 -0.011413 0.0140655 0.00722843 -0.0154874 -0.0125971 -0.0164875 -0.0142651
internal_weight=391 165 226 108 57 169 57 69 63 45 100 46 55 45
internal_count=391 165 226 108 57 169 57 69 63 45 100 46 55 45
is_linear=0
shrinkage=0.01


Tree=7
num_leaves=14
num_cat=0
split_feature=60 60 60 60 60 60 60 33 32 60 21 21 60
split_gain=656.162 60.4341 34.1325 13.0688 9.69486 5.97428 3.2933 1.9757 1.26576 0.738706 0.496554 0.256891 0.197658
threshold=9.3354510561883668 10.830416867642858 8.0832105757688915 11.59281386256564 10.25254757684254 8.6147294659670184 7.6874048799979597 11.099763698772902 10.416412514933052 7.9082437537652686 3.5000000000000004 3.5000000000000004 7.5510134388787646
decision_type=2 2 2 2 2 2 2 2 2 2 2 2 2
left_child=2 4 6 7 -2 10 12 -3 -6 11 -4 -8 -1
right_child=1 3 5 -5 8 -7 9 -9 -10 -11 -12 -13 -14
leaf_value=-0.017056872844696046 0.0051675245318657317 0.019854182578899243 -0.0094431091709570453 0.026462229446128561 0.013629845522698903 -0.0025635489833851655 -0.014345078693853843 0.016028635457709984 0.010489292054465322 -0.011832794900293705 -0.0072659941911697393 -0.01304802688268515 -0.01583318536931818
leaf_weight=22 39 27 22 27 21 30 37 27 33 27 20 26 33
leaf_count=22 39 27 22 27 21 30 37 27 33 27 20 26 33
internal_value=-3.89679e-11 0.0144668 -0.0116001 0.0207817 0.00896674 -0.00597187 -0.0143948 0.0179414 0.0117106 -0.0132167 -0.00840639 -0.0138098 -0.0163227
internal_weight=391 174 217 81 93 72 145 54 54 90 42 63 55
internal_count=391 174 217 81 93 72 145 54 54 90 42 63 55
is_linear=0
shrinkage=0.01


Tree=8
num_leaves=15
num_cat=0
split_feature=60 60 60 60 60 60 60 65 60 60 60 40 60 31
split_gain=643.252 50.5163 44.9777 11.7868 7.0646 6.51169 4.41861 1.87216 1.45895 1.2076 1.17046 0.420285 0.193725 0.152849
threshold=9.695196312682036 11.095768637430456 8.3769797945870259 10.449633532274266 11.69971801162758 7.8113481866733805 8.7851225824480217 1.0000000180025095e-35 10.796539662795984 10.040163161160628 7.6874048799979597 7.8398785774583262 7.5510134388787646 7.7236547085328153
decision_type=2 2 2 2 2 2 2 2 2 2 2 2 2 2
left_child=2 3 5 9 -3 10 -4 11 -5 -2 12 -7 -1 -12
right_child=1 4 6 8 -6 7 -8 -9 -10 -11 13 -13 -14 -15
leaf_value=-0.016886303424835207 0.0053312840632029944 0.019938706159591674 -0.0065427036459247273 0.012465565568870969 0.027236983208429245 -0.013190316236936129 -0.00090350428963023599 -0.0088577297459477965 0.015540655630606193 0.008614904396235943 -0.013361727566946121 -0.011262129247188569 -0.015674852783029731 -0.014529939740896225
leaf_weight=22 21 36 24 36 21 26 33 23 27 24 21 20 33 24
leaf_count=22 21 36 24 36 21 26 33 23 27 24 21 20 33 24
internal_value=8.25328e-11 0.0150112 -0.0109595 0.0109914 0.0226275 -0.0135503 -0.0032779 -0.0111872 0.0137835 0.00708255 -0.0151808 -0.012352 -0.0161594 -0.0139848
internal_weight=391 165 226 108 57 169 57 69 63 45 100 46 55 45
internal_count=391 165 226 108 57 169 57 69 63 45 100 46 55 45
is_linear=0
shrinkage=0.01


Tree=9
num_leaves=15
num_cat=0
split_feature=60 60 60 60 60 60 60 21 60 60 60 60 60 24
split_gain=630.451 49.5111 44.0827 11.5523 6.92402 6.38211 4.33068 1.8349 1.42992 1.18357 1.14717 0.336587 0.18987 0.149807
threshold=9.695196312682036 11.095768637430456 8.3769797945870259 10.449633532274266 11.69971801162758 7.8113481866733805 8.7851225824480217 4.5000000000000009 10.796539662795984 10.040163161160628 7.6874048799979597 7.9808383762300918 7.5510134388787646 7.7236547085328153
decision_type=2 2 2 2 2 2 2 2 2 2 2 2 2 2
left_child=2 3 5 9 -3 10 -4 11 -5 -2 12 -7 -1 -12
right_child=1 4 6 8 -6 7 -8 -9 -10 -11 13 -13 -14 -15
leaf_value=-0.016717441082000732 0.0052779712279637661 0.019739318986733752 -0.0064772766083478926 0.012340909855233298 0.026964613937196277 -0.013047438462575276 -0.00089446923780170363 -0.0087691524754399848 0.015385249521997241 0.0085287554189562801 -0.013228110188529605 -0.011335017057982358 -0.015518104488199408 -0.01438464030623436
leaf_weight=22 21 36 24 36 21 24 33 23 27 24 21 22 33 24
leaf_count=22 21 36 24 36 21 24 33 23 27 24 21 22 33 24
internal_value=8.16991e-11 0.0148611 -0.0108499 0.0108815 0.0224013 -0.0134148 -0.00324512 -0.0110754 0.0136456 0.00701172 -0.015029 -0.0122285 -0.0159978 -0.0138449
internal_weight=391 165 226 108 57 169 57 69 63 45 100 46 55 45
internal_count=391 165 226 108 57 169 57 69 63 45 100 46 55 45
is_linear=0
shrinkage=0.01


Tree=10
num_leaves=15
num_cat=0
split_feature=40 59 59 0 59 59 40 21 32 59 21 21 40 15
split_gain=616.363 45.5871 35.9743 10.0203 7.99965 4.43073 3.26061 3.11344 2.37129 1.18499 0.981118 0.633393 0.175129 0.124377
threshold=9.1804080264894576 10.872006977272102 8.2870126465303198 3.5800000000000005 10.297394819803896 7.8372395419638528 8.5104098288466776 4.5000000000000009 10.697317576155402 7.6552562555253063 3.5000000000000004 4.5000000000000009 7.6310037974225855 14.235000000000001
decision_type=2 2 2 2 2 2 2 2 2 2 2 2 2 2
left_child=2 4 5 -3 -2 9 -4 -5 -6 13 -7 12 -11 -1
right_child=1 3 6 7 8 10 -8 -9 -10 11 -12 -13 -14 -15
leaf_value=-0.016543267965316771 0.0060320202388653632 0.024865320302821972 -0.0062402231432497502 0.015346838120491273 0.013825837162233168 -0.01224923130343942 -0.0014260851964354516 0.020407528400421145 0.0095880024070325118 -0.014991495838532081 -0.0095750266313552861 -0.01231868815422058 -0.013746820330619811 -0.015428022623062134
leaf_weight=20 38 27 34 31 31 34 24 20 23 26 23 20 20 20
leaf_count=20 38 27 34 31 31 34 24 20 23 26 23 20 20 20
internal_value=-1.86741e-11 0.0143153 -0.0110118 0.0199393 0.00954719 -0.0134185 -0.00424817 0.0173314 0.0120208 -0.0146275 -0.0111702 -0.0138044 -0.0144503 -0.0159856
internal_weight=391 170 221 78 92 163 58 51 54 106 57 66 46 40
internal_count=391 170 221 78 92 163 58 51 54 106 57 66 46 40
is_linear=0
shrinkage=0.01


Tree=11
num_leaves=16
num_cat=0
split_feature=60 60 60 60 60 60 60 60 33 32 60 21 32 60 24
split_gain=605.776 55.811 31.5421 12.1877 8.98391 5.49315 3.02881 2.08678 1.93213 0.915255 0.681345 0.473319 0.414945 0.183635 0.144871
threshold=9.3354510561883668 10.830416867642858 8.0832105757688915 11.59281386256564 10.418645863439897 8.6147294659670184 7.6874048799979597 9.9326155511685368 11.099763698772902 10.697317576155402 7.8113481866733805 3.5000000000000004 7.821218150946426 7.5510134388787646 7.7236547085328153
decision_type=2 2 2 2 2 2 2 2 2 2 2 2 2 2 2
left_child=2 4 6 8 7 11 13 -2 -3 -6 14 -4 -12 -1 -8
right_child=1 3 5 -5 9 -7 10 -9 -10 -11 12 -13 -14 -15 -16
leaf_value=-0.016388889334418559 0.0036487174061282232 0.019117503784320974 -0.0090819859775629914 0.02545451769122371 0.013447186052799225 -0.0024671817608177661 -0.012966083231426419 0.0077013356266198334 0.015334372741204721 0.010491424173116683 -0.010758875846862793 -0.0069564167708158495 -0.012691363048553467 -0.015209409720969923 -0.014103399862845738
leaf_weight=22 24 27 22 27 22 30 21 27 27 20 20 20 25 33 24
leaf_count=22 24 27 22 27 22 30 21 27 27 20 20 20 25 33 24
internal_value=-8.88448e-12 0.0139003 -0.0111458 0.0199688 0.00861475 -0.00573538 -0.0138324 0.00579422 0.0172259 0.0120397 -0.0127026 -0.00806981 -0.0118325 -0.0156812 -0.0135727
internal_weight=391 174 217 81 93 72 145 51 54 42 90 42 45 55 45
internal_count=391 174 217 81 93 72 145 51 54 42 90 42 45 55 45
is_linear=0
shrinkage=0.01


Tree=12
num_leaves=15
num_cat=0
split_feature=60 60 60 60 60 60 60 21 60 60 60 60 60 24
split_gain=593.765 46.8371 41.5276 10.865 6.58714 6.00709 4.09995 1.75282 1.31864 1.11381 1.07848 0.320129 0.17998 0.141988
threshold=9.695196312682036 11.095768637430456 8.3769797945870259 10.449633532274266 11.69971801162758 7.8113481866733805 8.9883342614776556 4.5000000000000009 10.796539662795984 10.040163161160628 7.6874048799979597 7.9808383762300918 7.5510134388787646 7.7236547085328153
decision_type=2 2 2 2 2 2 2 2 2 2 2 2 2 2
left_child=2 3 5 9 -3 10 -4 11 -5 -2 12 -7 -1 -12
right_child=1 4 6 8 -6 7 -8 -9 -10 -11 13 -13 -14 -15
leaf_value=-0.016225000403144143 0.0051168053348859153 0.019159576859739093 -0.0051967636625178983 0.011979305379920535 0.026206915037972584 -0.012674999535083772 0.00036311876073124861 -0.0084952490226082172 0.014902789769349275 0.0082703272749980287 -0.012836422806694394 -0.011004967852072283 -0.015057315356803663 -0.013962365736564
leaf_weight=22 21 36 36 36 21 24 21 23 27 24 21 22 33 24
leaf_count=22 21 36 36 36 21 24 21 23 27 24 21 22 33 24
internal_value=-3.17507e-11 0.0144222 -0.0105295 0.0105516 0.021756 -0.013019 -0.00314839 -0.0107493 0.0132322 0.00679868 -0.014585 -0.0118763 -0.0155244 -0.0134369
internal_weight=391 165 226 108 57 169 57 69 63 45 100 46 55 45
internal_count=391 165 226 108 57 169 57 69 63 45 100 46 55 45
is_linear=0
shrinkage=0.01


Tree=13
num_leaves=15
num_cat=0
split_feature=60 60 60 60 60 60 60 60 60 60 60 24 27 60
split_gain=581.962 53.6078 30.3178 11.7343 8.62529 5.29534 2.90516 2.14105 2.0023 0.817253 0.657729 0.295958 0.278614 0.176399
threshold=9.3354510561883668 10.830416867642858 8.0832105757688915 11.653232137412425 10.418645863439897 8.7851225824480217 7.6874048799979597 11.118970549965697 9.9326155511685368 8.3769797945870259 7.9082437537652686 7.7492802811176311 10.679577715901258 7.5510134388787646
decision_type=2 2 2 2 2 2 2 2 2 2 2 2 2 2
left_child=2 4 6 7 8 9 13 -3 -2 -4 11 -8 -6 -1
right_child=1 3 5 -5 12 -7 10 -9 -10 -11 -12 -13 -14 -15
leaf_value=-0.016062750599601053 0.0035788885096553714 0.015059160060352751 -0.0088426248853405321 0.025437538723150889 0.012654278457164766 -0.001784879474240976 -0.012315222870919011 0.018940736293792722 0.0075486268158312195 -0.0062329423241317275 -0.011146102569721364 -0.013686198368668556 0.011023481461134823 -0.01490674210317207
leaf_weight=22 24 27 24 24 20 24 31 30 27 24 27 32 22 33
leaf_count=22 24 27 24 24 20 24 31 30 27 24 27 32 22 33
internal_value=4.16832e-13 0.0136243 -0.0109246 0.0195719 0.00844418 -0.00562015 -0.0135585 0.0171021 0.00568051 -0.00753778 -0.0124519 -0.0130116 0.0118001 -0.0153691
internal_weight=391 174 217 81 93 72 145 57 51 48 90 63 42 55
internal_count=391 174 217 81 93 72 145 57 51 48 90 63 42 55
is_linear=0
shrinkage=0.01


Tree=14
num_leaves=15
num_cat=0
split_feature=60 60 60 60 60 60 60 21 60 60 60 60 21 3
split_gain=570.454 44.9867 39.8661 10.4347 6.34038 5.78112 3.94186 1.70716 1.26736 1.06748 1.03479 0.304306 0.1861 0.119337
threshold=9.695196312682036 11.095768637430456 8.3769797945870259 10.449633532274266 11.69971801162758 7.8113481866733805 8.9883342614776556 4.5000000000000009 10.796539662795984 10.040163161160628 7.6332295383785373 7.9808383762300918 3.5000000000000004 12.730000000000002
decision_type=2 2 2 2 2 2 2 2 2 2 2 2 2 2
left_child=2 3 5 9 -3 10 -4 11 -5 -2 13 -7 -12 -1
right_child=1 4 6 8 -6 7 -8 -9 -10 -11 12 -13 -14 -15
leaf_value=-0.016006619476136706 0.0050185062062172662 0.018776394261254208 -0.0050972933839592673 0.011741576691468556 0.025690471104213169 -0.012424256304899852 0.00035434880005639227 -0.0083088202968887668 0.014607654412587483 0.0081057556221882498 -0.013882640565142912 -0.010796021575277502 -0.012717958170434703 -0.014952713955532422
leaf_weight=21 21 36 36 36 21 24 21 23 27 24 34 22 23 22
leaf_count=21 21 36 36 36 21 24 21 23 27 24 34 22 23 22
internal_value=4.83645e-11 0.0141362 -0.0103207 0.0103429 0.0213237 -0.0127599 -0.00308879 -0.0105333 0.0129699 0.00666504 -0.0142962 -0.0116455 -0.0134127 -0.0154674
internal_weight=391 165 226 108 57 169 57 69 63 45 100 46 57 43
internal_count=391 165 226 108 57 169 57 69 63 45 100 46 57 43
is_linear=0
shrinkage=0.01


Tree=15
num_leaves=15
num_cat=0
split_feature=60 60 60 60 60 60 60 21 60 60 60 60 44 24
split_gain=559.102 44.0914 39.0727 10.227 6.21421 5.66608 3.88604 1.67319 1.24214 1.04624 1.01573 0.29825 0.171138 0.135102
threshold=9.695196312682036 11.095768637430456 8.3769797945870259 10.449633532274266 11.69971801162758 7.8113481866733805 8.7851225824480217 4.5000000000000009 10.796539662795984 10.040163161160628 7.6874048799979597 7.9808383762300918 7.399866731770576 7.7236547085328153
decision_type=2 2 2 2 2 2 2 2 2 2 2 2 2 2
left_child=2 3 5 9 -3 10 -4 11 -5 -2 12 -7 -1 -12
right_child=1 4 6 8 -6 7 -8 -9 -10 -11 13 -13 -14 -15
leaf_value=-0.015774650062833514 0.0049683212524368652 0.018588630523946551 -0.0061196399107575419 0.011624161038133834 0.025433565548488073 -0.012300013477603596 -0.00083118999299282834 -0.0082257320181183188 0.014461577821660925 0.0080246980985005708 -0.012453289429346721 -0.010688061280684039 -0.014626480901942534 -0.013551593174537023
leaf_weight=21 21 36 24 36 21 24 33 23 27 24 21 22 34 24
leaf_count=21 21 36 24 36 21 24 33 23 27 24 21 22 34 24
internal_value=5.81362e-11 0.0139949 -0.0102175 0.0102394 0.0211104 -0.0126323 -0.00305791 -0.010428 0.0128402 0.00659839 -0.0141533 -0.0115291 -0.0150649 -0.0130391
internal_weight=391 165 226 108 57 169 57 69 63 45 100 46 55 45
internal_count=391 165 226 108 57 169 57 69 63 45 100 46 55 45
is_linear=0
shrinkage=0.01


Tree=16
num_leaves=15
num_cat=0
split_feature=60 60 60 60 60 60 60 33 60 32 60 21 21 60
split_gain=548.063 50.4522 28.5684 11.0963 8.10604 4.98874 2.73181 1.90455 1.87651 0.89931 0.616997 0.448786 0.22514 0.168555
threshold=9.3354510561883668 10.830416867642858 8.0832105757688915 11.59281386256564 10.418645863439897 8.6147294659670184 7.6874048799979597 11.099763698772902 9.9326155511685368 10.697317576155402 7.9082437537652686 3.5000000000000004 3.5000000000000004 7.5510134388787646
decision_type=2 2 2 2 2 2 2 2 2 2 2 2 2 2
left_child=2 4 6 7 8 11 13 -3 -2 -6 12 -4 -8 -1
right_child=1 3 5 -5 9 -7 10 -9 -10 -11 -12 -13 -14 -15
leaf_value=-0.015592232021418484 0.0034824701185182977 0.01825224037523623 -0.0086627812277186994 0.024225742640318692 0.012844678867946973 -0.0023379817720657835 -0.013128554949889314 0.014496205184194777 0.0073254885717674535 0.0099147773385047915 -0.0108206323561845 -0.006593031570315361 -0.011914301216602325 -0.01446221907933553
leaf_weight=22 24 27 22 27 22 30 37 27 27 20 27 20 26 33
leaf_count=22 24 27 22 27 22 30 37 27 27 20 27 20 26 33
internal_value=-1.66792e-11 0.0132215 -0.0106016 0.0189914 0.00819619 -0.00545252 -0.0131584 0.0163742 0.00551701 0.0114495 -0.0120854 -0.00767719 -0.0126274 -0.0149142
internal_weight=391 174 217 81 93 72 145 54 51 42 90 42 63 55
internal_count=391 174 217 81 93 72 145 54 51 42 90 42 63 55
is_linear=0
shrinkage=0.01


Tree=17
num_leaves=15
num_cat=0
split_feature=60 60 60 60 60 60 60 60 32 60 60 60 31 40
split_gain=537.157 49.4965 27.9998 10.8249 8.40183 4.89215 2.67745 1.83916 1.4277 1.09208 0.745985 0.604718 0.279736 0.166144
threshold=9.3354510561883668 10.926917934584989 8.0832105757688915 10.418645863439897 11.653232137412425 8.7851225824480217 7.6874048799979597 9.9326155511685368 10.697317576155402 11.183127807864354 8.3769797945870259 7.9082437537652686 7.7492802811176311 7.4440004763252556
decision_type=2 2 2 2 2 2 2 2 2 2 2 2 2 2
left_child=2 3 6 7 9 10 13 -2 -5 -3 -4 12 -8 -1
right_child=1 4 5 8 -6 -7 11 -9 -10 -11 -12 -13 -14 -15
leaf_value=-0.015413375833760137 0.0034476454303755118 0.015454919054394676 -0.0084878265981872883 0.013395835695595578 0.024446865121523539 -0.0017116242261060203 -0.011824145605487208 0.0072522336796477993 0.010134865117073059 0.018577534804741544 -0.0059945268680651987 -0.010712426084059257 -0.013157017417252065 -0.014299120679497719
leaf_weight=23 24 21 24 29 24 24 31 27 25 24 24 27 32 32
leaf_count=23 24 21 24 29 24 24 31 27 25 24 24 27 32 32
internal_value=3.89321e-11 0.0130893 -0.0104956 0.00876576 0.0196687 -0.00539799 -0.0130268 0.00546184 0.0118861 0.0171203 -0.00724118 -0.0119645 -0.0125012 -0.0147651
internal_weight=391 174 217 105 69 72 145 51 54 45 48 90 63 55
internal_count=391 174 217 105 69 72 145 51 54 45 48 90 63 55
is_linear=0
shrinkage=0.01


Tree=18
num_leaves=15
num_cat=0
split_feature=38 38 59 59 68 59 59 68 12 59 68 68 15 51
split_gain=525.439 38.672 33.7614 9.33947 4.60337 3.76845 3.27822 2.65091 2.45735 1.00472 0.868127 0.567873 0.114951 0.0711421
threshold=9.5547168911913705 11.155198653980486 8.2870126465303198 10.297394819803896 -1.0000000180025095e-35 7.8372395419638528 8.9276841040371213 -0.60785761079279388 4.4350000000000014 7.6552562555253063 -1.0000000180025095e-35 -0.60785761079279388 14.235000000000001 0.23651799347331559
decision_type=2 2 2 2 2 2 2 2 2 2 2 2 2 2
left_child=2 3 5 -2 -3 9 -4 -5 -9 12 -7 -11 -1 -13
right_child=1 4 6 7 -6 10 -8 8 -10 11 -12 13 -14 -15
leaf_value=-0.015285994470119477 0.0059553935102054055 0.024210047721862794 -0.0054042932458030872 0.014920902426044148 0.01809735485485622 -0.0088103703571402511 -0.00057659118560629639 0.013508350460425667 0.0093006061145237528 -0.011334659576416016 -0.011325878921677085 -0.012923955633526756 -0.014213842272758483 -0.0137134747505188
leaf_weight=20 35 22 39 24 28 23 22 23 35 20 34 21 20 25
leaf_count=20 35 22 39 24 28 23 22 23 35 20 34 21 20 25
internal_value=-4.13721e-11 0.0134258 -0.0100094 0.0102799 0.0207869 -0.0123843 -0.00366315 0.0121258 0.0109692 -0.0134993 -0.0103108 -0.0127414 -0.0147499 -0.013353
internal_weight=391 167 224 117 50 163 61 82 58 106 57 66 40 46
internal_count=391 167 224 117 50 163 61 82 58 106 57 66 40 46
is_linear=0
shrinkage=0.01


Tree=19
num_leaves=15
num_cat=0
split_feature=38 38 59 59 21 59 59 21 12 59 21 21 15 51
split_gain=514.983 37.9024 33.0896 9.15362 4.61089 3.69346 3.21299 2.59816 2.40845 0.984726 0.850852 0.556572 0.112664 0.0697264
threshold=9.5547168911913705 11.155198653980486 8.2870126465303198 10.297394819803896 2.5000000000000004 7.8372395419638528 8.9276841040371213 4.5000000000000009 4.4350000000000014 7.6552562555253063 3.5000000000000004 4.5000000000000009 14.235000000000001 0.23651799347331559
decision_type=2 2 2 2 2 2 2 2 2 2 2 2 2 2
left_child=2 3 5 -2 -3 9 -4 8 -5 12 -7 13 -1 -11
right_child=1 4 6 7 -6 10 -8 -9 -10 11 -12 -13 -14 -15
leaf_value=-0.015133134603500367 0.0058958395357642862 0.017418332248926163 -0.0053502503027900673 0.013373266924982486 0.023496674803587109 -0.01121262013912201 -0.00057082524687178773 0.01477169354756673 0.0092076000486101435 -0.012794716074353172 -0.0087222665937050532 -0.011221312999725341 -0.014071703553199769 -0.013576340007781983
leaf_weight=20 35 24 39 23 26 34 22 24 35 21 23 20 20 25
leaf_count=20 35 24 39 23 26 34 22 24 35 21 23 20 20 25
internal_value=-1.47648e-11 0.0132915 -0.00990928 0.0101771 0.0205791 -0.0122605 -0.00362652 0.0120045 0.0108595 -0.0133643 -0.0102077 -0.012614 -0.0146024 -0.0132195
internal_weight=391 167 224 117 50 163 61 82 58 106 57 66 40 46
internal_count=391 167 224 117 50 163 61 82 58 106 57 66 40 46
is_linear=0
shrinkage=0.01


Tree=20
num_leaves=15
num_cat=0
split_feature=60 60 60 60 60 60 60 21 60 60 60 60 21 3
split_gain=505.891 40.0887 35.3772 9.2998 5.75915 5.15178 3.53966 1.57286 1.1414 0.946363 0.919206 0.266179 0.165671 0.112918
threshold=9.695196312682036 11.095768637430456 8.3769797945870259 10.449633532274266 11.69971801162758 7.8113481866733805 8.9883342614776556 4.5000000000000009 10.796539662795984 10.040163161160628 7.6332295383785373 7.9808383762300918 3.5000000000000004 12.730000000000002
decision_type=2 2 2 2 2 2 2 2 2 2 2 2 2 2
left_child=2 3 5 9 -3 10 -4 11 -5 -2 13 -7 -12 -1
right_child=1 4 6 8 -6 7 -8 -9 -10 -11 12 -13 -14 -15
leaf_value=-0.015095544883183071 0.0047089740704922452 0.017669453654024336 -0.004809808106058174 0.011045728226502736 0.02425900113014948 -0.011710891649127007 0.0003562266188895419 -0.0077798038721084593 0.013765650413654469 0.0076158057525753976 -0.013077878776718588 -0.010188070156357506 -0.011978979939999787 -0.01407037697055123
leaf_weight=21 21 36 36 36 21 24 21 23 27 24 34 22 23 22
leaf_count=21 21 36 36 36 21 24 21 23 27 24 34 22 23 22
internal_value=2.12704e-11 0.0133123 -0.00971914 0.00973136 0.0200972 -0.0120169 -0.00290653 -0.00991499 0.0122114 0.00625928 -0.0134672 -0.0109826 -0.0126345 -0.014571
internal_weight=391 165 226 108 57 169 57 69 63 45 100 46 57 43
internal_count=391 165 226 108 57 169 57 69 63 45 100 46 57 43
is_linear=0
shrinkage=0.01


Tree=21
num_leaves=15
num_cat=0
split_feature=38 38 59 59 21 59 40 21 74 59 21 21 40 15
split_gain=494.692 36.4102 31.7921 8.78095 4.4844 3.54978 3.20333 2.52815 2.13497 0.945104 0.818304 0.535537 0.14892 0.108605
threshold=9.5547168911913705 11.155198653980486 8.2870126465303198 10.297394819803896 2.5000000000000004 7.8372395419638528 8.5104098288466776 4.5000000000000009 6.3013000000000003 7.6552562555253063 3.5000000000000004 4.5000000000000009 7.6310037974225855 14.235000000000001
decision_type=2 2 2 2 2 2 2 2 2 2 2 2 2 2
left_child=2 3 5 -2 -3 9 -4 8 -5 13 -7 12 -11 -1
right_child=1 4 6 7 -6 10 -8 -9 -10 11 -12 -13 -14 -15
leaf_value=-0.014832897961139679 0.0057813323885202404 0.017052607138951618 -0.0055958551847759422 0.012763365300802083 0.023046996731024522 -0.010989792855346904 -0.00098221085323193288 0.01449400504430135 0.0089054926019161949 -0.013456812363404494 -0.0085475363549978832 -0.010997708320617677 -0.012309046924114227 -0.013790762543678283
leaf_weight=20 35 24 34 26 26 34 27 24 32 26 23 20 20 20
leaf_count=20 35 24 34 26 26 34 27 24 32 26 23 20 20 20
internal_value=7.87515e-12 0.013027 -0.0097121 0.00997458 0.0201697 -0.0120168 -0.00355375 0.0117644 0.0106349 -0.0130989 -0.0100043 -0.0123638 -0.0129578 -0.0143118
internal_weight=391 167 224 117 50 163 61 82 58 106 57 66 46 40
internal_count=391 167 224 117 50 163 61 82 58 106 57 66 46 40
is_linear=0
shrinkage=0.01


Tree=22
num_leaves=16
num_cat=0
split_feature=60 60 60 60 60 60 60 33 60 32 60 21 32 44 24
split_gain=486.076 45.0577 25.4165 10.0446 7.17961 4.47728 2.42306 1.8398 1.66624 0.818027 0.547422 0.429623 0.38026 0.155035 0.12263
threshold=9.3354510561883668 10.830416867642858 8.0832105757688915 11.59281386256564 10.418645863439897 8.6147294659670184 7.6874048799979597 11.099763698772902 9.9326155511685368 10.697317576155402 7.8113481866733805 3.5000000000000004 7.821218150946426 7.399866731770576 7.7236547085328153
decision_type=2 2 2 2 2 2 2 2 2 2 2 2 2 2 2
left_child=2 4 6 7 8 11 13 -3 -2 -6 14 -4 -12 -1 -8
right_child=1 3 5 -5 9 -7 10 -9 -10 -11 12 -13 -14 -15 -16
leaf_value=-0.014724903333754766 0.0032637160382000732 0.017259840082239221 -0.0081992052089084281 0.022884199575141623 0.012094719328663565 -0.0021767752071221668 -0.01160699764887492 0.013568209409713745 0.0068850364177315332 0.0093003611862659454 -0.0095775087177753446 -0.0061741253733634954 -0.01142746500968933 -0.013632086199872636 -0.012653375864028931
leaf_weight=21 24 27 22 27 22 30 21 27 27 20 20 20 25 34 24
leaf_count=21 24 27 22 27 22 30 21 27 27 20 20 20 25 34 24
internal_value=-2.0663e-11 0.0124514 -0.00998409 0.0179041 0.00770232 -0.00512734 -0.0123957 0.015414 0.00518089 0.0107641 -0.0113852 -0.00723488 -0.0106053 -0.0140493 -0.0121651
internal_weight=391 174 217 81 93 72 145 54 51 42 90 42 45 55 45
internal_count=391 174 217 81 93 72 145 54 51 42 90 42 45 55 45
is_linear=0
shrinkage=0.01


Tree=23
num_leaves=15
num_cat=0
split_feature=38 38 59 59 21 59 40 21 7 59 21 21 40 15
split_gain=475.244 35.0399 30.5512 8.40772 4.35673 3.40746 3.07032 2.4412 2.26242 0.90736 0.788317 0.520189 0.142477 0.105431
threshold=9.5547168911913705 11.155198653980486 8.2870126465303198 10.297394819803896 2.5000000000000004 7.8372395419638528 8.5104098288466776 4.5000000000000009 4.4250000000000016 7.6552562555253063 3.5000000000000004 4.5000000000000009 7.6310037974225855 14.235000000000001
decision_type=2 2 2 2 2 2 2 2 2 2 2 2 2 2
left_child=2 3 5 -2 -3 9 -4 8 -5 13 -7 12 -11 -1
right_child=1 4 6 7 -6 10 -8 -9 -10 11 -12 -13 -14 -15
leaf_value=-0.014540598154067995 0.0056707694211176459 0.016702967782815298 -0.0054815736522569386 0.012766131907701492 0.022611413552210882 -0.010774074722738827 -0.00096472597607687399 0.014207557439804078 0.008756027375073994 -0.013191990256309509 -0.0083769836114800499 -0.010772091984748839 -0.012069326519966126 -0.013513802230358123
leaf_weight=20 35 24 34 24 26 34 27 24 34 26 23 20 20 20
leaf_count=20 35 24 34 24 26 34 27 24 34 26 23 20 20 20
internal_value=-2.46497e-11 0.0127684 -0.00951928 0.00977394 0.0197754 -0.0117785 -0.00348231 0.0115253 0.0104154 -0.0128388 -0.00980683 -0.0121185 -0.0127039 -0.0140272
internal_weight=391 167 224 117 50 163 61 82 58 106 57 66 46 40
internal_count=391 167 224 117 50 163 61 82 58 106 57 66 46 40
is_linear=0
shrinkage=0.01


Tree=24
num_leaves=15
num_cat=0
split_feature=60 60 60 60 60 60 60 60 60 60 65 60 60 3
split_gain=467.007 43.3773 24.4386 9.72071 6.90656 4.30831 2.32751 1.74909 1.69794 0.625798 0.430598 0.324505 0.226021 0.107785
threshold=9.3354510561883668 10.830416867642858 8.0832105757688915 11.653232137412425 10.040163161160628 8.7851225824480217 7.7294585256276518 10.449633532274266 11.118970549965697 8.3769797945870259 1.0000000180025095e-35 7.6332295383785373 7.9082437537652686 12.730000000000002
decision_type=2 2 2 2 2 2 2 2 2 2 2 2 2 2
left_child=2 4 6 8 -2 9 11 -6 -3 -4 12 13 -8 -1
right_child=1 3 5 -5 7 -7 10 -9 -10 -11 -12 -13 -14 -15
leaf_value=-0.014514464026405698 0.0035959374913169689 0.013487592670652603 -0.0078954164683818825 0.022893504053354264 0.0073015375559528674 -0.00156448018620722 -0.011923640569051106 0.010732675530971625 0.016944245974222817 -0.0056117824837565427 -0.0097510090199383823 -0.012603259439821598 -0.01057641613483429 -0.013512869314713911
leaf_weight=21 30 27 24 24 24 24 33 39 30 24 22 27 20 22
leaf_count=21 30 27 24 24 24 24 33 39 30 24 22 27 20 22
internal_value=4.30111e-11 0.0122047 -0.00978629 0.0175548 0.00754505 -0.00502389 -0.0121511 0.00942558 0.0153069 -0.0067536 -0.0109271 -0.0134625 -0.0114153 -0.014002
internal_weight=391 174 217 81 93 72 145 63 57 48 75 70 53 43
internal_count=391 174 217 81 93 72 145 63 57 48 75 70 53 43
is_linear=0
shrinkage=0.01


Tree=25
num_leaves=15
num_cat=0
split_feature=60 60 60 60 60 60 60 21 60 60 60 40 24 3
split_gain=457.761 36.4419 32.0199 8.44449 5.33045 4.67817 3.23598 1.47192 1.04528 0.853234 0.829671 0.314466 0.14982 0.10564
threshold=9.695196312682036 11.095768637430456 8.3769797945870259 10.449633532274266 11.69971801162758 7.8113481866733805 8.9883342614776556 4.5000000000000009 10.796539662795984 10.040163161160628 7.6332295383785373 7.8398785774583262 7.8061589795815705 12.730000000000002
decision_type=2 2 2 2 2 2 2 2 2 2 2 2 2 2
left_child=2 3 5 9 -3 10 -4 11 -5 -2 13 -7 -12 -1
right_child=1 4 6 8 -6 7 -8 -9 -10 -11 12 -13 -14 -15
leaf_value=-0.014369319563820249 0.0044684202117579322 0.016796504656473796 -0.0045837555375571057 0.010496770044167837 0.023136057910465059 -0.011186232543908632 0.00035570067453331183 -0.0073627669655758404 0.013099651844413192 0.0072285221765438709 -0.011645224062172142 -0.0095183544158935554 -0.012719475388526918 -0.013377740654078396
leaf_weight=21 21 36 36 36 21 26 21 23 27 24 37 20 20 22
leaf_count=21 21 36 36 36 21 26 21 23 27 24 37 20 20 22
internal_value=-3.40016e-12 0.0126632 -0.00924525 0.00924903 0.0191321 -0.0114313 -0.00276396 -0.0094283 0.0116123 0.00594047 -0.0128133 -0.0104611 -0.0120222 -0.013862
internal_weight=391 165 226 108 57 169 57 69 63 45 100 46 57 43
internal_count=391 165 226 108 57 169 57 69 63 45 100 46 57 43
is_linear=0
shrinkage=0.01


Tree=26
num_leaves=15
num_cat=0
split_feature=60 60 60 60 60 60 60 21 60 60 60 40 21 60
split_gain=448.652 35.7167 31.3827 8.27645 5.22438 4.58508 3.18883 1.44263 1.02448 0.836255 0.813161 0.308208 0.14783 0.0751137
threshold=9.695196312682036 11.095768637430456 8.3769797945870259 10.449633532274266 11.69971801162758 7.8113481866733805 8.7851225824480217 4.5000000000000009 10.796539662795984 10.040163161160628 7.6332295383785373 7.8398785774583262 3.5000000000000004 7.5510134388787646
decision_type=2 2 2 2 2 2 2 2 2 2 2 2 2 2
left_child=2 3 5 9 -3 10 -4 11 -5 -2 13 -7 -12 -1
right_child=1 4 6 8 -6 7 -8 -9 -10 -11 12 -13 -14 -15
leaf_value=-0.014131721474907615 0.0044237361209733149 0.01662853956222534 -0.0055098270562787856 0.010391802274518542 0.02290469765663147 -0.01107437014579773 -0.00071921753062104631 -0.007289139343344647 0.012968655405221161 0.0071562369291981063 -0.012320792078971863 -0.0094231708347797399 -0.01128274943517602 -0.01329559326171875
leaf_weight=22 21 36 24 36 21 26 33 23 27 24 34 20 23 21
leaf_count=22 21 36 24 36 21 26 33 23 27 24 34 20 23 21
internal_value=6.60143e-11 0.0125366 -0.0091528 0.00915654 0.0189408 -0.0113169 -0.00273632 -0.00933402 0.0114962 0.00588107 -0.0126852 -0.0103565 -0.0119019 -0.0137234
internal_weight=391 165 226 108 57 169 57 69 63 45 100 46 57 43
internal_count=391 165 226 108 57 169 57 69 63 45 100 46 57 43
is_linear=0
shrinkage=0.01


Tree=27
num_leaves=15
num_cat=0
split_feature=60 60 60 60 60 60 60 33 60 32 21 21 60 60
split_gain=439.802 40.8234 23.0228 9.18545 6.48633 4.06335 2.19711 1.79994 1.5071 0.789869 0.410873 0.403105 0.305219 0.212849
threshold=9.3354510561883668 10.830416867642858 8.0832105757688915 11.59281386256564 10.418645863439897 8.6147294659670184 7.7294585256276518 11.099763698772902 9.9326155511685368 10.697317576155402 3.5000000000000004 4.5000000000000009 7.5847836410290403 7.9082437537652686
decision_type=2 2 2 2 2 2 2 2 2 2 2 2 2 2
left_child=2 4 6 7 8 10 12 -3 -2 -6 -4 13 -1 -8
right_child=1 3 5 -5 9 -7 11 -9 -10 -11 -12 -13 -14 -15
leaf_value=-0.013807029839484924 0.0031035526350994286 0.016478592378121836 -0.0078253808346661659 0.021796429157257081 0.01154119532216679 -0.0020637115327020485 -0.01156870211615707 0.012827168371942308 0.0065475908252927992 0.0087953522503376007 -0.0058449856936931615 -0.0094651112231341275 -0.012477673781223787 -0.010261322319507601
leaf_weight=31 24 27 22 27 22 30 33 27 27 20 20 22 39 20
leaf_count=31 24 27 22 27 22 30 33 27 27 20 20 22 39 20
internal_value=-4.78881e-11 0.0118439 -0.00949697 0.0170341 0.00732348 -0.00487458 -0.0117922 0.0146529 0.00492687 0.0102337 -0.00688234 -0.010603 -0.0130664 -0.0110754
internal_weight=391 174 217 81 93 72 145 54 51 42 42 75 70 53
internal_count=391 174 217 81 93 72 145 54 51 42 42 75 70 53
is_linear=0
shrinkage=0.01


Tree=28
num_leaves=14
num_cat=0
split_feature=38 38 59 59 68 59 40 65 7 59 68 65 40
split_gain=429.901 31.7311 27.6271 7.53556 4.14228 3.09052 2.76883 2.30604 2.12008 0.819384 0.725109 0.5148 0.207387
threshold=9.5547168911913705 11.155198653980486 8.2870126465303198 10.297394819803896 -1.0000000180025095e-35 7.8372395419638528 8.5104098288466776 1.0000000180025095e-35 4.4250000000000016 7.6484893379575114 -1.0000000180025095e-35 1.0000000180025095e-35 7.6084969196714907
decision_type=2 2 2 2 2 2 2 2 2 2 2 2 2
left_child=2 3 5 -2 -3 9 -4 8 -5 -1 -7 12 -11
right_child=1 4 6 7 -6 10 -8 -9 -10 11 -12 -13 -14
leaf_value=-0.013491344732396745 0.0054099201432296204 0.022059094905853272 -0.0052115505013395754 0.012149328316251437 0.016260615523372376 -0.0079531065795732589 -0.00092219891819964961 0.013559436798095703 0.0082674199079766 -0.012899430081957864 -0.010252089097219355 -0.010244283080101014 -0.011612360881220909
leaf_weight=34 35 22 34 24 28 23 27 24 34 21 34 20 31
leaf_count=34 35 22 34 24 28 23 27 24 34 21 34 20 31
internal_value=-7.16952e-12 0.012144 -0.00905378 0.00929444 0.0188119 -0.0112022 -0.00331299 0.0109525 0.00987373 -0.0122119 -0.00932443 -0.0116077 -0.0121321
internal_weight=391 167 224 117 50 163 61 82 58 106 57 72 52
internal_count=391 167 224 117 50 163 61 82 58 106 57 72 52
is_linear=0
shrinkage=0.01


Tree=29
num_leaves=14
num_cat=0
split_feature=60 60 60 60 60 60 60 60 60 21 21 60 60
split_gain=422.55 39.3006 22.1372 8.89249 6.23564 3.90816 2.11054 1.58813 1.54545 0.4008 0.389588 0.293507 0.204309
threshold=9.3354510561883668 10.830416867642858 8.0832105757688915 11.653232137412425 10.040163161160628 8.6147294659670184 7.7294585256276518 10.449633532274266 11.118970549965697 3.5000000000000004 4.5000000000000009 7.5847836410290403 7.9082437537652686
decision_type=2 2 2 2 2 2 2 2 2 2 2 2 2
left_child=2 4 6 8 -2 9 11 -6 -3 -4 12 -1 -8
right_child=1 3 5 -5 7 -7 10 -9 -10 -11 -12 -13 -14
leaf_value=-0.013534618462285689 0.003421575685031712 0.012816041950826291 -0.0076766822283918217 0.021807951976855599 0.0069368785309294858 -0.0020195545420671505 -0.011341671094749912 0.010206336210935543 0.016113830228646597 -0.0057207126617431639 -0.0092753072218461474 -0.012231016311890039 -0.010060786187648774
leaf_weight=31 30 27 22 24 24 30 33 39 30 20 22 39 20
leaf_count=31 30 27 22 24 24 30 33 39 30 20 22 39 20
internal_value=4.78762e-11 0.0116093 -0.00930884 0.0167017 0.00717397 -0.00477622 -0.0115595 0.00896083 0.0145517 -0.00674527 -0.010394 -0.0128083 -0.0108583
internal_weight=391 174 217 81 93 72 145 63 57 42 75 70 53
internal_count=391 174 217 81 93 72 145 63 57 42 75 70 53
is_linear=0
shrinkage=0.01


Tree=30
num_leaves=15
num_cat=0
split_feature=60 60 60 60 60 60 60 65 60 12 60 60 24 3
split_gain=414.17 33.0756 28.9971 7.6369 4.89213 4.24491 2.96504 1.35419 0.945578 0.804864 0.748204 0.218556 0.141809 0.102845
threshold=9.695196312682036 11.095768637430456 8.3769797945870259 10.449633532274266 11.69971801162758 7.8113481866733805 8.9883342614776556 1.0000000180025095e-35 10.796539662795984 10.455 7.6332295383785373 7.9808383762300918 7.8061589795815705 12.730000000000002
decision_type=2 2 2 2 2 2 2 2 2 2 2 2 2 2
left_child=2 3 5 9 -3 10 -4 11 -5 -2 13 -7 -12 -1
right_child=1 4 6 8 -6 7 -8 -9 -10 -11 12 -13 -14 -15
leaf_value=-0.01368724090712411 0.0068971539785464614 0.01597055471605725 -0.0043682171011136641 0.0099789517952336201 0.022043866373243785 -0.010616900573174159 0.0003599379359123608 -0.0069851453537526347 0.012454581591818068 0.0042164289880366555 -0.011072781392045924 -0.0092370150576938283 -0.012117918014526368 -0.012708868763663552
leaf_weight=21 24 36 36 36 21 24 21 23 27 21 37 22 20 22
leaf_count=21 24 36 36 36 21 24 21 23 27 21 37 22 20 22
internal_value=-3.92239e-11 0.0120452 -0.00879404 0.00879252 0.0182081 -0.0108743 -0.00262627 -0.00896635 0.0110399 0.00564615 -0.0121908 -0.00995696 -0.0114395 -0.0131867
internal_weight=391 165 226 108 57 169 57 69 63 45 100 46 57 43
internal_count=391 165 226 108 57 169 57 69 63 45 100 46 57 43
is_linear=0
shrinkage=0.01


Tree=31
num_leaves=14
num_cat=0
split_feature=38 38 59 38 21 59 21 40 7 59 21 21 40
split_gain=404.789 29.8584 26.0219 7.09813 4.01964 2.91065 2.78153 2.60532 1.37896 0.772153 0.686123 0.486327 0.198048
threshold=9.5547168911913705 11.155198653980486 8.2870126465303198 10.279638674070602 3.5000000000000004 7.8372395419638528 1.5000000000000002 8.5104098288466776 7.285000000000001 7.6484893379575114 3.5000000000000004 4.5000000000000009 7.6084969196714907
decision_type=2 2 2 2 2 2 2 2 2 2 2 2 2
left_child=2 3 5 -2 -3 9 -5 -4 -8 -1 -7 12 -11
right_child=1 4 7 6 -6 10 8 -9 -10 11 -12 -13 -14
leaf_value=-0.013092347944484037 0.0050900744624210129 0.015738885615553175 -0.0050555005351848462 0.0077681227743625634 0.021450885696844623 -0.0099505159784765811 0.012884637007587834 -0.00089472690183255404 0.0096916315811020996 -0.012523343960444133 -0.0077141904960507934 -0.0099386225044727338 -0.011265587133745994
leaf_weight=34 33 28 34 25 22 34 38 27 21 21 23 20 31
leaf_count=34 33 28 34 25 22 34 38 27 21 21 23 20 31
internal_value=1.26241e-11 0.011784 -0.00878538 0.00901979 0.0182522 -0.0108704 0.0105636 -0.00321385 0.0117481 -0.0118503 -0.00904814 -0.0112638 -0.0117735
internal_weight=391 167 224 117 50 163 84 61 59 106 57 72 52
internal_count=391 167 224 117 50 163 84 61 59 106 57 72 52
is_linear=0
shrinkage=0.01


Tree=32
num_leaves=14
num_cat=0
split_feature=60 60 60 60 60 60 60 33 60 21 21 60 60
split_gain=397.933 37.0691 20.8756 8.4521 5.88355 3.70531 1.99003 1.76054 1.48966 0.542852 0.368491 0.276481 0.192013
threshold=9.3354510561883668 10.830416867642858 8.0832105757688915 11.59281386256564 10.040163161160628 8.7851225824480217 7.7294585256276518 11.099763698772902 10.449633532274266 3.5000000000000004 4.5000000000000009 7.5847836410290403 7.9082437537652686
decision_type=2 2 2 2 2 2 2 2 2 2 2 2 2
left_child=2 4 6 7 -2 9 11 -3 -6 -4 12 -1 -8
right_child=1 3 5 -5 8 -7 10 -9 -10 -11 -12 -13 -14
leaf_value=-0.01313676118850708 0.0033135738593215742 0.015733252940354523 -0.0072561825513839722 0.02078009119740239 0.006733967556307713 -0.001423855212633498 -0.011007617097912412 0.012122020434450221 0.0099004445931850336 -0.0051274186955845881 -0.008999481092799794 -0.01187153397462307 -0.009765876203775406
leaf_weight=31 30 27 25 27 24 24 33 27 39 23 22 39 20
leaf_count=31 30 27 25 27 24 24 33 27 39 23 22 39 20
internal_value=1.69472e-11 0.0112661 -0.00903362 0.0162118 0.00695849 -0.00463205 -0.0112192 0.0139276 0.00869417 -0.00623615 -0.0100874 -0.0124318 -0.010539
internal_weight=391 174 217 81 93 72 145 54 63 48 75 70 53
internal_count=391 174 217 81 93 72 145 54 63 48 75 70 53
is_linear=0
shrinkage=0.01


Tree=33
num_leaves=15
num_cat=0
split_feature=60 60 60 60 60 60 60 21 32 12 60 40 40 24
split_gain=390.043 31.2498 27.3363 7.18338 4.66611 4.00374 2.79828 1.29056 0.898622 0.778035 0.704627 0.267981 0.134706 0.108167
threshold=9.695196312682036 11.095768637430456 8.3769797945870259 10.449633532274266 11.69971801162758 7.8113481866733805 8.9883342614776556 4.5000000000000009 10.697317576155402 10.455 7.6874048799979597 7.8398785774583262 7.4440004763252556 7.7236547085328153
decision_type=2 2 2 2 2 2 2 2 2 2 2 2 2 2
left_child=2 3 5 9 -3 10 -4 11 -5 -2 12 -7 -1 -12
right_child=1 4 6 8 -6 7 -8 -9 -10 -11 13 -13 -14 -15
leaf_value=-0.013175434392431509 0.0067059261103471126 0.015494242476092443 -0.0042377657163888216 0.011959735929965973 0.021425598178591049 -0.010337385741563945 0.0003555026346640218 -0.0067668025908262834 0.0095683968789649736 0.0040702592528292112 -0.010380262675739469 -0.0087977105379104612 -0.012172121703624725 -0.0113630011677742
leaf_weight=23 24 36 36 30 21 26 21 23 33 21 21 20 32 24
leaf_count=23 24 36 36 30 21 26 21 23 33 21 21 20 32 24
internal_value=-7.91981e-12 0.0116891 -0.00853406 0.00852747 0.0176795 -0.0105539 -0.00254551 -0.00870091 0.0107071 0.00547595 -0.0118324 -0.00966796 -0.0125917 -0.0109044
internal_weight=391 165 226 108 57 169 57 69 63 45 100 46 55 45
internal_count=391 165 226 108 57 169 57 69 63 45 100 46 55 45
is_linear=0
shrinkage=0.01


Tree=34
num_leaves=15
num_cat=0
split_feature=38 38 59 16 21 59 44 38 68 59 59 21 21 51
split_gain=381.143 28.1632 24.5172 6.71527 3.89332 2.73848 2.65788 2.41804 1.29451 1.1118 0.726948 0.64837 0.459438 0.0831363
threshold=9.5547168911913705 11.155198653980486 8.2870126465303198 8.7950000000000017 3.5000000000000004 7.8372395419638528 10.247892751001002 8.6347223518296818 1.0000000180025095e-35 10.792453884885896 7.6484893379575114 3.5000000000000004 4.5000000000000009 0.23400174221145173
decision_type=2 2 2 2 2 2 2 2 2 2 2 2 2 2
left_child=2 3 5 9 -3 10 8 -4 -5 -2 -1 -7 13 -12
right_child=1 4 7 6 -6 11 -8 -9 -10 -11 12 -13 -14 -15
leaf_value=-0.012704371459343855 0.010032129621505737 0.015243028274604253 -0.0055060438573360446 0.0068743549473583698 0.020864557352933018 -0.0096584078844855811 0.0095289989222179759 -0.0014577200735867437 0.0034746246305959565 0.013014482021331788 -0.01091982164978981 -0.007484477862067844 -0.0096421330273151404 -0.011741698794066906
leaf_weight=34 25 28 25 24 22 34 22 36 21 25 20 23 20 32
leaf_count=34 25 28 25 24 22 34 22 36 21 25 20 23 20 32
internal_value=-1.4732e-11 0.0114346 -0.00852491 0.00875004 0.0177165 -0.0105488 0.00668044 -0.00311687 0.00528781 0.0115233 -0.0114993 -0.00878121 -0.0109302 -0.0114256
internal_weight=391 167 224 117 50 163 67 61 45 50 106 57 72 52
internal_count=391 167 224 117 50 163 67 61 45 50 106 57 72 52
is_linear=0
shrinkage=0.01


Tree=35
num_leaves=15
num_cat=0
split_feature=60 60 60 60 60 60 60 60 60 60 21 21 44 21
split_gain=374.767 35.0005 19.6798 8.02972 5.538 3.50084 1.87482 1.3879 1.35544 0.427933 0.374369 0.284547 0.132156 0.0795188
threshold=9.3354510561883668 10.830416867642858 8.0832105757688915 11.653232137412425 10.040163161160628 8.6147294659670184 7.6874048799979597 10.449633532274266 11.118970549965697 7.8113481866733805 3.5000000000000004 2.5000000000000004 7.399866731770576 3.5000000000000004
decision_type=2 2 2 2 2 2 2 2 2 2 2 2 2 2
left_child=2 4 6 8 -2 10 12 -6 -3 13 -4 -11 -1 -8
right_child=1 3 5 -5 7 -7 9 -9 -10 11 -12 -13 -14 -15
leaf_value=-0.012967107693354289 0.0032112933052703741 0.012070449414076629 -0.007256869755008004 0.020591173619031906 0.0065394278119007745 -0.0018840189785791306 -0.011065442013740538 0.0095958384336569374 0.015158862908681235 -0.010123413178053769 -0.0053664945736527445 -0.0085326410117356685 -0.011958141922950746 -0.010219469577074052
leaf_weight=21 30 27 22 24 24 30 25 39 30 22 20 23 34 20
leaf_count=21 30 27 22 24 24 30 25 39 30 22 20 23 34 20
internal_value=-9.20677e-12 0.0109332 -0.00876672 0.015739 0.00674756 -0.00449308 -0.0108888 0.00843149 0.0136959 -0.0099999 -0.00635669 -0.00931035 -0.0123434 -0.0106895
internal_weight=391 174 217 81 93 72 145 63 57 90 42 45 55 45
internal_count=391 174 217 81 93 72 145 63 57 90 42 45 55 45
is_linear=0
shrinkage=0.01


Tree=36
num_leaves=15
num_cat=0
split_feature=60 60 60 60 60 60 60 21 32 12 60 40 24 3
split_gain=367.31 29.4518 25.7574 6.76758 4.45898 3.77137 2.65813 1.23291 0.887246 0.742793 0.665567 0.254077 0.132163 0.0993567
threshold=9.695196312682036 11.095768637430456 8.3769797945870259 10.449633532274266 11.69971801162758 7.8113481866733805 8.9883342614776556 4.5000000000000009 10.697317576155402 10.455 7.6332295383785373 7.8398785774583262 7.8061589795815705 12.730000000000002
decision_type=2 2 2 2 2 2 2 2 2 2 2 2 2 2
left_child=2 3 5 9 -3 10 -4 11 -5 -2 13 -7 -12 -1
right_child=1 4 6 8 -6 7 -8 -9 -10 -11 12 -13 -14 -15
leaf_value=-0.012914413781393142 0.0065139349115391574 0.015022664864857991 -0.0041179409374793368 0.011634312729040782 0.020820876587004888 -0.010040889542836409 0.00035883041963513407 -0.0065534503369227707 0.0092581581166296285 0.0039386523763338729 -0.010420514957324878 -0.0085416875481605526 -0.011429480493068696 -0.011952775229107251
leaf_weight=21 24 36 36 30 21 26 21 23 33 21 37 20 20 22
leaf_count=21 24 36 36 30 21 26 21 23 33 21 37 20 20 22
internal_value=3.75149e-12 0.0113433 -0.00828163 0.00827403 0.0171588 -0.0102422 -0.0024686 -0.00844386 0.0103897 0.00531214 -0.0114831 -0.00938906 -0.0107745 -0.0124224
internal_weight=391 165 226 108 57 169 57 69 63 45 100 46 57 43
internal_count=391 165 226 108 57 169 57 69 63 45 100 46 57 43
is_linear=0
shrinkage=0.01


Tree=37
num_leaves=14
num_cat=0
split_feature=60 60 60 60 60 60 60 33 60 21 21 60 60
split_gain=360.033 33.6816 18.9139 7.71293 5.3188 3.38193 1.8063 1.72683 1.31823 0.520767 0.337662 0.252127 0.174747
threshold=9.3354510561883668 10.830416867642858 8.0832105757688915 11.59281386256564 10.040163161160628 8.7851225824480217 7.7294585256276518 11.099763698772902 10.449633532274266 2.5000000000000004 4.5000000000000009 7.5847836410290403 7.9082437537652686
decision_type=2 2 2 2 2 2 2 2 2 2 2 2 2
left_child=2 4 6 7 -2 9 11 -3 -6 -4 12 -1 -8
right_child=1 3 5 -5 8 -7 10 -9 -10 -11 -12 -13 -14
leaf_value=-0.012501481963742164 0.0031445243551085395 0.015036726925108169 -0.0071679370105266569 0.019794436251675641 0.006416405439376831 -0.001337992366073498 -0.010474081761909252 0.011460226089866073 0.0093951129836913876 -0.0050551862109984667 -0.0085533188689838752 -0.011293263863294552 -0.0092894829213619242
leaf_weight=31 30 27 20 27 24 24 33 27 39 28 22 39 20
leaf_count=31 30 27 20 27 24 24 33 27 39 28 22 39 20
internal_value=9.27154e-12 0.0107161 -0.00859266 0.0154305 0.0066101 -0.004403 -0.010673 0.0132485 0.00826037 -0.0059355 -0.00959476 -0.0118283 -0.0100271
internal_weight=391 174 217 81 93 72 145 54 63 48 75 70 53
internal_count=391 174 217 81 93 72 145 54 63 48 75 70 53
is_linear=0
shrinkage=0.01


Tree=38
num_leaves=15
num_cat=0
split_feature=38 38 59 16 21 40 59 40 59 23 59 21 21 40
split_gain=351.775 26.0204 22.6426 6.26614 3.75387 2.70081 2.52184 2.25644 1.02423 0.75126 0.672173 0.601244 0.427915 0.180109
threshold=9.5547168911913705 11.155198653980486 8.2870126465303198 8.7950000000000017 3.5000000000000004 9.8065549575698316 7.8372395419638528 8.5104098288466776 10.792453884885896 313.50000000000006 7.6484893379575114 3.5000000000000004 4.5000000000000009 7.6084969196714907
decision_type=2 2 2 2 2 2 2 2 2 2 2 2 2 2
left_child=2 3 6 8 -3 -5 10 -4 -2 -7 -1 -8 13 -12
right_child=1 4 7 5 -6 9 11 -9 -10 -11 12 -13 -14 -15
leaf_value=-0.012205776782596814 0.0096524890899658197 0.014594662828104836 -0.0047066286699298547 0.0038032814145088196 0.020114603205160661 0.0066794512759555469 -0.009283353773986593 -0.00083444791759743737 0.012514983820915222 0.0093573456853628164 -0.011692902190344674 -0.0071899192229561183 -0.0092566628754138947 -0.01049346116281325
leaf_weight=34 25 28 34 25 22 22 34 27 25 20 21 23 20 31
leaf_count=34 25 28 34 25 22 22 34 27 25 20 21 23 20 31
internal_value=-4.99842e-11 0.0109852 -0.00818989 0.00840482 0.0170234 0.00640563 -0.0101348 -0.00299271 0.0110837 0.00795464 -0.011047 -0.00843863 -0.0104997 -0.0109779
internal_weight=391 167 224 117 50 67 163 61 50 42 106 57 72 52
internal_count=391 167 224 117 50 67 163 61 50 42 106 57 72 52
is_linear=0
shrinkage=0.01


Tree=39
num_leaves=15
num_cat=0
split_feature=60 60 60 60 60 60 60 29 33 24 21 21 60 15
split_gain=345.911 32.4197 18.1914 6.95994 5.86717 3.4868 1.59782 1.42544 1.24213 0.612553 0.397152 0.348455 0.163949 0.126982
threshold=9.3354510561883668 10.926917934584989 8.068186294461368 10.449633532274266 11.69971801162758 8.6147294659670184 7.6874048799979597 7.3050000000000015 11.099763698772902 10.7347633704402 3.5000000000000004 4.5000000000000009 7.8113481866733805 13.345000000000001
decision_type=2 2 2 2 2 2 2 2 2 2 2 2 2 2
left_child=2 3 6 7 8 10 13 -2 -3 -5 -4 12 -8 -1
right_child=1 4 5 9 -6 -7 11 -9 -10 -11 -12 -13 -14 -15
leaf_value=-0.012449283789504658 0.0028779728179452596 0.015577009553494661 -0.0070777652661005649 0.01057090030113856 0.020237234149660385 -0.0017977276161157839 -0.010616219758987426 0.006127405751634527 0.012356898283958435 0.00834407267116365 -0.0051946816983677096 -0.00868660945892334 -0.0095872229337692263 -0.011468473961859038
leaf_weight=22 27 23 24 30 21 30 30 27 25 21 21 25 32 33
leaf_count=22 27 23 24 30 21 30 30 27 25 21 21 25 32 33
internal_value=-1.86443e-11 0.0105039 -0.00842246 0.00700474 0.0158286 -0.00443849 -0.0105267 0.00450269 0.0138999 0.00965397 -0.00619899 -0.00968325 -0.0100851 -0.0118608
internal_weight=391 174 217 105 69 75 142 54 48 51 45 87 62 55
internal_count=391 174 217 105 69 75 142 54 48 51 45 87 62 55
is_linear=0
shrinkage=0.01


Tree=40
num_leaves=15
num_cat=0
split_feature=60 60 60 60 60 60 60 65 32 12 60 39 24 3
split_gain=339.091 27.3049 23.8076 6.22479 4.15838 3.48817 2.46004 1.15837 0.869292 0.698488 0.612836 0.191863 0.125602 0.0960811
threshold=9.695196312682036 11.095768637430456 8.3769797945870259 10.449633532274266 11.69971801162758 7.8113481866733805 8.9883342614776556 1.0000000180025095e-35 10.697317576155402 10.455 7.6332295383785373 0.23552331701362367 7.8061589795815705 12.730000000000002
decision_type=2 2 2 2 2 2 2 2 2 2 2 2 2 2
left_child=2 3 5 9 -3 10 -4 11 -5 -2 13 -7 -12 -1
right_child=1 4 6 8 -6 7 -8 -9 -10 -11 12 -13 -14 -15
leaf_value=-0.012420604172207059 0.0062683431617915628 0.014435498118400574 -0.00395515297849973 0.01120457939306895 0.020034862075533188 -0.0084368228912353512 0.00035157400427297467 -0.0062801704264205437 0.0088525892207116791 0.0037710439032387169 -0.010010407760336593 -0.0097333888780503051 -0.010994011342525483 -0.011474950096823953
leaf_weight=21 24 36 36 30 21 25 21 23 33 21 37 21 20 22
leaf_count=21 24 36 36 30 21 25 21 23 33 21 37 21 20 22
internal_value=1.12068e-11 0.0108989 -0.00795715 0.00794356 0.0164984 -0.00984209 -0.00236846 -0.00811255 0.00997258 0.00510294 -0.0110355 -0.00902873 -0.0103555 -0.0119368
internal_weight=391 165 226 108 57 169 57 69 63 45 100 46 57 43
internal_count=391 165 226 108 57 169 57 69 63 45 100 46 57 43
is_linear=0
shrinkage=0.01


Tree=41
num_leaves=14
num_cat=0
split_feature=38 38 59 38 21 21 59 40 7 59 21 21 40
split_gain=331.229 24.533 21.3307 5.75804 3.63189 2.48866 2.37603 2.1203 1.98019 0.634444 0.567412 0.403036 0.16998
threshold=9.5547168911913705 11.155198653980486 8.2870126465303198 10.279638674070602 3.5000000000000004 4.5000000000000009 7.8372395419638528 8.5104098288466776 4.4250000000000016 7.6484893379575114 3.5000000000000004 4.5000000000000009 7.6084969196714907
decision_type=2 2 2 2 2 2 2 2 2 2 2 2 2
left_child=2 3 6 -2 -3 8 9 -4 -5 -1 -8 12 -11
right_child=1 4 7 5 -6 -7 10 -9 -10 11 -12 -13 -14
leaf_value=-0.011846079545862533 0.0046146594038741157 0.014133708328008652 -0.0045641649930792698 0.010680859436591465 0.019563225670294331 0.012266038283705712 -0.0090090654878055339 -0.00081061178438917355 0.0069725865953498417 -0.011347272310938154 -0.0069753820481507677 -0.0089822134375572207 -0.010182045082892142
leaf_weight=34 33 28 34 24 22 24 34 27 36 21 23 20 31
leaf_count=34 33 28 34 24 22 24 34 27 36 21 23 20 31
internal_value=-2.57483e-11 0.0106596 -0.00794713 0.00815404 0.0165227 0.00954451 -0.0098349 -0.00290276 0.0084559 -0.0107203 -0.00818846 -0.0101886 -0.0106526
internal_weight=391 167 224 117 50 84 163 61 60 106 57 72 52
internal_count=391 167 224 117 50 84 163 61 60 106 57 72 52
is_linear=0
shrinkage=0.01


Tree=42
num_leaves=16
num_cat=0
split_feature=60 60 60 60 60 60 60 32 21 60 0 60 39 24 3
split_gain=325.764 26.2729 22.8829 6.38127 3.64873 3.35622 2.37555 1.16359 1.12334 0.902594 0.683201 0.58745 0.187495 0.121366 0.0941344
threshold=9.695196312682036 11.118970549965697 8.3769797945870259 10.449633532274266 11.69971801162758 7.8113481866733805 8.9883342614776556 10.483383650735002 4.5000000000000009 10.796539662795984 10.365 7.6332295383785373 0.23552331701362367 7.8061589795815705 12.730000000000002
decision_type=2 2 2 2 2 2 2 2 2 2 2 2 2 2 2
left_child=2 3 5 10 -3 11 -4 -5 12 -9 -2 14 -7 -13 -1
right_child=1 4 6 7 -6 8 -8 9 -10 -11 -12 13 -14 -15 -16
leaf_value=-0.012179124922979446 0.0062006791454294451 0.014330014207146385 -0.0038793436789678203 0.011892854183912279 0.019662150541941325 -0.0082677663087844851 0.00035278481586525836 0.0075405904786153277 -0.0061462215496146154 0.010344785402218502 0.0037357459733770655 -0.0098128217297631347 -0.0095494901566278365 -0.010779695898294448 -0.011243100166320802
leaf_weight=21 23 33 36 20 21 25 21 22 23 24 22 37 21 20 22
leaf_count=21 23 33 36 20 21 25 21 22 23 24 22 37 21 20 22
internal_value=-2.89401e-12 0.0106826 -0.00779921 0.00789934 0.0164036 -0.00964719 -0.00232014 0.00987917 -0.00795067 0.00900365 0.0049956 -0.0108178 -0.0088529 -0.0101521 -0.0117002
internal_weight=391 165 226 111 54 169 57 66 69 46 45 100 46 57 43
internal_count=391 165 226 111 54 169 57 66 69 46 45 100 46 57 43
is_linear=0
shrinkage=0.01


Tree=43
num_leaves=15
num_cat=0
split_feature=60 60 60 60 60 60 33 60 60 21 21 40 15 74
split_gain=319.306 30.0719 16.8504 6.96205 4.72469 3.23292 1.66006 1.47159 1.14553 0.374503 0.324999 0.159099 0.121 0.0181973
threshold=9.3354510561883668 10.830416867642858 8.068186294461368 11.59281386256564 10.040163161160628 8.6147294659670184 11.099763698772902 7.6874048799979597 10.449633532274266 3.5000000000000004 4.5000000000000009 7.725365780442961 13.345000000000001 14.632050000000001
decision_type=2 2 2 2 2 2 2 2 2 2 2 2 2 2
left_child=2 4 7 6 -2 9 -3 12 -6 -4 11 13 -1 -9
right_child=1 3 5 -5 8 -7 -8 10 -10 -11 -12 -13 -14 -15
leaf_value=-0.011972043026577344 0.0029457614726076525 0.014226677395679333 -0.0068062925835450493 0.018692509465747409 0.0060484930500388145 -0.0017149428805957236 0.010720003368677917 -0.0098583273887634278 0.0088252364748563523 -0.0049776919824736461 -0.0083453126192092903 -0.0090128811922940352 -0.011014614899953206 -0.010284909904003143
leaf_weight=22 30 27 24 27 24 30 27 20 39 21 25 22 33 20
leaf_count=22 30 27 24 27 24 30 27 20 39 21 25 22 33 20
internal_value=2.61056e-11 0.0100918 -0.00809207 0.0145464 0.00621205 -0.00425774 0.0124733 -0.0101172 0.00776743 -0.00595295 -0.00930783 -0.00969594 -0.0113976 -0.0100716
internal_weight=391 174 217 81 93 75 54 142 63 45 87 62 55 40
internal_count=391 174 217 81 93 75 54 142 63 45 87 62 55 40
is_linear=0
shrinkage=0.01


Tree=44
num_leaves=13
num_cat=0
split_feature=60 60 60 60 60 60 60 32 60 12 24 60
split_gain=312.984 25.2926 22.0057 5.73653 3.88547 3.5652 2.20407 0.823134 0.693616 0.663964 0.239421 0.222375
threshold=9.695196312682036 11.095768637430456 8.1970795267654282 10.449633532274266 11.69971801162758 8.7851225824480217 7.7294585256276518 10.697317576155402 7.9808383762300918 10.325000000000001 7.8061589795815705 7.5847836410290403
decision_type=2 2 2 2 2 2 2 2 2 2 2 2
left_child=2 3 6 9 -3 -4 11 -5 10 -2 -8 -1
right_child=1 4 5 7 -6 -7 8 -9 -10 -11 -12 -13
leaf_value=-0.011666451115762033 0.0060876305466112876 0.013866102049748103 -0.0051140765030868356 0.010773246010144552 0.019278604189554852 -0.00056358763792862501 -0.0086178308924039198 0.0084845514369733411 -0.0073195041660909302 0.0036576482175256718 -0.0098812163670857749 -0.010531757519795345
leaf_weight=31 23 36 36 30 21 33 30 33 27 22 30 39
leaf_count=31 23 36 36 30 21 33 30 33 27 22 30 39
internal_value=-3.68003e-12 0.0104709 -0.0076447 0.00762659 0.0158602 -0.00293776 -0.00971335 0.00957441 -0.00865055 0.00489964 -0.00924952 -0.0110343
internal_weight=391 165 226 108 57 69 157 63 87 45 60 70
internal_count=391 165 226 108 57 69 157 63 87 45 60 70
is_linear=0
shrinkage=0.01


Tree=45
num_leaves=15
num_cat=0
split_feature=60 60 60 60 60 60 33 60 60 21 21 40 15 32
split_gain=306.78 28.9337 16.1827 6.68726 4.53357 3.10284 1.626 1.41501 1.08724 0.36785 0.315613 0.153163 0.118248 0.0279115
threshold=9.3354510561883668 10.830416867642858 8.068186294461368 11.59281386256564 10.040163161160628 8.6147294659670184 11.099763698772902 7.6874048799979597 10.449633532274266 3.5000000000000004 4.5000000000000009 7.725365780442961 13.345000000000001 7.821218150946426
decision_type=2 2 2 2 2 2 2 2 2 2 2 2 2 2
left_child=2 4 7 6 -2 9 -3 12 -6 -4 11 13 -1 -9
right_child=1 3 5 -5 8 -7 -8 10 -10 -11 -12 -13 -14 -15
leaf_value=-0.011739784235304052 0.0028867211164906622 0.013964879468635276 -0.0066806564107537271 0.018324825940308747 0.0059352317328254384 -0.0016830565864220262 0.010494371751944225 -0.009609619021415711 0.0086404017072457522 -0.0048683727426188338 -0.0081741908073425292 -0.0088349784233353358 -0.010793305816072407 -0.010137932240962981
leaf_weight=22 30 27 24 27 24 30 27 20 39 21 25 22 33 20
leaf_count=22 30 27 24 27 24 30 27 20 39 21 25 22 33 20
internal_value=2.85828e-13 0.00989191 -0.00793176 0.0142614 0.00608627 -0.00417418 0.0122296 -0.00991641 0.00760986 -0.00583492 -0.0091227 -0.00950517 -0.0111719 -0.00987378
internal_weight=391 174 217 81 93 75 54 142 63 45 87 62 55 40
internal_count=391 174 217 81 93 75 54 142 63 45 87 62 55 40
is_linear=0
shrinkage=0.01


Tree=46
num_leaves=15
num_cat=0
split_feature=60 60 60 60 60 60 60 21 60 12 60 60 21 3
split_gain=300.705 24.3564 21.1478 5.84128 3.36797 3.10736 2.2052 1.05882 0.864543 0.645286 0.541339 0.160443 0.0973989 0.0900746
threshold=9.695196312682036 11.118970549965697 8.3769797945870259 10.449633532274266 11.69971801162758 7.8113481866733805 8.9883342614776556 4.5000000000000009 10.796539662795984 10.325000000000001 7.6332295383785373 7.9605662879279029 3.5000000000000004 12.730000000000002
decision_type=2 2 2 2 2 2 2 2 2 2 2 2 2 2
left_child=2 3 5 9 -3 10 -4 11 -5 -2 13 -7 -12 -1
right_child=1 4 6 8 -6 7 -8 -9 -10 -11 12 -13 -14 -15
leaf_value=-0.01171169244107746 0.0059766799308683559 0.013779690717205858 -0.003728243900744322 0.0084330924931499702 0.018902570065997899 -0.0091576821179617015 0.0003493136708580312 -0.0058854961006537731 0.010731640060742696 0.0035811190103942699 -0.010097073982743657 -0.0079720229506492612 -0.0092544942835102902 -0.010796074108643965
leaf_weight=21 23 33 36 36 21 21 21 23 30 22 34 25 23 22
leaf_count=21 23 33 36 36 21 21 21 23 30 22 34 25 23 22
internal_value=-1.07826e-11 0.0102635 -0.00749324 0.00758368 0.0157719 -0.00926977 -0.00222599 -0.00763737 0.00947789 0.00480552 -0.0103961 -0.0085133 -0.00975709 -0.0112432
internal_weight=391 165 226 111 54 169 57 69 66 45 100 46 57 43
internal_count=391 165 226 111 54 169 57 69 66 45 100 46 57 43
is_linear=0
shrinkage=0.01


Tree=47
num_leaves=14
num_cat=0
split_feature=60 60 60 60 60 60 60 32 60 60 0 24 60
split_gain=294.721 23.8717 20.7426 5.72504 3.364 3.30094 2.07814 1.13904 0.827326 0.650379 0.632445 0.229781 0.210829
threshold=9.695196312682036 11.118970549965697 8.1970795267654282 10.449633532274266 8.7851225824480217 11.69971801162758 7.7294585256276518 10.483383650735002 10.796539662795984 7.9808383762300918 10.365 7.8061589795815705 7.5847836410290403
decision_type=2 2 2 2 2 2 2 2 2 2 2 2 2
left_child=2 3 6 10 -4 -3 12 -5 -9 11 -2 -8 -1
right_child=1 5 4 7 -6 -7 9 8 -10 -11 -12 -13 -14
leaf_value=-0.011324892332476955 0.0059169131614591761 0.013641894062360127 -0.0049624724528985103 0.011375437736511231 -0.00054224987824757901 0.01871354381243388 -0.0083558828632036841 0.0071161501651460478 0.0098008780926465994 -0.0071058296163876858 0.0035453078340188689 -0.0095935703913370782 -0.010220048901362298
leaf_weight=31 23 33 36 20 33 21 30 22 24 27 22 30 39
leaf_count=31 23 33 36 20 33 21 30 22 24 27 22 30 39
internal_value=2.74752e-11 0.0101608 -0.00741831 0.00750785 -0.00284845 0.0156142 -0.00942672 0.00938311 0.00851688 -0.00839472 0.00475746 -0.00897473 -0.0107093
internal_weight=391 165 226 111 69 54 157 66 46 87 45 60 70
internal_count=391 165 226 111 69 54 157 66 46 87 45 60 70
is_linear=0
shrinkage=0.01


Tree=48
num_leaves=15
num_cat=0
split_feature=60 60 60 60 60 60 60 29 33 32 21 21 60 17
split_gain=288.906 27.2643 15.244 5.73242 4.93666 2.92641 1.33358 1.23068 1.18279 1.14034 0.356727 0.299886 0.135023 0.114171
threshold=9.3354510561883668 10.926917934584989 8.068186294461368 10.449633532274266 11.69971801162758 8.6147294659670184 7.6874048799979597 7.3050000000000015 11.099763698772902 10.697317576155402 3.5000000000000004 4.5000000000000009 7.8113481866733805 13.345000000000001
decision_type=2 2 2 2 2 2 2 2 2 2 2 2 2 2
left_child=2 3 6 7 8 10 13 -2 -3 -5 -4 12 -8 -1
right_child=1 4 5 9 -6 -7 11 -9 -10 -11 -12 -13 -14 -15
leaf_value=-0.011400287828662179 0.0026101829206433007 0.014349853603736213 -0.0064959358051419258 0.010204620670389247 0.018526408672332764 -0.0016309908706073958 -0.0097077096700668337 0.0056294744103043172 0.011207604598999023 0.0072088101754585899 -0.0047112622786135904 -0.0079283434391021722 -0.0087738873250782484 -0.01047027223037951
leaf_weight=22 27 23 24 27 21 30 30 27 25 24 21 25 32 33
leaf_count=22 27 23 24 27 21 30 30 27 25 24 21 25 32 33
internal_value=1.58396e-12 0.00959942 -0.00769723 0.00639054 0.0144825 -0.00405025 -0.00962345 0.00411983 0.0127133 0.00879483 -0.00566309 -0.00885292 -0.00922574 -0.0108423
internal_weight=391 174 217 105 69 75 142 54 48 51 45 87 62 55
internal_count=391 174 217 105 69 75 142 54 48 51 45 87 62 55
is_linear=0
shrinkage=0.01


Tree=49
num_leaves=16
num_cat=0
split_feature=60 60 60 60 60 60 60 32 40 21 12 60 40 24 3
split_gain=283.163 22.9684 19.9323 5.4803 3.15979 2.93014 2.08759 1.10626 1.16566 1.01479 0.606168 0.509661 0.197972 0.112239 0.0871488
threshold=9.695196312682036 11.118970549965697 8.3769797945870259 10.449633532274266 11.69971801162758 7.8113481866733805 8.9883342614776556 10.483383650735002 10.558831979428701 4.5000000000000009 10.325000000000001 7.6332295383785373 7.8398785774583262 7.8061589795815705 12.730000000000002
decision_type=2 2 2 2 2 2 2 2 2 2 2 2 2 2 2
left_child=2 3 5 10 -3 11 -4 -5 -9 12 -2 14 -7 -13 -1
right_child=1 4 6 7 -6 9 -8 8 -10 -11 -12 13 -14 -15 -16
leaf_value=-0.0113726110969271 0.0058014492982107662 0.013379116004163569 -0.0036194020866726836 0.011155491858720779 0.018341144607180643 -0.0088438462523313666 0.00034793868660926819 0.0066757077114148579 0.0098624579856793088 -0.0056958815196286074 0.0034796356938948687 -0.0091435655709859488 -0.0075204814970493321 -0.010073372095823287 -0.01047198618000204
leaf_weight=21 23 33 36 20 21 26 21 22 24 23 22 37 20 20 22
leaf_count=21 23 33 36 20 21 26 21 22 24 23 22 37 20 20 22
internal_value=3.91346e-11 0.0099596 -0.00727139 0.00735729 0.0153088 -0.00899611 -0.00215775 0.00919204 0.00833836 -0.00741094 0.00466634 -0.0100899 -0.00826847 -0.00946981 -0.0109118
internal_weight=391 165 226 111 54 169 57 66 46 69 45 100 46 57 43
internal_count=391 165 226 111 54 169 57 66 46 69 45 100 46 57 43
is_linear=0
shrinkage=0.01


Tree=50
num_leaves=15
num_cat=0
split_feature=60 60 60 60 60 60 60 50 60 21 21 40 44 18
split_gain=277.546 26.2373 14.6526 6.41771 3.85231 2.81909 1.28241 1.1473 0.836866 0.345503 0.288099 0.139652 0.111117 0.0186732
threshold=9.3354510561883668 10.796539662795984 8.068186294461368 11.59281386256564 10.040163161160628 8.6147294659670184 7.6874048799979597 11.000522458978292 10.449633532274266 3.5000000000000004 4.5000000000000009 7.725365780442961 7.399866731770576 0.47500000000000003
decision_type=2 2 2 2 2 2 2 2 2 2 2 2 2 2
left_child=2 4 6 7 -2 9 12 -3 -6 -4 11 13 -1 -8
right_child=1 3 5 -5 8 -7 10 -9 -10 -11 -12 -13 -14 -15
leaf_value=-0.011200012167294819 0.0027314457808000348 0.013383437962759108 -0.0063714747130870818 0.017444358490131519 0.0056738123918573056 -0.0015943563086912036 -0.0091785962581634514 0.010442297624217138 0.0080845323122209975 -0.004615101218223572 -0.0077710433006286618 -0.0084027338840744724 -0.01027484094395357 -0.0096107210516929633
leaf_weight=21 30 21 24 27 24 30 20 36 36 21 25 22 34 20
leaf_count=21 30 21 24 27 24 30 20 36 36 21 25 22 34 20
internal_value=-1.2112e-11 0.0094088 -0.00754438 0.0134282 0.00565731 -0.00396884 -0.00943287 0.0115259 0.00712024 -0.00555183 -0.00867727 -0.00904269 -0.0106281 -0.00939466
internal_weight=391 174 217 84 90 75 142 57 60 45 87 62 55 40
internal_count=391 174 217 84 90 75 142 57 60 45 87 62 55 40
is_linear=0
shrinkage=0.01


Tree=51
num_leaves=14
num_cat=0
split_feature=60 60 60 60 60 60 60 32 40 60 0 24 60
split_gain=272.054 22.0939 19.1667 5.24806 3.10764 3.04066 1.92198 1.08523 1.1302 0.597504 0.589066 0.217837 0.196406
threshold=9.695196312682036 11.118970549965697 8.1970795267654282 10.449633532274266 8.7851225824480217 11.69971801162758 7.7294585256276518 10.483383650735002 10.558831979428701 7.9808383762300918 10.365 7.8061589795815705 7.5847836410290403
decision_type=2 2 2 2 2 2 2 2 2 2 2 2 2
left_child=2 3 6 10 -4 -3 12 -5 -9 11 -2 -8 -1
right_child=1 5 4 7 -6 -7 9 8 -10 -11 -12 -13 -14
leaf_value=-0.010885550629708075 0.0056956516756959587 0.013115693294640742 -0.0047663674169840919 0.010950135946273806 -0.00051790606061165984 0.017983289162317912 -0.0080188514888286586 0.0065227467092600737 0.0096606458226839702 -0.0068300794672082974 0.0034068253915756942 -0.009223943014939626 -0.0098191687082633001
leaf_weight=31 23 33 36 20 33 21 30 22 24 27 22 30 39
leaf_count=31 23 33 36 20 33 21 30 22 24 27 22 30 39
internal_value=-3.15125e-11 0.00976228 -0.00712733 0.00720999 -0.00273449 0.0150086 -0.00905793 0.00900543 0.00815991 -0.00806547 0.00457667 -0.0086214 -0.0102914
internal_weight=391 165 226 111 69 54 157 66 46 87 45 60 70
internal_count=391 165 226 111 69 54 157 66 46 87 45 60 70
is_linear=0
shrinkage=0.01


Tree=52
num_leaves=15
num_cat=0
split_feature=60 60 60 60 60 60 33 60 60 69 60 24 15 24
split_gain=266.658 25.2318 14.0719 5.84246 3.9646 2.70565 1.55815 1.23306 0.902309 0.274197 0.257064 0.244836 0.108979 0.0856628
threshold=9.3354510561883668 10.830416867642858 8.068186294461368 11.59281386256564 10.040163161160628 8.6147294659670184 11.099763698772902 7.6874048799979597 10.449633532274266 1.0000000180025095e-35 7.8113481866733805 7.9188744475807757 13.345000000000001 7.7236547085328153
decision_type=2 2 2 2 2 2 2 2 2 2 2 2 2 2
left_child=2 4 7 6 -2 9 -3 12 -6 -4 13 -12 -1 -9
right_child=1 3 5 -5 8 -7 -8 10 -10 -11 11 -13 -14 -15
leaf_value=-0.010962779115546833 0.0026764967013150455 0.013102359904183283 -0.0046436350453983657 0.017100899440270882 0.0055677472582707803 -0.0015647367468724649 0.009705031801153112 -0.008563405445643834 0.0080321409610601569 -0.006205208677312603 -0.0072140589085492226 -0.0087428080737590782 -0.010054155895204255 -0.0094379605104525886
leaf_weight=22 30 27 22 27 24 30 27 21 39 23 22 20 33 24
leaf_count=22 30 27 22 27 24 30 27 21 39 23 22 20 33 24
internal_value=2.94403e-11 0.0092224 -0.00739492 0.0133028 0.00566854 -0.00389096 0.0114037 -0.00924561 0.00709332 -0.00544177 -0.00850469 -0.00794203 -0.0104176 -0.00902983
internal_weight=391 174 217 81 93 75 54 142 63 45 87 42 55 45
internal_count=391 174 217 81 93 75 54 142 63 45 87 42 55 45
is_linear=0
shrinkage=0.01


Tree=53
num_leaves=15
num_cat=0
split_feature=60 60 60 60 60 60 60 21 60 0 60 39 24 3
split_gain=261.38 21.269 18.4122 5.0219 2.92215 2.7076 1.94057 0.963975 0.767554 0.572462 0.470864 0.174886 0.106772 0.0839619
threshold=9.695196312682036 11.118970549965697 8.3769797945870259 10.449633532274266 11.69971801162758 7.8113481866733805 8.9883342614776556 4.5000000000000009 10.796539662795984 10.365 7.6332295383785373 0.23552331701362367 7.8061589795815705 12.730000000000002
decision_type=2 2 2 2 2 2 2 2 2 2 2 2 2 2
left_child=2 3 5 9 -3 10 -4 11 -5 -2 13 -7 -12 -1
right_child=1 4 6 8 -6 7 -8 -9 -10 -11 12 -13 -14 -15
leaf_value=-0.010937502128737312 0.005591817096523617 0.012860655549800757 -0.0034805690797252787 0.0078365622957547506 0.017632447764987038 -0.0073906441211700436 0.00034451344094815707 -0.0054484119428240734 0.010002343167861303 0.0033354785020293836 -0.0087809766144365878 -0.0086285178150449487 -0.0096878559887409212 -0.010053497579964725
leaf_weight=21 23 33 36 36 21 25 21 23 30 22 37 21 20 22
leaf_count=21 23 33 36 36 21 25 21 23 30 22 37 21 20 22
internal_value=-2.11155e-11 0.00956886 -0.00698611 0.00706467 0.0147164 -0.00864376 -0.00207133 -0.00711998 0.00882101 0.00448872 -0.00969518 -0.00795576 -0.00909918 -0.0104852
internal_weight=391 165 226 111 54 169 57 69 66 45 100 46 57 43
internal_count=391 165 226 111 54 169 57 69 66 45 100 46 57 43
is_linear=0
shrinkage=0.01


Tree=54
num_leaves=13
num_cat=0
split_feature=60 60 60 60 60 60 60 32 60 0 32 60
split_gain=256.179 20.8461 18.0606 4.61955 3.17534 2.9343 1.81236 0.74895 0.565788 0.56107 0.211202 0.186423
threshold=9.695196312682036 11.095768637430456 8.1970795267654282 10.449633532274266 11.69971801162758 8.7851225824480217 7.7294585256276518 10.697317576155402 7.9808383762300918 10.365 7.7857703712728759 7.5847836410290403
decision_type=2 2 2 2 2 2 2 2 2 2 2 2
left_child=2 3 6 9 -3 -4 11 -5 10 -2 -8 -1
right_child=1 4 5 7 -6 -7 8 -9 -10 -11 -12 -13
leaf_value=-0.010566952343909973 0.0055358990217032646 0.012563162396351498 -0.004626454060069389 0.0097824074824651094 0.017456123034159342 -0.00049818236028041803 -0.007689086049795151 0.0075992794921903896 -0.006624423155078182 0.0033021237366748129 -0.008886375006507425 -0.0095280250066365948
leaf_weight=31 23 36 36 30 21 33 26 33 27 22 34 39
leaf_count=31 23 36 36 30 21 33 26 33 27 22 34 39
internal_value=6.99087e-12 0.00947317 -0.00691625 0.00689093 0.0143658 -0.00265206 -0.00879032 0.00863886 -0.00782658 0.00444383 -0.00836755 -0.00998812
internal_weight=391 165 226 108 57 69 157 63 87 45 60 70
internal_count=391 165 226 108 57 69 157 63 87 45 60 70
is_linear=0
shrinkage=0.01


Tree=55
num_leaves=15
num_cat=0
split_feature=38 38 59 16 21 40 59 38 41 21 59 21 21 40
split_gain=250.118 18.6175 16.1286 4.73747 3.31436 1.92928 1.80193 1.6026 0.839561 0.549632 0.484574 0.463278 0.3162 0.134621
threshold=9.5547168911913705 11.155198653980486 8.2870126465303198 8.7950000000000017 3.5000000000000004 9.8065549575698316 7.8372395419638528 8.6347223518296818 11.054766933129601 3.5000000000000004 7.6484893379575114 3.5000000000000004 4.5000000000000009 7.6084969196714907
decision_type=2 2 2 2 2 2 2 2 2 2 2 2 2 2
left_child=2 3 6 8 -3 -5 10 -4 -2 -7 -1 -8 13 -12
right_child=1 4 7 5 -6 9 11 -9 -10 -11 12 -13 -14 -15
leaf_value=-0.010302294001859778 0.0080056180383848118 0.012088305950164795 -0.0044645563341677193 0.0031424831898882988 0.017275049930269067 0.0055604141408746892 -0.0078550656578120059 -0.0011687963519297125 0.010605569548077055 0.0078509354442358008 -0.0098829460427874612 -0.0060174496083155926 -0.0077851978242397318 -0.0088459735916506851
leaf_weight=34 23 28 25 25 22 22 34 36 27 20 21 23 20 31
leaf_count=34 23 28 25 25 22 22 34 36 27 20 21 23 20 31
internal_value=1.61493e-11 0.00926295 -0.00690586 0.00708025 0.0143705 0.00534194 -0.00854738 -0.00251952 0.00940959 0.00665114 -0.00931839 -0.00711357 -0.00885376 -0.00926475
internal_weight=391 167 224 117 50 67 163 61 50 42 106 57 72 52
internal_count=391 167 224 117 50 67 163 61 50 42 106 57 72 52
is_linear=0
shrinkage=0.01


Tree=56
num_leaves=14
num_cat=0
split_feature=60 60 60 60 60 60 33 60 60 21 21 60 21
split_gain=246.182 23.3778 13.012 5.7376 3.40258 2.49912 1.51842 1.13661 0.721271 0.484043 0.266708 0.114182 0.106143
threshold=9.3354510561883668 10.796539662795984 8.068186294461368 11.59281386256564 10.040163161160628 8.7851225824480217 11.099763698772902 7.6874048799979597 10.449633532274266 3.5000000000000004 4.5000000000000009 7.8113481866733805 2.5000000000000004
decision_type=2 2 2 2 2 2 2 2 2 2 2 2 2
left_child=2 4 7 6 -2 9 -3 12 -6 -4 11 -9 -1
right_child=1 3 5 -5 8 -7 -8 10 -10 -11 -12 -13 -14
leaf_value=-0.010548224205320532 0.0025703179521951824 0.012460363897784004 -0.0059066452472298237 0.016452704579741868 0.0053521640660862124 -0.001074926647124812 0.0091955703284059259 -0.0089684195319811501 0.0075902041378948428 -0.003954825303517282 -0.0073016798257827765 -0.0081096835434436802 -0.0096515001672686958
leaf_weight=22 30 29 27 27 24 24 28 30 36 24 25 32 33
leaf_count=22 30 29 27 27 24 24 28 30 36 24 25 32 33
internal_value=2.42418e-11 0.00886126 -0.00710534 0.0126554 0.0053201 -0.00373591 0.0108566 -0.00888496 0.00669499 -0.00498814 -0.00817361 -0.0085252 -0.0100102
internal_weight=391 174 217 84 90 75 57 142 60 51 87 62 55
internal_count=391 174 217 84 90 75 57 142 60 51 87 62 55
is_linear=0
shrinkage=0.01


Tree=57
num_leaves=16
num_cat=0
split_feature=60 60 60 60 60 60 33 60 29 32 21 21 40 15 32
split_gain=241.283 22.9292 12.7531 4.72379 4.16806 2.45699 1.1267 1.11399 1.0684 1.04546 0.326084 0.2614 0.12289 0.104795 0.0288303
threshold=9.3354510561883668 10.926917934584989 8.068186294461368 10.449633532274266 11.69971801162758 8.6147294659670184 11.099763698772902 7.6874048799979597 7.3050000000000015 10.697317576155402 3.5000000000000004 4.5000000000000009 7.725365780442961 13.345000000000001 7.821218150946426
decision_type=2 2 2 2 2 2 2 2 2 2 2 2 2 2 2
left_child=2 3 7 8 6 10 -3 13 -2 -5 -4 12 14 -1 -9
right_child=1 4 5 9 -6 -7 -8 11 -10 -11 -12 -13 -14 -15 -16
leaf_value=-0.010444694432345303 0.0023620285221410018 0.013222347472025 -0.0059726617857813833 0.0093623303704791598 0.016966513054711477 -0.0014818024832444886 0.010155509781837465 -0.008501654505729676 0.0051752255360285439 0.0064938537900646534 -0.0042663609555789401 -0.0072286629676818846 -0.0078396308693018824 -0.0095536836349602913 -0.0090385933220386502
leaf_weight=22 27 23 24 27 21 30 25 20 27 24 21 25 22 33 20
leaf_count=22 27 23 24 27 21 30 25 20 27 24 21 25 22 33 20
internal_value=-9.39659e-12 0.00877264 -0.00703428 0.00582992 0.0132507 -0.00369855 0.011625 -0.00879611 0.00376863 0.00801246 -0.00517639 -0.00809188 -0.00843995 -0.00991009 -0.00877012
internal_weight=391 174 217 105 69 75 48 142 54 51 45 87 62 55 40
internal_count=391 174 217 105 69 75 48 142 54 51 45 87 62 55 40
is_linear=0
shrinkage=0.01


Tree=58
num_leaves=16
num_cat=0
split_feature=60 60 60 60 60 60 60 32 40 21 29 60 40 32 3
split_gain=236.496 19.3479 16.6934 4.52133 2.66599 2.45902 1.77616 1.04701 1.03842 0.899042 0.527346 0.424907 0.162891 0.105058 0.0812657
threshold=9.695196312682036 11.118970549965697 8.3769797945870259 10.449633532274266 11.69971801162758 7.8113481866733805 8.9883342614776556 10.483383650735002 10.558831979428701 4.5000000000000009 7.6500000000000012 7.6332295383785373 7.8398785774583262 7.6641290350445663 12.730000000000002
decision_type=2 2 2 2 2 2 2 2 2 2 2 2 2 2 2
left_child=2 3 5 10 -3 11 -4 -5 -9 12 -2 14 -7 -13 -1
right_child=1 4 6 7 -6 9 -8 8 -10 -11 -12 13 -14 -15 -16
leaf_value=-0.010421074316615151 0.0031624863212081516 0.012239005782387473 -0.0033137001997480793 0.010290203601121903 0.016796847865695047 -0.0081005284648675187 0.00034576372553904856 0.0059802697463469069 0.0089880657444397615 -0.0051571875195140426 0.0053280888854161561 -0.0081179470907558095 -0.0069001296609640115 -0.0089998221737997881 -0.0095513793013312608
leaf_weight=21 22 33 36 20 21 26 21 22 24 23 23 22 20 35 22
leaf_count=21 22 33 36 20 21 26 21 22 24 23 23 22 20 35 22
internal_value=-2.25804e-11 0.00910197 -0.00664524 0.00671355 0.0140115 -0.00822363 -0.00196548 0.00838005 0.00754955 -0.00677147 0.00426935 -0.00922562 -0.00757862 -0.00865945 -0.00997611
internal_weight=391 165 226 111 54 169 57 66 46 69 45 100 46 57 43
internal_count=391 165 226 111 54 169 57 66 46 69 45 100 46 57 43
is_linear=0
shrinkage=0.01


Tree=59
num_leaves=15
num_cat=0
split_feature=38 38 59 16 21 40 59 25 41 23 59 11 21 40
split_gain=230.841 17.2316 14.8986 4.41509 3.19057 1.77699 1.66309 1.4986 0.782172 0.623673 0.450375 0.442458 0.290106 0.125043
threshold=9.5547168911913705 11.155198653980486 8.2870126465303198 8.7950000000000017 3.5000000000000004 9.8065549575698316 7.8372395419638528 8.6681824030609764 11.054766933129601 313.50000000000006 7.6484893379575114 10.390000000000002 4.5000000000000009 7.6084969196714907
decision_type=2 2 2 2 2 2 2 2 2 2 2 2 2 2
left_child=2 3 6 8 -3 -5 10 -4 -2 -7 -1 -8 13 -12
right_child=1 4 7 5 -6 9 11 -9 -10 -11 12 -13 -14 -15
leaf_value=-0.0099013603084227627 0.0076925138805223553 0.011573466999190193 -0.0041202346807611839 0.0030099761992692948 0.016662420359524813 0.0052154367213899447 -0.0077633435417104645 -0.00097486427590025195 0.010202031378392819 0.0076553626805543895 -0.0094943442231132866 -0.0059988051404555641 -0.0074813559055328374 -0.0084949402847597673
leaf_weight=34 23 28 28 25 22 22 27 33 27 20 21 30 20 31
leaf_count=34 23 28 28 25 22 22 27 33 27 20 21 30 20 31
internal_value=-2.88924e-11 0.00889886 -0.00663442 0.00679897 0.0138126 0.00512084 -0.0082121 -0.00241864 0.00904765 0.00637731 -0.00895281 -0.00683464 -0.00850488 -0.00889855
internal_weight=391 167 224 117 50 67 163 61 50 42 106 57 72 52
internal_count=391 167 224 117 50 67 163 61 50 42 106 57 72 52
is_linear=0
shrinkage=0.01


Tree=60
num_leaves=14
num_cat=0
split_feature=38 38 59 16 21 43 59 25 41 59 11 21 40
split_gain=226.248 16.8887 14.6021 4.32723 3.12707 1.75136 1.62999 1.46878 0.766606 0.441412 0.433653 0.284333 0.122555
threshold=9.5547168911913705 11.155198653980486 8.2870126465303198 8.7950000000000017 3.5000000000000004 0.46204366939210006 7.8372395419638528 8.6681824030609764 11.054766933129601 7.6484893379575114 10.390000000000002 4.5000000000000009 7.6084969196714907
decision_type=2 2 2 2 2 2 2 2 2 2 2 2 2
left_child=2 3 6 8 -3 -5 9 -4 -2 -1 -8 12 -11
right_child=1 4 7 5 -6 -7 10 -9 -10 11 -12 -13 -14
leaf_value=-0.0098023465100456689 0.0076155887220216833 0.011457732149532862 -0.0040790323620396004 0.0065254607635575369 0.01649579641493884 0.003274108489044011 -0.0076857101034235077 -0.00096511560873213144 0.010100011086022412 -0.0093994007791791644 -0.0059388171335061392 -0.0074065424054861077 -0.0084099908413425573
leaf_weight=34 23 28 28 37 22 30 27 33 27 21 30 20 31
leaf_count=34 23 28 28 37 22 30 27 33 27 21 30 20 31
internal_value=-1.47082e-11 0.00880987 -0.00656807 0.00673098 0.0136745 0.00506963 -0.00812998 -0.00239445 0.00895718 -0.00886328 -0.00676629 -0.00841983 -0.00880956
internal_weight=391 167 224 117 50 67 163 61 50 106 57 72 52
internal_count=391 167 224 117 50 67 163 61 50 106 57 72 52
is_linear=0
shrinkage=0.01


Tree=61
num_leaves=15
num_cat=0
split_feature=59 38 59 41 21 21 59 21 16 41 59 33 21 40
split_gain=221.79 19.2726 9.83458 5.94175 3.72729 1.97401 1.59755 1.13304 0.915831 0.744568 0.432628 0.432463 0.278675 0.120116
threshold=9.198622524129652 11.04060800510282 8.2870126465303198 10.277030977292602 3.5000000000000004 1.5000000000000002 7.8372395419638528 3.5000000000000004 9.6500000000000021 10.949140463351851 7.6484893379575114 8.1392159341799708 4.5000000000000009 7.6084969196714907
decision_type=2 2 2 2 2 2 2 2 2 2 2 2 2 2
left_child=2 3 6 -2 -3 -5 10 -4 9 -7 -1 -8 13 -12
right_child=1 4 7 5 -6 8 11 -9 -10 -11 12 -13 -14 -15
leaf_value=-0.0097043230779030737 0.0021771093072990577 0.010815023799096385 -0.0043679801465727258 0.0050413168704620112 0.016004696011543272 0.0076903726905584334 -0.0060080491006374364 -0.0013725078883378404 0.006553769736062913 0.010328570552494214 -0.0093054068088531498 -0.0077972809834913771 -0.0073324769586324695 -0.008325890956386443
leaf_weight=34 30 31 28 27 25 20 35 23 21 23 21 22 20 31
leaf_count=34 30 31 28 27 25 20 35 23 21 23 21 22 20 31
internal_value=4.11175e-12 0.00828139 -0.00684956 0.00603655 0.0131318 0.00730889 -0.00804868 -0.00301708 0.00826553 0.0091015 -0.00877465 -0.00669863 -0.00833563 -0.00872146
internal_weight=391 177 214 121 56 91 163 51 64 43 106 57 72 52
internal_count=391 177 214 121 56 91 163 51 64 43 106 57 72 52
is_linear=0
shrinkage=0.01


Tree=62
num_leaves=15
num_cat=0
split_feature=59 38 59 41 21 21 59 41 21 59 21 21 56 40
split_gain=217.377 18.9021 9.63887 6.26185 3.0014 2.35398 1.56576 1.14403 1.1105 0.424019 0.423911 0.273129 0.216469 0.117726
threshold=9.198622524129652 11.155198653980486 8.2870126465303198 10.277030977292602 3.5000000000000004 1.5000000000000002 7.8372395419638528 11.0693099692347 3.5000000000000004 7.6484893379575114 3.5000000000000004 4.5000000000000009 9.8965490525447013 7.6084969196714907
decision_type=2 2 2 2 2 2 2 2 2 2 2 2 2 2
left_child=2 3 6 -2 -3 -5 9 12 -4 -1 -8 13 -7 -11
right_child=1 4 8 5 -6 7 10 -9 -10 11 -12 -13 -14 -15
leaf_value=-0.0096072797740206998 0.0021553381880124408 0.011235004727329528 -0.0043243003824526179 0.004997536730791988 0.016170791414651005 0.0080977012429918564 -0.0073409341801615327 0.010048861744312139 -0.0013587828191078228 -0.0092123526902425854 -0.0055831269336783359 -0.0072591521739959718 0.0066618697983877994 -0.0082426320545135011
leaf_weight=34 30 28 28 29 22 21 34 26 23 21 23 20 21 31
leaf_count=34 30 28 28 29 22 21 34 26 23 21 23 20 21 31
internal_value=-4.06114e-12 0.00819857 -0.00678106 0.00614811 0.0134068 0.00738299 -0.00796819 0.00840031 -0.00298691 -0.0086869 -0.00663164 -0.00825228 0.00737979 -0.00863425
internal_weight=391 177 214 127 50 97 163 68 51 106 57 72 42 52
internal_count=391 177 214 127 50 97 163 68 51 106 57 72 42 52
is_linear=0
shrinkage=0.01


Tree=63
num_leaves=14
num_cat=0
split_feature=38 16 59 68 48 39 59 38 12 11 59 68 51
split_gain=213.082 16.1139 13.7275 4.3948 3.32166 2.65474 1.5346 1.4258 0.659711 0.421058 0.415581 0.267694 0.0590082
threshold=9.5547168911913705 4.8150000000000004 8.2870126465303198 -0.60785761079279388 9.7011924941461825 0.41475217234411338 7.8372395419638528 8.6347223518296818 5.1950000000000012 10.390000000000002 7.6484893379575114 -0.60785761079279388 0.23400174221145173
decision_type=2 2 2 2 2 2 2 2 2 2 2 2 2
left_child=2 5 6 -3 -5 -2 10 -4 -6 -8 -1 -12 -13
right_child=1 3 7 4 8 -7 9 -9 -10 -11 11 12 -14
leaf_value=-0.009511207044124604 0.011172666606448946 0.0096303242444992065 -0.0041620316296815873 0.0030363075835082459 0.0083652816577391188 0.016090382726296135 -0.0074712940057118735 -0.0010533756339767327 0.0061010408113079681 -0.005749956866105398 -0.0071865607351064686 -0.0081218043565750124 -0.0088142218627035619
leaf_weight=34 21 36 25 34 22 23 27 36 31 30 20 20 32
leaf_count=34 21 36 25 34 22 23 27 36 31 30 20 20 32
internal_value=-1.2636e-11 0.0085497 -0.0063741 0.00669183 0.0054759 0.0137433 -0.00788851 -0.00232741 0.00704091 -0.00656533 -0.00860003 -0.00816976 -0.00854791
internal_weight=391 167 224 123 87 44 163 61 53 57 106 72 52
internal_count=391 167 224 123 87 44 163 61 53 57 106 72 52
is_linear=0
shrinkage=0.01


Tree=64
num_leaves=15
num_cat=0
split_feature=60 60 60 60 60 60 33 60 60 21 21 40 21 40
split_gain=209.821 20.1939 11.155 5.09645 2.89852 2.19562 1.42076 0.970579 0.627059 0.443519 0.202572 0.164995 0.0706602 0.063594
threshold=9.3354510561883668 10.796539662795984 8.068186294461368 11.59281386256564 10.040163161160628 8.7851225824480217 11.099763698772902 7.7294585256276518 10.449633532274266 3.5000000000000004 4.5000000000000009 7.4440004763252556 2.5000000000000004 7.725365780442961
decision_type=2 2 2 2 2 2 2 2 2 2 2 2 2 2
left_child=2 4 7 6 -2 9 -3 11 -6 -4 13 -1 -13 -9
right_child=1 3 5 -5 8 -7 -8 10 -10 -11 -12 12 -14 -15
leaf_value=-0.0097398889842240707 0.0023515727408230306 0.011563052350077136 -0.005492862131860521 0.015285898711946275 0.0049064333147058889 -0.0009457415051292628 0.0084050009825399948 -0.0080401490577336008 0.0069931951330767742 -0.0036245321032280725 -0.0065656104825791862 -0.0091567551493644712 -0.0083725320630603367 -0.0073271598328243604
leaf_weight=23 30 29 27 27 24 24 28 29 36 24 21 20 27 22
leaf_count=23 30 29 27 27 24 24 28 29 36 24 21 20 27 22
internal_value=-2.97737e-12 0.00818072 -0.00655965 0.011707 0.00488952 -0.00343992 0.0100117 -0.0082074 0.00615849 -0.00461365 -0.00739222 -0.00904587 -0.00870624 -0.00773259
internal_weight=391 174 217 84 90 75 57 142 60 51 72 70 47 51
internal_count=391 174 217 84 90 75 57 142 60 51 72 70 47 51
is_linear=0
shrinkage=0.01


Tree=65
num_leaves=16
num_cat=0
split_feature=60 60 60 60 60 60 60 32 40 21 0 60 40 32 3
split_gain=205.651 17.0108 14.5533 4.00275 2.47372 2.1576 1.59065 0.993943 0.950438 0.832518 0.489241 0.365235 0.146136 0.0997309 0.0791945
threshold=9.695196312682036 11.118970549965697 8.3769797945870259 10.449633532274266 11.69971801162758 7.8113481866733805 8.9883342614776556 10.483383650735002 10.558831979428701 4.5000000000000009 10.365 7.6332295383785373 7.8398785774583262 7.6641290350445663 12.730000000000002
decision_type=2 2 2 2 2 2 2 2 2 2 2 2 2 2 2
left_child=2 3 5 10 -3 11 -4 -5 -9 12 -2 14 -7 -13 -1
right_child=1 4 6 7 -6 9 -8 8 -10 -11 -12 13 -14 -15 -16
leaf_value=-0.0097441395123799655 0.0049681724850898206 0.011383780891245062 -0.0031031352219482262 0.0096773025095462789 0.015774196897234236 -0.0075813099054189825 0.0003599604782426641 0.0055056760121475565 0.0083832324792941417 -0.0047568461136973427 0.0028822770181365985 -0.0075565761056813332 -0.0064443218111991888 -0.0084158010823386052 -0.0088855988600037312
leaf_weight=21 23 33 36 20 21 26 21 22 24 23 22 22 20 35 22
leaf_count=21 23 33 36 20 21 26 21 22 24 23 22 22 20 35 22
